{"learning_rate": 0.002, "momentum": 0.8, "weight_decay": 0.0001, "layers": ["Dense", "Dense"], "train_errors": [0.879, 0.14100000000000001, 0.118, 0.125, 0.11699999999999999, 0.119, 0.11199999999999999, 0.10599999999999998, 0.10599999999999998, 0.10599999999999998, 0.10699999999999998, 0.09899999999999998, 0.09999999999999998, 0.09799999999999998, 0.09899999999999998, 0.09299999999999997, 0.09699999999999998, 0.09499999999999997, 0.09299999999999997, 0.09299999999999997, 0.08799999999999997, 0.09299999999999997, 0.08999999999999997, 0.08899999999999997, 0.09399999999999997, 0.08699999999999997, 0.08899999999999997, 0.08599999999999997, 0.08799999999999997, 0.08399999999999996, 0.08999999999999997, 0.08899999999999997, 0.08699999999999997, 0.08599999999999997, 0.08499999999999996]}
{"n_input": 784, "n_neurons": 144, "activation": "sigmoid", "trainable": true, "weights": [[0.03204196551101778, -0.02684840406865345, -0.0669733274406728, -0.011615377707474275, -0.05927338130090228, 0.006502061199851573, -0.16055438778055164, -0.002802818659491271, -0.05338387774172225, 0.026973690998508056, -0.09877192970101975, -0.015026052434071721, -0.045764854466390385, -0.052693067915746634, 0.012442194177805668, -0.03614780452949728, 0.0316382775774208, 0.008902849349327582, -0.0016084706931725034, 0.0695236690728174, -0.05071495767768608, 0.024750115016922737, -0.051541393904235545, -0.05102034129939141, 0.007125278269715197, 0.011342246566700966, -0.07236061307776111, 0.00981211698505497, -0.006434478602501469, -0.05594574105669227, 0.0011326667130763645, -0.07245548681388832, -0.0658938238728196, -0.0015957876438167176, 0.015240261391897112, 0.016343484253418493, 0.016348054655433597, 0.02512966314606085, -0.10907821763242899, -0.002951458601927902, -0.05214173360289104, 0.06863596758916167, -0.0744453458306431, -0.06752292678594211, 0.03435051984640865, 0.0032625861383932444, -0.08151851921173744, -0.0350839051837605, -0.011853141610830812, 0.05642560664323206, -0.015511497102997237, -0.06505527647123611, 0.031465433741410975, -0.04523061809962251, -0.018776806919552556, 0.030904462835154252, -0.09180606248363736, 0.031315693458931114, -0.013391696049037576, -0.019245861613106163, -0.10355404935413416, -0.10180707971240066, -0.11163311746649864, 0.012221256728259553, 0.001186605687016581, -0.02571553914237257, -0.09140456271668726, -0.07819723712427476, 0.028575843282294417, -0.03755825031532811, -0.04611945911379655, -0.02997391633940072, -0.018543750795330338, -0.07085369794777188, -0.026121879396427135, -0.006095378859004474, -0.061164902338575126, -0.004461907346647456, 0.007432390596444195, -0.08533879606134753, -0.06570944009151664, -0.018793762478811125, 0.09072311987451874, -0.050790330551885615, -0.03386965283207918, -0.07563170148373792, -0.013483546005476407, -0.09332343307336535, -0.05492356290542992, 0.054905017433478025, -0.05998623934811209, -0.00938231545362524, -0.06476346403122234, -0.0433570320503365, 0.06093623700815721, -0.04712159614345662, 0.0085932560032769, -0.05462732539824639, -0.017283649179624896, 0.06181151242877209, -0.041671843573406586, -0.112442290964073, 0.12544256273486562, -0.0896574087476404, 0.017319212356146273, -0.022461904701477086, -0.01529031088088334, 0.02453918444180883, -0.016112592585217658, -0.04853470747849393, -0.03009364149839291, 0.0967218772657338, -0.11332962684366611, -0.0002055848189926801, -0.0794856636619672, 0.007087465648026209, -0.06527793595135306, -0.00023209965726334053, -0.011515515548338351, 0.026873183313465967, -0.09003020987839491, -0.025058343346871396, -0.05643052494312654, -0.025900649269070732, 0.04648437138278159, 0.001462538221527504, -0.25860619086827147, -0.07681607878118898, -0.029045544121741387, 0.0310662006614071, 0.06279239670601716, -0.04363510512637021, -0.002968460985813585, -0.052846491644593596, 0.036153649147669706, -0.16419568680793067, -0.04291206092927592, 0.04473626130261377, -0.0005724023384921485, -0.034358219532113266, -0.0253268937161194, 0.007370496443980509, -0.009938993597307533, 0.02177123773506934], [0.003388900919420084, 0.006307264011088782, -0.009309303372186903, 0.00928424370979422, 0.005610695700944284, -0.003964607803484074, -0.0015777430456030187, -0.007682853823539344, -0.007094778150405486, 0.0059977681338488804, 0.009567594754505042, -0.01018500035197829, -0.005468046761390378, -0.005494724815201984, -0.006338559193155203, 0.007525803744350161, 0.007846425564001638, 0.004443690699646551, -0.0009457817374133685, -0.010490612614855213, -0.0052785927806770095, 0.0011174836217879506, 0.010303482732625074, -0.00047229888125885073, 0.004192342958582161, 0.008186615428113683, 0.0040258415435732615, 0.010004587622243757, 0.004774358441587661, 0.00365244894943252, 0.004336328942932034, -0.00258697897148263, 0.002317612022314721, 0.0030438043268344573, 0.008409844133018596, -0.0038983021140529444, 0.0013334900525210829, 0.003138838121110021, -0.009814579907632202, 0.0026063948798096333, -0.006438791601289875, -0.00834680477176723, 0.004948045706076304, -0.00772243317617495, 0.0019726925716563146, 0.003469517898231753, -0.0029227017994334597, -0.006694969806934039, 0.006452896159706475, 0.009117583706179553, 0.009204404849120149, -0.008182793082338397, 9.625955926651418e-05, 0.008545651700010757, -0.007731679063867708, -0.00347425303184274, -0.002907915486799534, -0.004563454910326654, 0.00718730968370231, -0.0018179675578269743, -0.004232638427020668, 0.004222305563162011, -0.0028438594613857788, -0.007305038586165033, 0.010466289494612953, 0.002133518874543924, 0.006560720234044964, 0.004686869964598466, -0.003434215072056487, -0.0058023187172404666, 0.007789986461496489, 0.003830530778748045, -0.005319792760542888, -0.0021500365784966153, 0.010486847013139929, 0.0011390555385686935, 0.008332955352704865, -0.009481193012773143, 6.805362861737009e-05, 0.004639511519346412, -0.00618809062642228, 0.0014172620968375413, -0.002638001621790721, 0.0007328847584638303, -0.006840766168555663, 0.005355617634560861, 0.005083669622885393, -0.004804327438915265, 0.009665185282400148, 0.006629280994184959, -0.010226653218547098, -0.0006331286856407409, -0.003445523947620311, 0.004748677809430075, 0.005335004106484716, 0.009935152773293513, 0.0006500928797486657, 0.0022273212652087217, -0.00516862269922924, 0.002201559929188288, -0.001716551869672319, -0.0029341769363549265, 0.0029165578504307408, 0.00916359875761913, 0.008434821261170072, 0.004844979044008841, -0.0008097587799985689, 0.007192386578289281, -0.00594632835671439, 5.498200257178628e-05, 0.0012709882171537171, -0.00804452440363599, 0.008251417044403813, -0.010316152314995174, 0.007334326952697171, 0.0033907784857360366, 0.002349766149594608, 0.002809608475233711, -4.157675074549688e-05, 0.002331754369425114, -0.0020208196006514076, 0.0015878560092677367, -0.009440342203141135, 0.0015340940958610439, -0.0044631308109124275, -0.0010126736001167358, -0.00104883690406744, -0.0002146194064953607, -0.009960340666680651, 0.009686649180970196, -0.0028427867566880845, -3.295693160744081e-05, -0.007068388691127768, -0.006730124646013391, -0.0020443954832588397, 0.00035634563239333116, -0.0025318925597613566, 0.0025703447591413444, -0.0035461549862906743, -0.006271300409712114, -0.002315305486167042, -0.0013053191148176256, -0.007324066570278157, 0.010066450067013894], [0.009394009628444408, 0.0009930230028937078, -0.007472965789064709, -0.002323594045134406, 0.0015411512335231283, -0.008456885617321115, 0.009452913184966185, 0.0005935769564873549, -0.008356648478393052, 0.00012773377433302602, 0.002666843743556818, 0.006454213073079626, 0.004696528680866478, 0.010316208661556128, -0.007565807385748617, 0.00219960755095851, 0.010517742080364103, -0.0029545073921623593, -0.002089685642213648, -0.0093731561547717, 0.002817607794453246, 0.003504660978106971, 0.005689700197421468, -0.005029784721244099, -0.008473988408158136, -0.001260897458245868, 0.009072094840900517, 0.00764955948950223, 0.0031288749573291814, 0.009667222285800933, 0.004714223093293534, -0.0026416587226503188, -0.002755489230777679, -0.0013286704569206184, 0.009533689636220819, 0.006597560753890454, -0.0038941272341333996, 0.00490393875691328, -0.004238273291559641, -0.005241188533662345, 0.0009410024181062494, -0.002882864650452356, 0.005584622826276611, -0.006626035383800315, 0.004161265914376003, 0.005593152277768059, 0.009715423122800755, -0.0015160404219276388, -0.007113662996853367, -0.009462466922446032, -0.0016561804397341724, -0.009695801201774766, -0.00770557054397944, 0.004894917233324048, -0.008242619661379692, 0.006144470742014426, 0.008540946504679549, 0.009094090782091032, 0.009357569036709874, -8.893569583702644e-05, 0.005711825115230752, 0.00574268424636888, -0.0017940434314150523, -0.009456181395008634, -0.00865943075384176, 0.0025875630799321284, 0.005558484256261348, -0.0006286489077716576, -0.008466092380928469, -0.009031369756107367, 0.008459243114130068, 0.006981584282208957, 0.0033524098100761687, -0.00816635488025547, 0.004834328617294906, -0.00017745230673197219, -0.0062130961769797655, 0.00789285293247831, -0.002549748310956899, 0.008191911544921156, 0.0008978024189249984, -0.008434813038103605, 0.004196663843800289, -0.006109498246565493, -0.004120499361697276, 0.0019975149488845293, 0.006530976745726484, 0.0033223551569576746, 0.00998771614348789, 0.008855914702958956, -0.004699144136350267, -0.0030971909707476365, 0.008251509273865823, -0.0033553959062009166, 0.00049049730796255, 0.002496432487491855, -0.008292376612961384, 0.0050701121331671855, 0.009748598466563747, -0.006118375894281187, 0.007145235649247523, 0.0038741252200792456, -0.00320008972395886, 0.0008770440645913749, 0.006299446253498594, 0.007475652817077851, 0.0026418456326431825, 0.00019828858665229515, 0.006669657831767917, -0.001298423823540701, 0.009191463501885865, 0.009041179468946631, 0.009538356074688222, -0.004346878100411626, 0.008686369846811925, -0.004831574263356271, 0.0060299051359485305, 0.008807564759060088, -0.00788334634132451, -0.01036057964727472, 0.007701293860248082, -0.0005018497069118468, -0.009081194391391227, -0.007445803683199364, 0.003231837568989008, 0.0060092002361996095, 0.0006823428243308614, -0.01026799063355959, 0.008302528953345049, -0.00017986478327151027, -0.002394763055524693, 0.0034131727971181062, 0.0018598123778905767, -0.006327459388646448, -0.0034467588223563634, 0.00500745138305065, 0.002288814646741081, -0.004854478792117375, 0.007590400290118868, -0.0025393955670640488, 0.008907389787682444, 0.0015962005271619609, 0.0006203979566724037, 0.010258363275122088], [0.008762649429761418, 0.004576268505703817, -0.0010120045402745171, 0.009274993424465238, -0.006978764093551908, -0.009736223087615826, 0.006891306948635878, -0.008852281112374048, 0.00818770114089154, -0.00244085729447963, -0.0016735981472410437, -0.0060736522327660865, -0.006433080496529805, 0.005658072111061031, 0.002227130655546403, -0.004723639979845903, -0.006043039422616847, 0.0028088321237883366, 0.007572004391493905, -0.0037819742564124564, -0.010341432792685068, -0.00243163533370291, 0.00247901354997466, 0.008270362157478764, -0.006842470717774451, -0.0014436486964004602, 0.004796963760029055, -0.005295336865034371, 0.00788534240538962, -0.0009076377263314944, -0.004603906012016568, -0.01012394251328748, -0.006155024866065242, -0.008099971772841786, -0.002196825527890657, -0.005207104813622655, -0.006546329587549428, -0.00750932935596497, -0.001978104506135326, 0.004957454353951662, -0.001271431186972612, 0.005383074161970697, 0.0024151922301193637, 0.005518604940194854, -0.002901136434017948, -0.0067574670747214335, -0.007674730240827999, -0.0012781719266357632, 0.008115658014681337, -0.00781943649493055, -0.003905485502855151, -0.004889378260818712, 0.00760618920583015, -0.010066951758188085, 0.004394564149888779, -0.006962897647997908, 0.004642824686526047, 0.010186189119858094, 0.0021955728962110514, -0.009630761475194165, 0.00587892107433798, 0.001495951641399157, -0.008181880791011857, -0.004917714699310296, 0.005915165150942556, 0.004942841835642931, 0.010154154370316183, 0.009376581849000523, 0.005876582479005699, -0.006514433022999973, -0.0033554690713862947, -0.010010411131509609, -0.008998279879923299, -0.0034015825914851658, 0.008608764062356628, -0.004125681200574882, -0.009403893913508753, 0.003419661211707877, -0.005903298496544524, -0.004235113586058976, 0.005061904014474677, -0.009144274108336637, -0.00925372855085221, 0.0053391839718115505, 0.001566460883411881, -0.010346991273593193, 0.0003570206607394708, -0.006383452877797673, 0.0017198991421286342, 0.0017230240894551966, 0.00815690306366232, -0.006824283931292877, -0.005802968303354275, -0.010474782004853286, -0.004897117162750218, -0.009272121344031124, -0.002796695545821442, 0.002184722336818185, 0.004984338464362446, -0.0018605600033254493, 0.00905029687519224, 0.0023027454868836607, -0.005385793054930015, -0.009448792727724961, -0.004143948424554217, -0.00012768310174766272, -0.004788551669201312, 0.005666628858535308, -0.007644604872692134, 0.00922129637360521, -0.004062825419594253, 0.010289619150307173, 0.010008577599530983, -0.0019540223527514202, 0.0004977324901644027, -0.001318091282784457, -0.005891617224144888, 0.010340275977499888, -0.00938634382532615, 0.004011960786183973, 0.004971178944194821, 0.0070442938747788154, 0.0009071247346824023, 0.0007938877410805166, -0.008844635940450565, 0.0020849995942792874, -0.00974061515015664, -0.005443112308354319, 0.003779785222331737, 0.004783463949725319, 0.005550613508701584, -0.002313875590890967, -0.005992256148155865, 0.005390592061553235, -0.00016730800822213512, -0.004227222517123419, 0.0022688704674277576, -0.010311352863770502, 0.002136460099082466, 0.005072128326730232, -0.006099290977196897, 0.003882757702641794, -0.0022163889805253533, -0.008415636977080525], [0.009900050491239506, 0.005679978250420995, 0.007280943034050884, -0.0006999730850347196, 0.007622246597855735, -0.0049583082466384655, 0.009742903791801656, -0.007322414664701512, 0.0018520049666112112, 5.380456666838002e-05, 0.001088901281974433, 0.006343783805722919, 0.01044659527817939, 0.009625544454690915, 0.00645833027735277, 0.005687714894634281, -0.001122751463642938, 0.005369289881305769, 0.007183831539194708, 0.009981909230961471, 0.006527347247314784, -0.0014341424823313895, -0.009055188746401533, 0.000786782961602335, -0.007426441534226586, 0.003969062857352706, 0.00943941273684663, 0.008507311713793198, 0.00454835484712484, -0.009853518937550734, 0.008792715905475874, -0.005302782976485949, -0.0012436683696392772, -0.0009640532240784395, -0.006496968169867559, -0.009008693178255017, 0.008806319510769722, 0.0008670253783067793, -0.008084196304663185, 0.0028849167364410205, -0.007106633451379527, -0.000695740203725153, 0.00944128415739132, 0.007606947635907715, -0.004676257989891252, -0.0024775740545480334, -0.0018867045588447393, 0.004118198550618089, 0.010207524581771597, -0.006489483360474871, 0.006185437877827384, -0.00293097155487228, -0.0066043906876828975, 0.0029575351631233628, 0.003790158982715452, 0.00044867589760175204, 0.0030493962693786745, -0.007238447570723466, -0.009419506605782169, 0.007073163326909824, 0.002519489519887521, 0.00436296344878883, 0.007720758484327768, -0.008650489061533605, 0.001605277541543347, 0.0010131183353260845, 0.007033108920532903, -0.008525548553902753, -0.009479491177111717, -0.006343208954728432, -2.7272222378233618e-05, -0.0069714682556927185, -0.0002104823420109234, 0.0016420600030762798, 0.007880837460451803, 0.009008395226180212, 0.010517161023095658, -0.006920307764613814, 0.010456059458401857, 0.008369886187269696, -0.003520567792637473, -0.001273917730699698, 0.006682658927218193, 0.0015922276374547102, -0.010091252576646873, -0.00941549330406227, 0.009765365466649006, -0.007973747694523942, 0.00428518819876327, -0.000585753021971544, -0.0004492979302797509, -0.009188098694285074, 0.006589903611019045, 0.009137240314497459, -0.0005911366460259452, 0.005488606513311735, 0.0026399615989199437, -0.00326865228935608, -0.0014463970468225488, 0.004932133352890202, -0.0004005556603985105, -0.0004176992284599461, -0.0004927598037725888, 0.0012835003191987656, 0.007472912889209818, 0.002865348277584056, 0.0059466596194245845, -0.0007328024326992711, 0.005514837165338812, -0.010045154430039739, 0.006961309687531825, -0.0025509320253824905, -0.0037156288508568293, -0.002161420836531914, -0.00047368781096938917, 0.003209920004398524, -0.004114127951753523, 0.009279397674788225, 0.009710381439294343, 0.006482388306712127, 0.002622240489604955, 0.010396999857520059, -0.009918438291327703, -0.00693380738508442, -0.0029973210292272372, 0.003989521078152679, -0.0038660009463513632, -0.0019483268471999636, 0.0025430189226514997, 0.0059349576136305485, 0.009161546067197768, -0.002183969123475861, 0.004597608124345514, -0.006052559966278926, -0.0037871189613248907, 0.002392034557787379, 0.003428319036881469, 0.0007777796077104753, -0.0047041149831664715, 0.00421690289012035, -0.0015525290981431247, 0.009963827853569675, 0.0035176670016994743, 0.003446350269342159], [-0.004998073006719402, -0.007974035846347385, -7.823232253139579e-05, -0.0018137984884116656, 0.00841938403128116, 0.003938480004769887, -0.008239934466611724, -0.0023437843696340202, 0.0058839717801370045, 0.004521846509746129, 0.0037007261739921784, 0.0037391180440351137, 0.004829587762156796, -0.0017877907145002522, -0.007631385223285442, -0.0010050477160182376, 0.006081025852754701, -0.009757122967898187, 0.0035201761972294124, 0.007986852496406006, -0.003089436177203575, 0.005070419275195774, -0.008198463165028477, 0.006336000771568324, 8.766803487021121e-05, -0.005909567875946957, 0.003687578720919573, 0.003177392065636273, -0.009560969012764162, 0.004178759685622358, -0.0038429701920102313, 0.010228716852818837, -0.002836376706637219, 0.00871929905812835, 0.0023822725596736286, 0.0060389382103209965, 0.008343124445369932, -0.0016240502921323497, -0.00741606458425001, 0.009428590832463845, 0.005057105992358416, 0.002855813201221617, -0.0076829156428335045, 0.0025013477494268714, 0.009586414677842476, 0.007407216271250404, -0.003386638138062169, 0.002728591082301981, 0.005591538514230635, -0.0103433455315571, -0.0023922722285758076, 0.0019385343013388697, -0.009835575422388592, 0.010385857088730317, -0.0022836882529819447, 0.008787830921228526, -0.009357416551617675, -0.008662967879181223, 0.0009068433580550374, -0.0014562452688320255, -0.006469443245572474, 0.003704843926824226, 0.00976657176470423, -0.0012681784699160297, 0.0013060135679272226, 0.001145896984268646, 0.008880563207830912, -0.002139298660867213, 0.008637265307015191, -0.008950871848487111, 0.0010911784845360876, 0.006379227718865917, -0.007339621061420151, 0.008003450654201596, 0.009382862861749348, -0.0021348632990493216, -0.008867942598299332, 0.0038309361078322584, 0.008132518788205872, 0.006541134019206023, -0.006711018643267241, 0.0029599720648007324, -0.008253699401561043, 0.0074346519492539, -0.006178918764549329, -0.010467509459248514, -0.009129874819543271, -0.004062584018819817, -0.007038331144435338, 2.6001120953698284e-05, -0.004322172929314841, 0.00936040648985898, 0.0008632772105143153, -0.008824349554144085, 0.0006137141995784029, 0.005132856532507433, 0.009683791868777446, -0.001156724231669162, -0.009750759908605057, 0.001543054437608993, -0.0006116791837479778, 0.002236385011545735, 0.004935636596838242, 0.00974409175031937, 0.004957557054381589, -0.005082880698398533, 0.00019460771958440916, 0.007486234495749778, -0.003668971141291226, -0.008772361149262085, -0.008217480576430698, -0.004641272930443119, -0.008959319111827731, -0.0016306380980854313, 0.004805238845539251, -0.0074498058900525225, 0.0019725244990681364, -0.009741342468299732, -0.009390189253034663, -0.00020186037482841407, 0.004758049858728647, 0.007766358380781664, 0.009753764111231734, 0.0032218466040405134, -0.0020780266923993524, 0.002474935948111358, -0.007088255010309414, -0.01035299065539632, -0.002031511654464281, -0.003983206646087855, 0.009975570275031233, -0.005114582565138952, 0.003488968504483391, -0.0004959051937762186, 0.0024279232217859405, -0.006685218069942467, 0.010375940214557434, -0.00714986079446824, -0.004096869102997219, -0.0009997711773648585, -0.0005126252227027443, -0.004817936218864485, -0.010442760590893075, -0.004751047388427711], [-0.008895118109575717, -0.0038325984651188727, -0.00455404994966666, -0.00459409138638645, 0.0028327568709027354, 0.0039327799092025075, -0.008685367366796468, 0.00046214976792701454, 0.006322205587043114, -0.009576477244177276, 0.008586076361782971, 0.006027866144529467, 0.003899680371235973, 0.007290447368306194, -0.009728432637785783, 0.004198098836674137, -0.007534675460206819, 0.008883511152168901, 0.010448937221583092, -0.001846310584517914, 0.00013988617553463325, -0.0029058839157530022, 0.0033520306143135815, -0.007642667100957563, 0.0062778307052187374, -0.008161165484876599, -0.0073530332732736365, 0.004386512220843615, -0.004006991657787415, -0.006702659999636102, 0.001258002898659542, 0.00527316182591096, -0.004169746471591232, 0.01024119405137631, 0.0018202455281123855, -0.003402341694994362, -0.0007284438398908819, 0.004888696490306506, -0.008953252035622276, -0.006710128968987357, -0.00795531898615055, 0.008699740066671556, 0.007421051126444155, -0.002587723281637515, 0.005027905320940109, 0.007339912668998636, -0.006088752031502501, 0.00048411973012595365, -0.0016417060926162332, -0.004312477652481366, -0.006882535504327114, -0.0005626712374487113, -0.00374113855676862, 0.0050626523007491885, 0.0031675675837626524, 0.00831358090264356, -0.004952772005925669, -0.004199791737137854, 0.003736294558811945, 0.0028939692868092037, -0.009450603540528011, -0.0033753421264698224, -0.0031324687991647537, 0.001013743422893833, 0.0018809044859980442, 0.004176719431702993, 0.007629853718100375, -0.0031182944507117095, -0.003907474931991402, 0.0008576171516094831, -0.00028402861260120297, -0.003448650761513961, -0.0019195518210782024, -0.007028032415650555, 0.0010259900684277859, 0.008948602755387041, 0.007392923091059092, -0.010444168025697744, 0.008360342509779193, -0.008978337723872073, -0.004139008973394354, -0.00672520230583696, -0.003445920030943015, 0.002188018306040865, -0.007509997924351132, -0.009928977170023537, 0.0054031497199916465, 0.0013075055551993334, -0.007411123680429127, 0.003095755328570063, -0.008928231456432699, -0.004367151649147499, -0.006203006379755942, -0.004611954335101687, -0.006354094734768112, -0.006829926258273428, -0.0010353944575743235, -0.00404985472840805, 0.005642992746489191, -0.006902473098221337, -0.0035023687764505714, 0.006728779027717558, -0.005847018861475239, -0.005238212256058651, 0.00851360491493311, 0.007492712614156743, -0.009469691407220064, 0.0022203685566614473, -0.0019031416678153177, 0.0031424777802249297, -0.007830443011623929, 0.0016983959185361346, -0.004339215248548202, 0.002328914864047838, 0.003146846388114738, -0.010322213142506032, -0.001490116679898479, 0.0020345260665840183, 0.0012540868155539499, -0.0068925658191006, 0.0024449038013353353, -0.0034639337070174704, -0.009802507736828054, 0.010160430124751275, -0.00930137797129166, -0.004358435858548868, -0.006648625314891616, -0.003664597822889311, -0.0061448124445219665, -0.0038980797706389255, -0.006227205558388624, -0.007798738828426727, -0.009853790689745574, 0.006972419931719204, 0.005318638038495888, 0.0013637238678388213, 0.009655598278955242, 0.0010842236578078334, 0.00962351704753186, -0.0035177462710890626, -0.0005055833141718973, -0.006537126557855322, 0.0005684197092929048, 0.0010695538170533124], [-0.002205285896845515, -0.00763377884833337, 0.0011982092559356193, -0.007341971818830606, -0.007385921537902666, -0.004783786730392933, -0.009810773089185034, -0.00986569299062399, -0.008332965592830052, -0.007870424416087528, 0.0047334035190582675, -0.009110685711247728, -0.0031837269738060176, 0.00673042768024328, -0.006275904460245845, -0.0004012392761067019, -0.009618750632378669, 0.008044859162945082, -0.004139153540264942, -0.0009251698287771423, -0.008966219884106888, -0.00022524913654438936, 0.008036945131222127, 0.0074306918383273786, -0.006313244092945404, -0.009731037646909557, -0.008380511782426258, -0.004942709797767391, -0.009061148227179296, 0.004202645114868954, -0.007211425203839948, 0.004773443246036443, -0.002814696401498282, 0.0016767725065760881, -0.003470231414033689, 0.006536831595362898, -0.0032610793052289993, 0.00183630452900853, -0.006137034187240228, -0.0008378315523991087, 0.006883928481259071, -0.005644674222895794, -0.009464863963528915, 0.004073362596167801, 0.004046562796882762, -0.004061047740597334, -0.007499914724123783, 0.010263318909201236, -0.001491996983186751, 0.005578420140059796, 0.005744324950228458, -0.005785730252213379, -0.0016238290997942916, 0.002634717474426627, -0.005133101744381023, 0.0029630488194470465, -0.006438596707701028, 0.00633117595693221, 0.002466510484825646, 0.005423261009590225, 0.005709483512717701, 0.003259374160440755, -0.007433015840270384, -0.0009345301533351334, -0.007509648150863069, 0.00897818853961506, -0.009498163655887813, -0.0011453285663905058, -0.001443117995551397, 0.0103389998611061, -0.0102897981954604, -0.0031473731826284924, 0.0018302240186171166, 0.00860791950601397, -0.004065697482147184, -0.010388975858925398, -0.0007434480358956486, -0.0014342831209566932, -0.0010712616841042852, 0.005298185597154001, -0.0036477656696554095, -0.010309846484562075, 0.005345872182853094, 0.0015273402934724478, 0.009946970694549364, -0.00860365184076481, -0.007101471146120093, -0.00909879057631503, -0.00707522564912565, 0.008024983902644528, -0.0006955692831554709, 0.001001080907606627, -0.004897027020968528, -0.01044937164162028, 0.004228179408432317, -0.008676628133546452, -0.00815727101731786, -0.006692218644561817, -0.0004380963831863145, -0.005469578208582773, 0.002280047519748617, 0.000726032421822872, -0.006308764073645309, -0.00011756486932131169, 0.0007441610187282493, 0.0044331793917435, -0.009978902866267157, -0.006758845182486591, -0.0020076285108266453, -0.005549624412854929, -0.0019602042079622625, -0.010139409962064413, -0.009690962226483907, 0.0045489881094095555, 0.006839913385392897, 0.004816486586922169, -0.007740497775781211, -0.009275802822368747, 0.0034690984655240415, -0.0006143827303342355, 0.005754741982324265, 0.006233285353390434, 0.008278207156772825, -0.006146765876904728, -0.007402456621472843, -0.009547601653516589, -0.0056906216206252065, -0.0063446480157002315, -0.01046327157173967, -0.0038504360183392638, -0.002756007727725417, -0.005229015677242781, -0.002350179295075957, -0.006095584215746635, -0.005306907334195063, -0.002823081493238707, -0.005007463812823849, 0.008855734260972352, -0.009963728056969294, 0.001735340911075909, -0.008789123270879075, -0.0023546973097845346, 0.0004187545649409839, 0.0053687904053505466], [-0.007406178032407924, -0.005092565394717536, -0.0030976679196428485, 0.0051733428252513786, -0.008713104712514144, 0.00952853533822772, -0.005803026926725623, -0.0006621431743076761, -0.004744146158270671, -0.005505713228466753, -0.007426109500076245, 0.0013718315381699, -0.009968185514616415, -0.008788398138857005, 0.0038362863593930673, -0.006125993787111131, -0.00979377143918782, -0.008582361729743805, -0.009084301918819468, 0.002143897330929611, 0.0012811694943821751, -0.004578841659700182, 0.007157385146893436, 0.00939481865340939, -0.005884013937384458, 0.007681183095951063, 0.005098946656209822, -0.00915070734912173, -0.008848887759960077, -0.007457642256811751, 0.0020325679619037596, 0.002697021261670163, 0.004234162974296529, -0.004861550543902229, 0.009209187345642711, -0.0006441320166478762, 0.006395633838231302, -0.0028314626378840037, -0.004787024418262114, -0.0014038401397069382, -0.007471450657144632, 0.0014766235563824519, -0.01033085679857901, -0.009838944691992375, -0.003515122605345418, 0.006233893906687967, 0.010077217974464198, -0.0027635548656980975, 0.0009931883339921288, -0.0022529294860154595, 0.007140775036239842, 0.002537757537884607, -0.0030022140413959097, -0.008201010457685695, -0.00027634706005402363, -0.003611821651740575, -0.0046490615920051145, 0.00012295778723284595, 0.009093842544772393, 0.003994722378712306, -0.0010683658059242246, 0.0020415722548969553, -0.005049906576671746, 0.001634607704386631, 0.006686718098598063, 0.0026244736422852905, 0.008888264697657258, 0.0032859098279995748, -0.0050214181459783186, -0.004778806963993872, 0.003469867285482302, 0.0034102486572399685, -0.00849113767040798, 0.009281030822240409, -0.0016009888153371266, -0.003180416291505176, -0.0062498299536198395, -0.00890478965797833, -0.0037183301737300817, -0.004788363197879254, -0.0041554353810381904, 0.0036304948756568293, 0.009927019213822733, -0.004775435658280204, -0.001235981736857192, -0.004310666360759766, -0.008043609730738083, 0.007506843051461588, -0.0005905533834337635, 0.006954604462554648, -0.002125968922188175, -0.0036935894722459305, 0.003077716691543937, -0.007611300895645161, 0.0056836112768882665, -0.009301958650679773, 0.0015480644338231706, 0.001756479802416726, 0.002968568068453159, -0.003543289622325947, -0.00019375362764832655, -0.0014902823308297396, -0.0028168567219334236, 0.005114408799214194, 0.00034817017908945813, -0.006717129271202201, -0.009007485713760217, -0.004026726908692724, -0.007783823212282094, 0.005755888957734895, -0.004077345713000373, 0.0032872988603229415, 0.0044538005613485926, 0.008475255273767131, 0.0018627720624887403, -0.009402663527973528, 0.005378556344194872, 0.006514926764225497, -0.0074544199184513275, 0.00011501813517824611, -0.009046143719610933, 0.003904229554092151, 0.005637532897115714, -0.00026749535315295536, -0.009763040050478521, 0.009852339993552327, -0.010498282533052265, -0.007004405843888933, 0.004155172558020444, -0.0032515200582296498, 0.0021704474490399153, -0.002478409317390144, 0.007730237310743424, 0.009540138401287725, 0.005972588984987797, 0.00963108344795184, -0.0033891908808638123, 0.009561420238242522, 0.0053042710377744955, 0.0013066811766023743, -0.00169692315575348, -0.006129786117168307, 0.01000292609348707, 0.0036079492127193227], [-0.00918594897899734, 0.0006631729791839243, -0.006514346602414487, 0.0057686204484827235, 0.004979508872691905, -0.006944874606711686, -0.002271745902660114, -0.005093119004174376, 0.00552589722582443, 0.0035711593434733496, -0.005511245759339412, 0.006243172168374305, 0.004706942725369276, -0.008447769731931482, -0.00245644560391503, -0.006632958888436463, 0.010328230775905344, -0.008918267690890162, -0.0013982539896714545, -0.002331456625788385, -0.008968532211538632, -0.006184794751714015, -0.001063190702160264, -0.009328767060341046, 0.0038910383830385266, 0.008517161804185349, -0.004181299166962754, -0.0021801270204528924, -0.0030203708711385867, 0.004831403845519734, -0.006716267078824507, -0.0077471992483941505, -0.005761789449531314, -0.0015049253842861609, 0.009354656467495222, -0.002826209788259799, 0.0011508450134617597, 0.005526500367498992, -0.0032737607192150956, 0.004259888863350379, -0.004855160851552503, 0.00936466966725885, 0.0013422411406176459, -0.004308664517724574, 0.006020542108153539, 0.008141947308611166, 0.009766014384808931, -0.0005842154536601345, -0.003791762283565053, -0.0019498684843645092, -0.004191327307087694, 0.007912548217549314, 0.0017257925689164086, 0.003984606924412183, -0.0035724483838793057, -0.003878619221487795, -0.0005307891079837892, 0.005364796062439961, 0.0076023004479667255, 0.005365989035007712, 0.004205213881305464, 0.0019483799287320015, -0.009446040163870722, -0.00968178338625835, 0.002984468683804431, -0.006501156398368137, -0.001247098854396443, 0.0073517519875439296, 0.005951801696808434, 0.008644835098817014, -0.006013005826463561, -0.009655656890212841, -0.009572236143794103, 0.004747154674129016, 0.007329086181796965, 0.0046367260249878806, 0.004503055147788911, 0.006122830875582127, 0.0014125550778742973, -0.00919680715820191, -0.005073519349924082, -0.005132755576865249, -0.003977851183307319, -0.008716409291023648, -0.004125346579638848, 0.00914106723544321, -0.009805921156829102, 0.00849837548632565, -0.008455192026652906, 0.002382157910051932, -0.0024353194970949646, -0.006829743069164142, 0.0009956066573838232, -0.002920623885232461, 0.0004033114144092887, -0.009537216328729338, -0.010135383531312282, 0.004052932263831791, 0.007900192568396308, 0.0005651685359422733, 0.005971196800465603, -0.009135874065903857, 0.0077273592382481, -0.008126402420284392, 0.008404045830413593, -0.009057740145463483, 0.0063170528473999454, -0.002651417044706409, -0.002540636318051532, 0.008407275339132261, -0.003000754786753403, -0.0014336373666869971, -0.008734325290284662, 0.006549618415227367, 0.005834772848863225, 0.006735835505868617, 0.0019161577676862066, 0.006187604431915716, -0.00012955248165470593, -0.005382638298443027, 0.008078195442971, -0.009888236577712935, 0.0050997537282917605, 0.0008871554454177025, -0.0029266434660148517, 0.002406571672314035, -0.007999882285532316, 3.3319145851045756e-05, -0.010330336338778333, -0.007157753220738431, 0.0015856758647220068, -0.006904743749789011, -0.003327854942935601, -0.002835035072780905, 0.0039110513142924744, 0.008502212445152021, 0.00970385939923366, 0.010083290278627638, 0.0041941530023211675, 0.004956491641689256, 0.0034377526758631724, -0.00574700780821978, 0.0034448205189311306, -0.003586679347115611], [-0.008866719338581188, 0.004832805801592669, -0.00895039009329164, -0.004989405460704915, 0.01026322381700899, 0.000811490744715791, 0.008135403363374526, 0.0025801925846133176, 0.0009428942027086745, 0.007123288345271251, -0.00412767266805201, -0.0030066144344292104, -0.0008722494780334149, 0.0023574919643044897, -0.0021306256224494402, -0.00218255111666244, 0.00214384500333066, 0.00541340779490581, -0.0066785245254288245, -0.010490097011194875, 0.008431256609484815, -0.005975205771261276, 0.0059569915981640565, -0.009782838735579754, -0.009822042082183518, 0.004962477924409702, 0.0036086121154275757, -0.005990067527012956, 0.004615095311008543, 0.0006263647390741538, 0.007521690718521397, -0.004083235611671871, 0.0021759091069923357, -0.0075228365119956965, -0.003734044583768724, -0.005849541083309387, 0.008641421288325157, -0.008858701709398143, -0.0054809302828699395, -0.007245549212036234, -0.0023007172509453603, -0.002527420357796331, -9.216733155864772e-05, 0.006173147892723907, -0.00888917740437533, -0.00029109015118256937, -0.003842357120813673, -0.003804135217302575, -0.007842044535302222, 0.00432107873388812, 0.008411726578733465, -0.003409690625907171, 0.0033024493712401435, -0.0028101739343750656, -0.006076928106151603, 0.009915960855886759, -0.004010112298931879, 0.006792339095127295, 0.008357529385732516, 0.004457007338987781, -0.0061342084911200296, -0.0015569681127611888, 0.010155883406655911, -0.0045554477620925815, -0.006382720882168492, 0.007964288870398848, -0.007833208734662324, -0.00775335042194913, 0.007066134774562195, 0.00018160094954614887, -0.0042886411997252365, 0.009798074861752817, 0.000715397942757984, 0.009296256956656904, -0.0009989597265401215, -0.0027776311509448396, -0.0025724042950655474, 0.005775255905270778, 0.005841662578465693, -0.007032735422690412, 0.003871462105393948, 0.00958101569823702, 0.00721000043793907, 0.004740343960984213, 0.010244746956195053, 0.0023461243803907994, -0.006614392469654868, -0.004506603539439374, -0.0019349754855240483, 0.0005896058743788258, 0.0024753813454134123, -0.000297516650342528, 0.007425307567654648, 0.009607487472212448, -0.005554887415963931, -0.009708396835989161, -0.009913948194154245, -0.0016889056684646698, 0.005014309198623216, 0.004534226588123697, -0.007544988827860033, -3.4588899423571166e-05, 0.009041432809412126, 0.008791820150090692, -0.0013872406105463933, -0.008086244691408138, 0.010322173005377579, -0.007423834818479977, 0.00440369043467424, -0.0064642693746685105, 0.0005804376189979939, 0.001364667323967047, 0.0029484316749421105, -0.005436469046096811, 0.007913637087190006, -0.0015407042959243282, 0.00021871041189229758, 0.01035778876771519, 0.002440954823680667, 0.005329663806718001, 0.0064821308891494815, -0.0017871919139209023, -0.006805578032490117, 0.003165299489047469, -0.00335193602415414, 0.005397175730690076, -0.004251352187752369, -0.005330833399552662, 0.008379272581693051, 0.008632806825925016, 0.0015932592336003705, 0.00497248568771388, 0.0029676390439612316, -0.005738546234421596, -0.0021423655779488518, 0.002435809029659097, 0.005336560415949471, 0.0016345565472663925, 0.0012967817694411713, 0.0023645277363956397, 0.008707043900693963, 0.0007036957371727961, -0.00677497475014722, 0.007644547192532146], [0.009466572434304316, -0.0033660291838071158, 0.000777341263873356, 0.006469526858298701, -0.008791934245578911, -0.004112505331569832, 0.0009955477029399164, 0.005855465809635711, 0.009639722419866287, 0.010323731360913998, -0.0053894387191202875, 0.0029287253006722905, 0.005269903850509585, 0.0082034312788907, 0.0002394534908500079, 0.00926280201072441, -0.01009191665301688, 0.007126050650019565, -0.005644099464355454, -0.004313242329645212, -0.0018914563531718172, 0.003781403523584833, -0.003781794021380004, -0.007714894052095291, -0.002096101767609661, -0.009778836796905067, -0.0022189851133261784, 0.009068765788210734, -0.003524269811329233, -0.001503541587372604, -8.433297395161794e-05, -0.001994691276055878, -0.0035466006502576706, -0.00772071071691455, -0.0023837962671814923, 0.0005485045960659885, 0.009864078063527409, -0.0040363437867593395, 0.0029397425261650967, -0.00871868722801885, -0.004745703054985512, 0.0018084330377189928, -0.001952656367588218, 0.0030947941583562696, -0.0035950105111644958, -0.0076493497261064846, -0.0020361471267650757, -0.005317226581272975, 0.007231208287467976, -0.0016865255261046053, 0.00930005626203029, 0.008310557175296033, 0.010175782621131526, -0.00800261577238571, 0.006035898121033028, 0.0019129095646805605, 0.009904988857249419, -0.004454821116292652, -0.002913729354366568, 0.002545954402607198, 0.004577531884993536, 0.009012604212885548, -0.005493907200032003, -0.005400173948589212, -0.0013074202453061152, -0.005581619445228992, -0.006626444322502362, 0.007650845661167623, -0.000353614556455027, -0.0003416750677813338, -0.0077727585763324065, -0.003919550139265765, 0.008648525508453632, -0.0012579428835486261, 0.009282211647909086, 0.010079222552450882, 0.0014675747361030146, -0.0022003723900735745, -0.0072800271607351445, 0.008745549486094273, -0.0019772380611353464, 0.008657807938889962, 0.00600900187326546, 0.009202444867490483, 0.009355982189063082, -0.006405331698856907, 0.008150939464663408, -0.0008379682687694038, 0.006715699402233872, 0.00854156672197937, -0.008947359190136778, 0.005120788471126126, -0.001372270974776338, 0.005463076298752654, 0.008850614869881987, -0.000721972320311493, -0.006284838004716052, 0.008335031923816332, 0.006788352543416685, 0.0018083246011856245, -0.0016612441785393063, 0.010106638837040613, 0.007232133898208289, 0.00463405324522832, -0.01032254857510951, -0.007087647863912166, -0.00888081056554864, -0.007971260036861754, 0.002879742182883258, 0.004986942553412152, 0.0035694772772008267, -0.005293094430208709, 0.008656381535086572, -0.006027187383070235, 0.0075405535211649595, -0.005973875857428888, 0.002363260091065496, -0.0011421267197130132, 0.008398908486375194, -0.008315526972392278, -0.008276932666255276, -0.0007002270119017067, -0.0013763712128761786, 0.003747772002564052, -0.007131609106216954, 0.00831568576917339, -0.0018053544492474683, 0.008094685138639639, -0.0033422678413896146, -0.010120916077681954, 0.008142826169161798, -0.007380609857331097, 0.001494232157455043, -0.006421547505111259, 0.004590862114190384, -0.0032332094878088744, 0.010133680324704122, -0.005862170763362837, 0.009991245547846835, 0.007729125730587294, -0.009925857264386707, 0.007161637456840359, -0.003772912474416657, 0.004777621349838447], [0.0004255734050811492, 0.0026126895145142004, 0.0023011415076836916, 0.010076236211678562, -0.0034414740590203016, 0.003740839165816761, -0.007237856267103121, 0.004313281469014559, 0.00040680465278141803, -0.008046593684122269, -0.009772999738332212, -0.009019340001218424, -0.004178071191874252, 0.009608897854115197, -0.006430577726817196, -0.009910575780923551, -0.0018037361954824564, 0.009229225873048127, -0.00713780449047761, 0.0066821476407475985, 0.009428537406482154, -0.00642320276008035, -0.007941081938238908, -0.002036862258311594, -0.0033530514792611387, -0.009710711622050979, -0.003012625622573938, -0.006865493779504453, -0.0064184587030806555, -0.003695502313168423, 0.005325892566653411, -0.005361220897975534, -0.0037141022003078536, 0.00017440077835376673, -0.00599319949625355, 0.010088215223183115, 0.01008418169125611, -0.0039685037005064315, -0.005631601094942916, -0.0006984977606590171, -0.006188107314972453, -0.006380626993473264, 0.006903779723791219, -0.0057110236815061865, -0.0021051149956399368, -0.005176240100381733, -2.06449693176547e-06, -0.0038473644122257486, 0.0036081687803893405, -0.009642086947456786, -0.0014459932501530326, -0.010311865412352269, -0.009139645316910186, 0.0022966067175563395, -0.007113456101313092, -0.003096456574607652, -0.00886378972277716, -0.005301612775823346, -0.004093486403862523, -0.0010864494604245266, -0.002148211765640503, 0.006467323933352232, 0.0011046089468495376, -0.00899118954720971, -0.008477512912646142, 0.0003805231849495987, 0.008590849424878599, 0.0034099224363068, -0.009720236408753255, 0.009629350650452343, -0.004508538699389869, 0.0011819699910995808, -0.00841663307698348, 0.008943529216854264, -0.004918470304563326, -0.008781604244410799, -0.009145651061734386, 0.00041560025020410566, 0.006303722748604169, 0.002921794423930802, 0.009579319510259268, 0.008762342807160392, -0.008796287479109795, -0.005875621923849117, 0.005938970662757148, 0.0018907909358884156, -0.002689294957055148, -0.009088396042513899, -0.0016317115628276496, 0.0008718379350458608, 2.1582675493084134e-05, -0.00042808017602173734, 0.008788635313309834, 0.00243579167774925, 0.0063484361850283414, 0.006955861408057461, -0.00034686647348823894, -0.009453751415970055, 0.008822857833514464, -0.010461510068789825, -0.0009186797381035624, 0.004776792551218238, -0.0017931694573800195, 0.005973945615322278, 0.01011814794995481, -0.004745009034537969, 0.010227059869972351, 0.009620517082882203, 0.007265789440218462, -0.0027214132498506833, 0.003879681738454043, 0.0008927723474104552, 0.010277067124647297, -0.003752593438444817, 0.007911798619506097, 0.01041167101258198, 0.00013301234294598013, 0.005896510421008522, -0.008218476421637791, 0.0065667802360771105, 0.0010209800889490325, 0.006554210101106597, 0.003658599307657366, -0.0012765354931974057, -0.003991413442974045, -0.00873670972674641, -0.00024209186571618642, -0.003685843594155575, 0.006774359044807503, 0.005373022792156481, 0.0019830539485959893, 0.0068937693947432365, 0.007436627543911686, -0.004096022237869622, -0.003111240093561273, 0.008293021141396956, -0.006126444742839443, 0.0051825433502844884, -4.887016976682671e-05, 0.009785688268385913, 0.0005517804109866264, -0.008204590862731285, 0.001722692486074243, -0.007214994058447127], [0.008334728274875153, -0.005612988906771889, 0.007740167039618214, 0.008805779276134622, 0.0067044356342080055, 0.007127208444966995, -0.0011709949995289527, 0.010331255992341417, 0.008278798915959654, -0.0076742413264325685, 0.00834645950050079, 0.006876558760228032, -0.0022505973279487897, 0.0022605326219778243, -0.0010781667254279063, -0.0073213098750930395, 0.005155577894273197, -0.008587016152460868, -0.00545271562422872, -0.009456423703748714, -0.004742558690602648, -0.001371914456786773, -0.009658418021718533, 0.0030346927985049426, -0.010345529056654413, 0.0038078625995390603, 0.0024751771215351537, -0.0040643226255340165, 0.01036338694294852, -0.005122277924448926, 0.001331952394903732, 0.0035285508774140165, -0.007052445276066357, -2.3660436066266908e-05, -0.005293036735815875, 0.006377420801315888, -0.002988730472733655, 0.006893578915554655, 0.0015492988466930468, 0.008721941778999789, -0.0021856642476825823, 0.007096000925936983, -0.0031618184020176174, 0.004290129758729378, 0.005457433362445899, -0.0043175828459498305, -0.005741479708700752, 0.0005321579538643406, 0.009072980391551006, 0.0015881719042701338, 0.0014842956140669508, 0.00757446324458356, 0.009394825129114104, -0.0015871660491499494, -0.0015156603444457213, 0.010247532039938804, -0.0057443890653453905, 0.007306713271609362, 0.00790902350138471, -0.005620440356963447, 0.0031023296622374355, -0.0036198461449441087, 0.0004471538030180401, 0.008948257331850189, 0.000462886430659824, 0.0006046415465023757, 0.00258553750850295, -0.009473293468072392, -0.004630571064336513, 0.008323407966476586, -0.0033638293977007686, 0.006829051372057913, 0.008420075187555161, 0.009271496350533134, -0.00910173825340893, 0.00393769506546559, 0.0059164735809158825, 0.003696607644729982, 0.0035463435547605135, 0.0048916099978414266, -0.010428419500281087, -0.002285397614047719, 0.009962019265763724, -0.010224829137923249, 0.009604661612728747, -0.010197645707692186, 0.00026947855235979595, 0.004455489588439957, 0.0042016349043819965, -0.008741306844754416, 0.007265146261378095, -0.005955719659774305, -0.0011974428051229069, -0.008860194097011966, 0.010310836079887113, -0.004274670781847457, 0.0020531749434669995, -0.009033830969101504, 0.00626476462678928, -0.001479514145538697, 0.00021925722860764106, 0.004996797128206146, -0.007162596929911559, 0.006684246762999414, -0.004097537209594569, 0.0037179751156339235, 0.008479997238025961, 0.008316493809734047, -0.0019657110975076332, -0.001553746575264044, 0.009979443443912639, -0.004842938184041938, 6.681110860183802e-06, -0.004120976813754733, 0.006903191553834583, 0.003118765960489234, 0.0066878234653761845, -0.0032104928425161646, -0.009766462929597016, -0.0025583192211341924, -0.006316680683173138, -0.0037967774877333484, -0.009909732521481925, 0.001070364465795457, -0.005657282358254288, -0.007913355792472246, -0.010446741866573767, -0.007476855105326062, 0.004354916718385643, 0.0063522544018105465, 0.0060571092680798974, 0.006281530639017422, -0.008991016479724258, 0.007255440644369976, -0.0022889710256983387, -0.007221034565958522, -0.0017907403943707293, 0.0010077733334184294, -0.0002497187880455253, -0.0004120375298537331, 0.005755838941450951, 0.002740925146672009, -0.0032118339143846764, 0.007733132537353542], [-0.0017985295626762102, -0.00834162274013364, -0.002790700840866487, 0.006641035633376567, 0.003425755496721251, -0.0029534733105979847, -0.006761297569771314, 0.010226551476813495, -0.002456670994425672, 0.006755653709927175, -0.010280448567338384, 0.006885876043509771, 0.006410875469149278, -0.0030747686097356724, 0.006723655091548006, 0.0010026691174050907, -0.007628616383499198, 0.008724043097886587, -0.006665909510492509, -0.0038300298369734337, -0.00384838197057032, -0.008182093028071314, 0.00802390090842489, -0.0063134782452481065, -0.003928551744557307, 0.007145116547817251, -0.0039450148887812545, 0.0030518615552177332, -0.0050504610293860466, -0.001741007585856113, 0.004047363445285616, -0.0007559343540478666, -0.0025432203433683773, 0.005414990177485486, 0.0047427507524431005, -0.0029768830196388245, 0.005402294857296771, -0.008234433855641734, 0.0034988057654807073, 0.00837403629707989, 0.0059192848737797486, 0.00489894462826744, -0.006683833541020156, -0.0004752738095442792, 0.004923718418866883, -0.007496735741460775, 0.004575162176747998, 0.0071545796638297545, 0.0007338397433958886, -0.00445094201844353, -0.009496259400531613, 0.006975613389610701, 0.006440019518310141, -0.010054534968555937, -0.007667128887470235, -0.007674001363548888, -0.00638669688682197, 0.008885091100492657, -0.0007039860123342716, 0.0016602357221083307, 0.00808450872771764, 0.0038455301449981816, 0.007361939595642981, 0.001255817082225627, -0.009709346521439796, -0.0020867996255864735, 0.006467713810155796, 0.004750260682621745, 0.009153011561195459, 0.0007697260143926845, 0.007716342495563362, -0.00011470360868955488, 0.004717575418408986, -0.00726573888052104, -0.007101403972746287, 0.0056559262448749245, -0.0021267897130059217, -0.006756927048591948, -0.010105970978777768, 0.006313494570760933, 0.007271289557839721, 0.003734880018096668, -0.010098653266446147, 0.0008623901536501097, 0.0096290430790235, 0.007713472846239487, -0.003249632629720934, -0.0008611118148316327, -0.0029678687004827133, -0.005291689511672217, -0.008081949671670705, -0.004806283786213426, 0.005123016358572068, 0.0006420530435331442, 0.009785658449920494, -0.003780486789183847, 0.006762001367005556, 0.004422324160416638, -0.010379829193478794, 0.001599819953241509, -0.006993428331704706, -0.005443684927595663, 0.0050217212723687385, 0.00906794798975801, -0.009460824987200335, -0.00572222474177943, -0.0022520863959932503, -0.009751273330335536, -0.003938080978771514, 0.007460213638017141, 0.00180306202786489, 0.000712996520410894, 0.005291801550622022, -0.0033976106989697568, 0.0013348650057951408, 0.00403986358469977, 0.00968140568562919, -0.0004462218384122906, 0.006795240394908124, 0.0026995469629669698, -5.106959356366249e-05, 0.006898307082006696, 0.010453698904168383, 0.002733944079310923, -0.0020944580016161547, 0.006335063067373754, 0.0027794119180787526, 0.0012617005904274631, -0.010044023533389918, 0.007320613080118623, -0.0029797539091263566, -0.004878980724874487, -0.001557931197538469, 0.006819260752472956, -0.0023498019254449393, 0.0002495045064563201, -0.009173184542814473, -0.0012348159991998292, -0.005277543478071423, -0.010113741851182608, -0.006542402747075995, 0.007699709425312227, -0.0065108312445404225, 9.121821349906778e-05], [-0.00045196964986445574, -0.0023442057394176354, -0.007396592789487337, -0.005168985843471929, -0.00978322570056607, 0.0024889730668658607, -0.005558710375430637, -0.0060293113524475, -0.0022601247565998336, 0.007180120500898126, 0.0023180449296443624, -0.0022973671148488264, -0.010198169291046421, 0.00029962831191239394, -0.002748268152404975, -0.0033866598539709835, 0.0016884081399954932, -0.007572270210123019, -0.0014755955320325369, -0.007226922742859594, 0.009674151188193324, -0.005469678156030568, -0.001513100414004716, 0.005921222763651374, 0.006853724178383297, -0.006284747739742694, 0.0024663190805456693, -0.009229490013816692, 0.0037671052249732655, 0.0014062881941465856, -0.003011036448029138, -0.0070739714363859665, 0.005766034540179728, 0.006354634062954464, -0.0034238069646125384, 0.007056353502704748, -0.002328106095467489, -0.008677162616048686, 0.0037920619381158886, 0.00926808248725164, 0.0009537421094957159, -0.009635205712341357, -0.002371515252638305, 0.0050309040772846345, -0.008976075785969003, 0.008018119034119482, -0.002189311207239278, -0.007898604967374047, 0.008210517618244201, 2.4260750048828112e-05, -0.00010933120354248215, 0.010461005679686216, 0.00420663831557266, 0.0015399607771573673, -0.00974760433534243, -0.0020381695686143395, -0.00695254565936052, -0.001429723935186141, 0.008387974662403708, 0.0015180809814016587, 0.007956991354738732, 0.009354079288951891, 0.010033522383677072, 0.0034724454492287083, -0.0028893312419469514, -0.0044272119249742625, 0.008499115390093858, 0.0010982615277458317, -0.009377558572816195, -0.0019021123938187659, 0.009872134135221304, 3.361907842871138e-05, 0.006264481065515989, 0.0006012633309505873, 0.004131399030552042, 0.008634847091002013, -0.0004589758190818614, 0.003783003372829189, 0.010059239836486893, 0.002614341792014306, 0.0041626363788773435, -0.010170006520526428, 0.00512975716396316, -0.0020876998694656043, -0.007233549913536294, -0.002952059309463957, 0.004096074922125628, 0.0024530956284600615, 0.0005410148748132256, -0.008269539878756378, -0.0009404257850896055, -0.005288805749696003, 0.00025171930265630764, 0.006692279579483718, -0.002116563711760616, -0.006126635545161295, 0.00423581050388543, 0.00662679481261689, -0.0010323847387213527, -0.0008718278231045322, -0.005241728336634828, 0.00345473231998082, 0.004226242848931572, 0.004689428808077056, 0.0048516517754879475, 0.0025244642191932813, 0.0065000853652244185, -0.005405159600314327, -0.0032479809633795946, 0.0024183108026184716, 0.005908349521625421, -0.00774008860994316, 0.0023217622732687004, -0.005371855061415058, 0.0021090880751173107, 0.007000536251290716, -0.004641059271000715, 0.0030196982084347, 0.005351600921346071, -0.007559161945576249, -0.010069039227277104, -0.0070693857578228965, 0.006643087372534607, 0.003409054900607258, -0.009365560928387239, -0.006398739233329564, 0.0034754665099432534, 0.00859437306569848, 0.0013509738485141302, -0.0020715783739312962, 0.004286810814269089, 0.002444281694813903, -0.0004963228750509401, -0.004275320599463841, 0.006394254876086083, -0.002103205204728575, 0.007462943684501799, 0.0029900158793500003, -0.005443430125272138, -0.00592143969745055, 0.0052241151893038075, 0.0074551473036457315, -0.008646824354586517, 0.0039252631494189555], [-0.010115871747235858, 0.003961607494031363, -0.010013903369605993, -0.0008132399391534214, 0.007884930685089124, -0.00029190971451096436, -0.006323716965237094, 0.00980629047973482, 0.002249985215792694, -0.006116713339896383, 0.008856060073402111, -0.008426306070250657, -0.007314418801360485, 0.010487738288689543, -0.007185266505571954, -0.00297862659404211, 0.007036250834370483, -0.005742398602926666, -0.007393297979278941, -0.004902648543774885, 0.006444569799480767, 0.008618288831388113, -0.006469690431504199, -0.004705148984595343, -0.007944150886580821, -0.009776743804297924, 0.00995113564664935, 0.006142729807295554, -0.00025112886604108546, -0.005582592934050343, -0.005265316504885956, 0.002463301277728706, -0.00936417635000489, 0.005652978400793799, -0.00020359354590114407, -0.002658093989832988, 0.00741312256710833, 0.0017526720951253458, -0.005816305350364484, 0.0017181728522186381, 0.0032981957586402924, 0.0012779512408786595, 0.002158383859866488, -0.008462886447173211, -0.005043800268853394, -0.002196541946985906, -0.008158692503407412, 0.006672781422884923, -0.006904997419508295, -0.010266352193221048, -0.0031227402988787513, -0.003665769362663321, 0.0031383090327943303, 0.00468306552761869, 0.009013959036703687, -0.006629009866497052, -0.003283907100288722, 0.008311449745857263, 0.005322062943450133, -0.004526778848071288, -0.002605816505005574, 0.002171407022271231, 0.0011446169525491197, 0.0038906440972384625, 0.008295443362968646, -0.0019456558685927426, 0.007094764613989553, -0.007813041322547282, 0.0006091278748300608, 0.006863307818480634, 0.005698296810477726, -0.0007466759810824924, -0.004317002772960832, 0.004726486713315091, -0.0003914668264082806, -0.0001294859316170036, 0.005959382502960368, 0.009044938440479159, -0.006329394157671621, -0.010481797879587114, -0.00100591438064239, -0.0016338132864870106, -0.007604518407577184, -0.0031777747576638648, 0.007814042719592023, -0.008042224854307015, 0.0031495543818555907, 0.00567226828627179, 0.0030865720468078294, -0.00447928122450384, -0.0068209936512000245, 0.009308700351627296, 0.00023059750988615202, 0.0018676333472929067, 0.003958481723572677, -0.005831575061298088, 0.004379205669613821, 0.005000284108178151, -0.0014197417000954772, -0.003480075080849669, 0.008484468023316984, -0.004866387110385594, -0.01028550567061269, -0.0013807244838437121, 0.006318479378896417, -0.008349209811890822, -0.003105282174921094, -0.008631646450309519, 0.002860677625587351, 0.0004724059463161406, -0.0032206212066156863, -0.0056447702492460955, -0.0007113449081461035, 0.005758327629555083, 0.010200535916408557, -0.0006782912512059677, 0.0082134101099868, 0.005614041976437304, 0.007722173272195505, -0.006416604622571353, 0.006750441433953316, 0.007816715156679728, -0.006526445058875351, 0.006618268610646474, -0.010423451149544299, 0.008281237970764922, -0.004409729009686411, -0.0011615796277709136, -0.009485929485696478, 0.009946620700214098, 0.003615876905843004, -0.002942666643477705, -0.00456440938041181, -0.004018772095259766, -0.005292051994535654, 0.007523908010156629, 0.0005499455314250731, 0.01024388101990508, -0.003743858025719903, -0.000233179926358674, 0.009637531877602416, 0.009984190372268583, -0.0022742879119864263, 0.007921496756901566], [-0.0009012586980089597, -0.004141860645984643, -0.006745224736932752, 0.003022145067848441, 0.005079798586116849, -0.009333652780338136, 0.007244729664237536, -0.008192035363876938, -0.0037552131189787547, -0.0054629072025912315, -0.004473203062109667, 0.004470851486494396, 0.001589105777537118, -0.005903052315347895, 0.0037996469113247863, -0.00378652241419791, -0.004919142340049138, 0.0003583048400620729, -0.008490738242132789, -0.0012480958847939168, 0.010048841401053568, 0.0013293317273190594, -0.00442990318601493, -0.00560500605678329, -0.004519232254459971, -0.004384614681810054, -0.007688820834942431, -0.009008132372536906, 0.006540128254771323, 0.0036060246440993244, 0.00689319162856364, 0.008277089030720957, -0.006152786566203414, -0.0036377092489262228, -0.003325285880125676, 0.007710873757021302, 0.0011093321657002508, -0.008792710387997024, -0.008275066214918131, 0.005610361551134966, -0.0031704948771343854, 0.001286806082472407, 0.010119577693603082, 0.004812173634527727, 0.009100339473669648, 0.004033239809306877, -0.0038673169641060805, 0.00618667360473826, -0.006026634378539306, 0.000395578322276821, 0.0028418344101979274, -0.0028957504946914066, 0.0029777326251188463, -0.0005132438277397429, -0.0012140606031721159, 3.926434554717478e-05, 0.009215434913929232, -0.0061100571439744985, -0.01023682009845535, -0.005605747547529602, 0.005761181474513997, 0.010237260139225077, -0.010472526486324038, 0.008305908921332364, -0.0011500519675765907, -0.007863349315689928, 0.00977730210453082, -0.004659006695104294, -0.005657396030774655, 0.0001938451200612724, 0.0023067048210441746, -0.004512784700705955, 0.008166096626367992, -0.0053194103716572416, 0.0004164588262833925, -0.004360416142556228, 0.0062420952575692095, 0.010275333555792913, 0.0006345734721620129, 0.0006222101009087251, 0.002451293635177998, -0.00899747391431359, -0.000698300200799986, 0.006580849989020017, -0.0075253563619377085, 0.007302664807537022, 0.00458315306051183, -0.007526468559165103, -0.010331674811454547, 0.0021995716250789075, 0.0066981170326191304, -0.003350266494168027, 0.0014177382701014405, 0.003803818810618889, -0.003333134503797544, -0.006452254274122542, -0.008598780355494873, -0.0031269086793885917, -0.007958726900275576, -0.002918660925975965, 0.0038741322519227684, 0.006697165917555888, 0.000529884256692655, 0.00824421942592718, 0.009569927246449412, -0.008949045961473634, 0.00926658694059273, -0.006874313614844471, 0.009272153370461084, 0.00828410184466913, -0.009517066752430973, 0.00962397902759135, -0.002829995440559001, -0.008744927185548519, -0.006753485451772831, -0.0032696006037967957, -0.00981134414062884, -0.006429721270656368, 0.007216754533839831, -0.009756447770783218, -0.006728187472925894, 0.007886687239251438, 0.009885293574749746, 0.0013361696260301048, 0.0018248652490004888, -0.006247974207738943, -0.005669069926033529, 0.00872235978682714, 0.010293264335242627, -0.007708629643298421, 0.002771622785505346, 0.0063869587351909575, 0.002600204526948561, 0.0035392061845179474, -0.005196201934266962, 0.004051934365878201, 0.003930678731657104, 0.001302654420007586, 0.00817165928224527, 0.0005373354119583289, -0.0036956495267957542, 0.0013076192418307673, 0.009557267340856617, 0.010324102207246414], [0.00663879314485879, -0.006437757651223047, 0.006820906212090345, 0.004537997271478404, 0.00705034181622794, 0.0016875900118193767, -0.003252315741987357, 0.005655694324140006, 0.007943035285470022, -0.005242402469542325, -0.0020082234890941505, -0.009690665025611897, -0.002755206356791585, 0.005568370346824596, 0.001490321495406283, 0.0068468678916207455, -0.006593967267158461, -0.0033594023200323956, 0.007025745337873521, -0.004024935406871087, 0.00624941853750308, 0.0024885967379411336, 0.00226331359110244, -0.0008142974651380508, 0.008946493118512982, -0.006467129976076662, 0.007576983862010934, 0.008655814217550984, 0.004010370888960674, -0.005098961796482485, -0.009919022684131688, 0.001894567468691799, -0.0012846787188335795, 0.0027582659364687955, 0.00623689190299083, 0.004811870404076873, 0.006184162814887891, -0.006971929384409023, 0.0046072305038196175, -0.003905415203690166, 0.0044090870499550825, 0.005502753485573476, -0.0006548774339943938, -0.003229510149403524, -0.010427893976130424, -0.010504128436647501, -0.008860651606296552, 0.00022962335816327614, -0.0013655964476429964, -0.007309176011705428, -0.007046101568692557, -0.0094605976086076, 0.0085078859672279, -0.004400565731085993, 0.008181078740853507, 0.008940025719333855, -0.005148091103079431, 0.009965126346176916, -0.009095708766178585, 0.0025229981835837036, 0.001282613827263174, -0.006795523010546408, -0.005851628256968123, -0.001001645748369717, -0.004241748989037338, 0.00924768287978395, -0.006944027550933662, 0.007517147066627252, -0.0018528571153004195, -0.0011245837724814538, -0.00766985378212885, -0.005777442139564074, 0.006420546320587912, -0.006506524534193732, 0.006126394162445359, -0.008472435643459772, -0.002016735063437744, -0.00193925612100198, -0.0065105331899056275, -0.006781947834793698, -0.006718082497357151, 0.003940132236272932, 0.0011536485310782005, 0.008906858612807055, -0.0016068845926220546, -0.008993442535398176, 0.003128766684260541, -0.00849409687727226, 0.010035633382037924, 0.0020789283707356855, -0.004627506983012921, 0.0026881126568185833, 0.0031833040548223486, 0.006444221876122007, -0.004581542434101318, 0.0015369818420615721, 0.004457720294310426, -0.004989047935075979, 0.006209297409011892, -0.004550405743086849, -0.006703255704774584, 0.006709034375582485, -0.008330776128758781, -0.008464784099387631, -0.00997543668616865, -0.008274999711984067, 0.005662534797455404, 0.009217688992725143, 0.010322855957985998, 0.002764093946035119, 0.005431738623011774, 0.006846443022666348, 0.009843480121104514, -0.009968182226184312, -0.007694534552692651, 0.005694061946719952, -0.008522138326251257, 0.0020666475603470435, 0.007798046347342432, 0.007307304373374583, 0.008869637178289567, -0.007567442901917776, 0.0011665976177270248, 0.00846338595348559, -0.009608109950842724, -0.00869297434755647, -0.002086561533769082, -0.006468971161682579, 0.007904410647941026, -0.009487115108447386, -0.008205710934841678, -0.0057775356828398345, -0.010063963073398944, 0.010218577033219598, -0.004536793794317905, -0.0074916683253558524, -0.007992904303513937, 0.0065849093387335775, -0.00926100796335421, -0.0017856111702048104, 0.002878092823998883, -0.003716975780719927, -0.009762788715397663, -0.0033663400319705566], [-0.008773002714126133, -0.00965921632337848, -0.0094659743274321, -0.0009537856831060468, 0.002692051844416501, -0.006890290534315655, 0.006397778619829422, 0.009569486732715713, -0.0033228935282308782, 0.0016225568549530114, -0.0057128483645855575, 0.004028020069405674, -0.007283218153968563, -0.007598072299087843, -0.0028529102884795304, -0.0012478776997508442, -0.002681900255819193, 0.0027381912451696667, 0.002462723435511113, 0.005147380585910896, 0.009102702121784028, -0.008996735201583086, -0.009362533371537266, -0.009716340152988775, -0.007468926974471292, 0.0002974603646023086, 0.007257393919405113, -0.008065423081811617, -0.00021594031729315228, -0.00015322930908525528, -0.0038093165387924842, 0.009469533679345074, 0.0027021000945458957, -0.007911619998612096, 0.0008526375874030125, -0.0025922452287029025, 0.007850436838937646, 0.00453614405971611, 0.0070642884089501395, -0.0009195484200670458, 0.005101867796911906, -0.009950849374012681, 0.009829167778726404, 0.010367690686277587, 0.009830073754743094, 0.003013801385466545, 0.009322301059306946, -0.007974274185181113, 0.007055744066951475, -0.0006212577248960981, 0.00015068937578053575, 0.00568904395390053, 0.00033417361575304615, -0.0002067189325535775, 0.010289886181116934, 0.0066994108725048455, -0.0004990556525359963, 0.004999939126931344, -0.002220137842404192, -0.0012320162041334125, 0.0008049109668146799, 0.008073768151075985, 0.008977849956397875, 0.0037118694270642494, 0.002896445293149203, 0.008601283700589398, -0.0016491471573645232, 0.0049428540861667265, -0.008600881952351185, -0.00020742748194687276, -0.004266263922556605, 0.005274318364619599, 0.0003193149345005996, 0.0045094804453187295, 0.007441338193623547, -0.000661632692035772, -0.007347757883749687, -0.0095504309481162, -0.004033833717700033, 0.0015510305025316243, 0.002026530175932412, -0.008301472264731933, 0.006272619509791452, -0.001299773897937887, 0.002204492263798487, -0.010031758699732161, -0.005951175791566057, -0.0009125709823437939, 0.0014619276183208537, -0.01028541826228907, -0.0031049932650928035, -7.078464094742772e-05, -0.01037612387742423, -0.008626224667847905, 0.0014748853664241304, 0.003158940589726005, -0.0023489808829451125, -0.0006163029478660906, 0.009440402872257305, -0.007498695783043853, 0.006699682265908123, 0.009171871714303004, 0.0020795517975737794, -0.006868662326405951, -0.006800360579268369, -0.0031654140307031823, 0.006618780691844936, -0.0019537049069628487, -0.007577515169208854, 0.008016110969728771, 0.004861856836163982, -0.008369368827924429, 0.0058801996547472295, 0.0029488344338805994, -0.005993460998061483, -0.008172979499910641, -0.003748567601674835, -0.003933841250493788, -0.003853483386021911, -0.007439170119363999, 0.0033440058177340126, 0.00356780474393947, -0.006506780769906737, 0.0003096678693897159, 0.006782504050160971, 0.006652372851747054, 0.009029527178504176, 0.009358867341712861, -0.0073930092477525085, 0.007608748546172966, -0.002354804372998045, -0.0036421179235074435, -0.004859805702029212, 0.007927915577689296, 0.00645033011134627, -0.005436464460263209, 0.0018491464555443454, 0.0007312587159117393, -0.007347288250887489, 0.00015333843151376302, 0.0035834495630777214, -0.00873410823863721, 0.0010793866299844785, -0.008414352903283726], [0.006167643992536445, 0.007453676428831947, -0.005880602190547514, -0.004750463326421423, 0.006442526299987615, 0.00816190760455136, 0.00964278529040379, -0.005625155017245271, 0.00225470353510463, 0.006803440075526852, 0.004627078451790957, 0.00030210407032027253, -0.009111494191600891, -0.0030495565661384544, -0.0012904776353167547, 0.0021695667928154794, 0.0017792343342916516, -0.008279007417501216, 0.0008254466392232158, -0.003232172025935771, -0.002296133823898283, 0.0033588856191055787, -0.009653917236402383, 0.006666820646875389, -0.0027450510493312536, -0.004985438991896503, -0.005729881944124362, -0.00798632518548349, 0.009254047654605963, 0.005341749297990915, -0.00554312866141498, 0.000540849103103992, -0.0035695595765056214, -0.009853187637350727, -0.010284696512500332, -0.002098041949100768, -0.004061979856219677, 0.004594695027528736, 0.004685124600461388, 0.00013256975675421544, -0.007136341681442362, 0.00781706507857272, -0.005388159680978678, -0.004385407128733892, -0.0036993234077092826, -0.008604204956054112, 0.004032509516953012, -0.008795016660893268, 0.0026352740752822934, 0.0024911037525144914, 0.010401409505059567, 0.00037094526441680477, 0.004509798344103429, 0.008876507236232714, 0.0048855291873043495, -0.005845967399965052, -0.005304713366915436, -0.003889911337122673, 0.006314971549013674, 0.0031762513367018575, -0.0035856711970299127, 0.004853914004477299, 0.002677620855594849, -0.00857952689327371, -0.006472826886289964, 0.005086938875604789, 0.005992066364069659, -0.01030187991311692, 0.0005428677153154957, -0.007690786236179383, 0.004080930318461132, 0.00700921203804308, -0.006413551349932332, -0.0003918587368180686, -0.004272750442173626, -0.007340644633484026, 0.0011877155154739229, 0.007217143250742268, -0.001166594343470951, 0.0012520026020883652, -0.0021157196655772655, -0.0032128473271021817, 0.007524108504404665, -2.2867331855995398e-05, -0.00705353817280802, -0.00860662812561293, -0.009348878100111254, -0.006648498596898522, 0.003425764735179124, -0.006300133813379431, -0.005158993275012145, -0.004764069019344376, 0.005914407710239699, -0.00845165177690451, -0.008222867248541776, -0.010330995345953529, 8.784578895064678e-05, -0.00040196049072757184, -0.0035211604359133087, 0.0004479719072952995, 0.00184810074511989, -0.007987482705289125, -0.007413165078109644, 0.002784128959699372, 0.007279743291763687, 0.005147480346033872, -0.00014450978273021682, -0.0010908782968801936, -0.0017029115785915047, 0.00686647901632563, 0.008384375699387065, 0.0030405598597807114, 0.006090418251637723, 0.0019426387765299257, -0.004849518405144342, 0.00817052947931867, 0.008684421025753565, -0.006536204440892037, -0.00948845820746311, -0.008179437940727946, 0.010146020784967003, -0.004075800195380724, -0.006704026807813639, -0.007227145729149294, 0.00488545247666829, 0.0002599029193942964, 0.008072292698289123, -0.0031609266351026043, -0.0023118358125781124, 0.004493319498956787, -0.009459022580225513, -0.004147978827039148, -0.0033171357774474854, 0.004377697877826579, -0.008713862129227066, -0.005623994082084591, 0.009670079365566573, -0.005105668784119824, 0.0003214338162340012, -0.002272717822025087, -0.007706093799157772, -0.008900762831465108, 0.0011049171733736195, -0.0014796059623488386], [0.010382761949518282, -0.010060475586632202, -0.007043313263385125, -0.0028310928633680263, -0.008585649335660419, 0.002731093279376097, 0.004494565301154317, 0.007875407941505607, 0.0005486224856253317, -0.009259303406868558, 0.009565678024772694, 0.002071498879668587, -0.008951239855257967, -0.006901748709360882, -0.008531359584481393, -0.009643036390820134, -0.004337309182650287, 0.00043307818823075535, -0.005124052934896545, 0.004761302525486213, -0.00141530800576069, 0.010303987143620493, 0.009151079325801417, 0.0034134944261040687, 0.00662649102594854, 0.00886127805857448, -0.0030285251941814875, -0.001814750962059001, 0.005790399731716362, -0.003641295446455982, 0.002283990769728955, -0.009221925856693939, 0.008349028801127104, 0.007577920734249803, -0.0070272451727992425, 3.3605548115761696e-05, -0.0027779929681202454, -0.00014072768414786268, -0.0013214073838985093, -0.008220434972694795, -0.007360223957852765, -0.0015829547760700358, -0.007893151045112476, -0.0019681866138009274, -0.00452884755725607, -0.0034041885985942578, -0.0041500755845330336, 0.009372576278762555, 0.0007377572356706889, -0.010280345850949668, 0.0009281993676415669, -0.0067994383152997296, 0.009419048567653222, -0.0019830615671207284, 0.002043388230327594, 0.005150157044158989, -0.0019266898921537733, 0.007416296173379629, -0.01014478677511401, -0.00961639499978705, -0.0077846154605776315, 0.005281334513767924, 0.008854407950648594, -0.009763194649105774, -0.010413358669430347, -4.141183131517214e-05, 0.008907212714908365, -0.000885406996748344, 0.0035125140979227905, 0.006099326318523287, -0.004480709366634002, 0.0012187778728757932, 0.0032579311847865822, -0.00025670249488118354, -0.008964663458072168, 0.008339359949713993, -0.010087352149045246, 0.0009559425771453558, 0.009709866153155442, -0.00980118666898938, 0.007846493440849657, -0.0006594463481952221, 0.004897498826217952, -0.00960247770189947, 0.008096487441259233, -0.008171102087325922, -0.00812368081589806, -0.0027269219848583036, 0.008257024173223465, -0.00788939552135587, 0.003570543105248303, 0.0017989961485909997, -0.006791946281824648, -0.005316750426625144, -0.002699695657662374, 0.0022771283266000107, 0.003242058480582346, 0.005702760561771725, -0.0006668795335556559, -0.006343073914489391, 0.004209609275007372, 0.004296918874514627, -0.004617053420778404, -0.003931207110068445, -0.0028684581609189435, -0.0044903535720145936, -0.005408258431484793, -0.0017571853637942444, -0.0005778324782768449, -0.009187203189229524, 0.007516230726584255, 0.005530687555619057, -0.009123472558284268, -0.0047871962723280105, -0.010009055932917165, 0.008006146030320349, 0.0001643346439104983, -0.00237570087786342, -0.0025286175265444937, -0.006463588282081662, 0.001455502775704264, 0.008596045680678175, -0.0027366146736652994, 0.006635393362641176, -0.005699742687019425, 0.0073590943296314975, 0.0008233460932755907, -0.008641728834912443, 0.0006764224801885208, 0.003035582430312963, 0.0030134592922824166, 0.006904432563051464, -0.003814919354548989, -0.006792507067519883, -0.002359642351003514, -0.004824586864362478, 0.003463089192583716, 0.0015950462281900711, 0.0005303070167991552, 0.00255724551340951, -0.0022740250887959084, 0.002232421348579615, -0.005025679722799395, 0.0029662608793059988], [-0.009782922541331807, 0.006902836352264681, -0.006227238609002411, 0.004731808939585508, 0.0059301951881135205, -0.005954140082592449, 0.003148490788457646, -0.007589166118071408, 0.00772411964817353, -0.0014302622295225174, 0.007416952389617561, 0.0026944701024514653, 0.009180669586132489, -0.0001230587110594253, -0.0057400031966881844, -0.0022954330025540147, 0.005907561279787412, -0.0004727688440249355, -0.00678985826912399, 0.006472070539236443, -0.004476643334571207, -0.0068296942733639555, -0.0015372729381656377, -0.0030982922359075794, 0.0007551318027044789, -0.002685390183687876, -0.007152599855672993, -0.010124655449246766, 0.004235393557159668, -0.0032068244186543087, 0.0014482528867569085, 0.006753909074385099, 0.005987538928551105, -0.0008547424099068433, -0.00990502902995892, 0.00829280484483461, 0.0006344544827247326, 0.007480966956444727, -0.003925131378331043, 0.00766875268475706, 0.007268039005774066, -0.002485300287441623, -0.008948015174810059, -0.007964910632673464, 0.005169719152190107, 0.0007227556869336492, -0.01026288602305956, 0.0012747731703591845, 0.009891454788797006, -0.004405969076812145, 0.010103345408030399, -0.004434552024015722, -0.0077896595343226425, 0.009935552993954464, 0.0016272408536293912, -0.009881400857015589, 0.008692423362883884, 0.001070375090700862, 0.009717971935116086, 0.009730897681074114, 0.0058570344121560295, 0.0027657289749818256, -0.010006280116448118, 0.009203446799958284, -0.008701350604920298, -0.004098629756393975, -0.0009865372591782386, -0.008675790410901106, 0.009048504152021155, 0.005163852189663121, 0.0028240702264043594, -0.004332654486343155, -0.007107364964224296, 0.007225599079698511, 0.008073954468305162, -0.006726145318219277, -0.0015527192779509517, 0.0054867543271382045, -0.0020107625741202857, 0.006130952919766586, 0.00615711762287276, 0.005203236427253749, -0.004559955365504636, 0.010022708952349808, -0.009878034313378675, 0.004689152497902006, 0.008078570846028643, 0.0030637469221626674, -0.004623666773083108, 0.0021339195789133506, 0.0001181393276358183, -0.00613895611189559, -0.0035211537074771653, 0.010029272567842126, 0.00242672685918754, 0.005255434923409691, -0.003907765149147767, 0.004891466185109034, 0.010339885954529301, 0.005489239235071654, -0.006162509818183125, 0.0026763216445467716, 0.004838823923622146, 0.002298864735697465, 0.007115713571067974, -0.008633982894602711, 0.004718324229686714, 0.005221052872023969, -0.006968894505743127, -0.006419488205191204, -0.0016826907320354994, -0.008322129781390955, -0.001645785948381628, 0.0015110482152106612, 0.005294877191634674, 0.008373035541255769, -0.005144903269817929, 0.00799423805613148, 0.004941343199176085, 0.0064266560919719, -0.002122502647808416, 0.0039465980037701525, -0.0005779662922015878, 0.0007597534663104652, -0.006060493684121266, 0.0038379879339914325, -0.005240354178404579, 0.00786604603480994, 0.004465483255800207, -0.004096816672943061, 0.010154547216862602, -0.009331115096697894, -0.002660957694727458, 0.0015798889264343166, -0.0020632508498202875, 0.007730663089517742, 0.004601849557568152, -0.003306955515643825, 0.008956396792141143, -0.008090936996974557, -0.004721345114790263, -0.005728964204764211, 0.007149842619139978, -0.007627010449511827], [0.005998518018264661, 0.008737341080453426, -0.009589814781499763, -0.010370296304740819, -0.007700340763074413, 0.004105661705217556, -0.007276708999653925, -0.007614544916744495, 0.005174386039021366, 0.010282025489436573, 0.0031242602715099168, 0.004506541886185179, 0.005905975273759065, 0.009856560536417612, -0.008192171366336357, 0.006570244878072439, 8.33821594381656e-05, -0.010298387659971684, -0.01026701389425663, 0.008700193952843221, -0.004486972248273071, 0.006350182673345999, -0.008752869825007564, 0.005071729583229552, 0.004081340945449338, 0.006856016100657771, -0.003092182858187432, -0.0074364980627687136, -0.002654364906301885, 0.001026119125336147, 0.0016418696437833485, -0.009994725635004604, 0.004789724598252974, 0.008591283818499476, -0.0027395276403890203, 0.006479653205872682, 0.004159465208114078, -0.0011167718155122932, -0.004792237817753164, -0.004080692569096298, -0.00862303289302862, -0.0021840013592894594, 0.008301974494412575, 0.0008491414834911621, 0.0029651574623767306, -0.0016664879667750321, 0.009268380112004735, 0.0023820110789227393, 0.001730094928880709, -0.0028063392408282923, -0.0036034244209113687, 0.009048840096839957, -0.005900732437994103, 0.007966946166498078, 0.005398977434371058, 0.008505325265652789, 0.008026560744910607, 0.009645257502335363, 0.006974225635620444, 0.00086938411992936, -0.008711778205249427, -0.0044151447787064806, 0.004401204418885661, 0.006033526726443402, 0.009674358345577143, 0.006429867838609773, -0.009375602079070497, 0.004568398268383303, -0.010175289835645604, 0.00820847184640906, 0.010065683203988342, -0.0010157609972269918, -0.010438790958321733, 4.045327023626938e-05, 0.005112581272279971, 0.004258988355910843, -0.0029353460778152956, -0.004602113559009105, 0.0065759724997403865, -0.0010660114228256848, 0.01049884939067429, -0.0011998167590154863, -2.9648363039073075e-05, -0.003814925758271724, 0.004833345759908877, 0.010386239610582021, 0.00457966648912756, -0.0025038321830252873, -0.0045485194691625664, -0.006699668074664548, 0.0009997011060464995, 0.004561027060781111, 0.003976692475210652, -0.0018598276733701072, 0.00285809075820717, 0.005190592840732682, -0.005559743822125386, -0.00998615982474603, 0.006669881976207083, -0.005470621745952346, -0.00699779594664882, 0.009992749586101036, -0.005437690643324042, 0.00208279864593845, -0.008784492548949243, 0.007505368231366394, -0.009684665065489212, 0.00398496506392687, 0.00017993761236844745, 0.002938240195524491, 0.008641733750813084, -0.009418545593866965, -0.0026145965869451976, 0.006534327534638924, -0.009071392667320663, 0.0103394723198327, -0.0046265448971746425, -0.0010132361919749345, -0.002695725077576959, -0.010494184094601275, 0.0058251682608594915, 0.009483722164562374, -0.006415125761970626, 0.004779359866619284, 0.005490446477926311, 0.0075572759917343964, 0.00884649587639794, 0.003339984116092954, 0.007925982169723183, 0.002479514359761677, 0.0038586401557076924, 0.007668720857471389, -0.007378853760074917, -0.0035026390121403812, -0.006078093711703603, 0.0018001168819481545, 0.008950853642057265, 0.0051880691057999495, -0.0045407106301518126, 0.008703101888473048, -0.008524950518382443, 0.0056725220334859616, 0.005714348460704561, 0.00782083444114774], [0.006668288419327665, -5.173685735934039e-05, -0.005285270203400959, -0.008758259255517035, 0.0021790821526770816, -0.001301065485280146, 0.0007514638044893487, 0.005540102250729269, 0.002996722738719288, 0.005791311965889046, 0.005095089408189293, -0.0015146991467326555, -0.002680406380141185, -0.0008365683939682003, -0.001778088978536416, -0.006348109799301816, -0.0047767570500124815, 0.007365871937483651, 0.007745005459334888, -0.0013066912598065248, -0.007004268098212735, 0.00915944768928817, -0.005525709317884727, 0.0019509915939368225, -0.0022951424766495974, 0.0065687599295063724, 0.0019049975558435661, 0.006061138549543358, -0.004995779924161601, -0.009722510109094756, -0.0008610578210756074, -0.007620292076325227, -0.005496697512098961, -0.0015041035912171955, -0.0019045012828552697, 0.009092313991431459, 0.0004447651857987554, -0.0027966379613938363, -0.008013864449516354, -0.006315263121333768, -0.004180329951964698, -0.010502054930340893, -0.008210095581926095, 0.008276749930343264, -0.004285930677197869, 0.0014321551432650314, -0.007680023246938157, 0.009432282862036779, 0.006499283592205717, 0.00548858118058589, 0.003370633481861228, 0.0009366528716629532, 0.004576542247292394, 0.0027337090773102072, -0.005028581101400772, 0.003934820767717881, 0.008617893204385307, -0.004302434202112995, -0.0001982066620846732, -0.005452407962968658, 0.0002846775341716585, -0.0009230719556843921, -0.005218521088187939, 0.010316699713529425, -0.005694790365301501, 0.008479192401316896, -0.007312722631151181, 0.004306393330072981, -0.007254468195587789, 0.0007820509299649161, -0.00028266967025379435, 0.009663495809791459, -0.0026593664885837297, 0.0006953376409240322, -0.004467269182265765, 0.006252026155927884, 0.000248413058039728, 0.008782320064958748, -0.007361503120573929, 0.005204895083224552, 0.005778782561636025, -0.0012741438893484492, 0.005730792990459842, 0.0051750421487947885, -0.00506143482160139, 0.01001631315495627, -0.003919953753132145, 0.0018759033760279732, -0.0025655414497313175, 0.003982527022916651, -0.007118758090561542, -0.009617518848761292, 0.004582742820251819, 0.0046376671686629714, -0.002618203497526699, -0.001516248142536329, 0.010505801904238025, 0.005184339390601115, -0.0009615342759662883, -0.003022724516428655, -0.0009798389256133863, 0.009295142658291225, 0.0015095338400932144, -0.009469187930077132, -0.0011190171283489447, -0.003964223253001946, -0.006551073824573264, -0.0010237401984150392, 0.005243350387759609, 0.000800684865094496, -0.0029579347021669823, -0.003476301875553433, -0.005663130959694539, -0.009929492161788084, 0.0039701241699973844, -0.005901426019967519, 0.00010986015841166553, 0.00724058427006672, 0.007748866692915785, 0.010453128178241625, 0.0011253218541209676, -0.009282110471831374, -0.0069494741463179644, 0.002703558128877809, 0.001610758468115925, -0.0038809878538524517, 0.005153493105752837, 0.0019074836713189685, 0.0005600081868697747, -0.009036896433680398, 0.0029824143902086246, 0.0012659058959525367, -0.006158428598999481, -0.006475028201937992, 0.009206203922440488, -0.006912455688352737, 0.007826331956837972, 0.003503901452079546, 0.00522351921701828, -0.007083700985584499, -0.000441968433442577, -0.005722840357183076, 0.009509612244963907, -0.009732502642659189], [-0.008121882748069843, -0.004567449938839099, 0.0075919060050555305, 0.00830032355569236, -0.0017703594750577364, -0.004497984159562359, 0.002042225445959625, -0.005139245217787234, 1.3763058357463254e-05, -0.0021727592908667402, -0.004832533349914515, 0.0036306888993505627, -0.0014698477836233548, -0.0004377325931727124, -0.004905177140159855, 0.006385895401396856, -0.005012119204628408, -0.008744280302962294, 0.010175717206417596, 0.002422877637794591, 0.004423772496831967, 0.007716662321853501, -0.002337119340511899, -0.008175376312635537, -0.00817890555819618, -0.009375127668372068, 0.005387668659731281, -0.008345744840558559, -0.008292867663860858, -0.0007841584779608145, 0.004450020395378849, -0.002880049183444945, -0.009791162099952462, -0.005132119799127329, 0.002560486203300768, 0.007603428308168055, -0.010173545942440673, -0.005126857571040127, -0.00699303118166321, -0.007986065189536543, -0.0016779773001864005, 0.007037726678007151, 0.007988505304474732, 0.0067603738750456055, -0.004764781523422704, -0.004109211911858134, -0.004523454426873978, -0.009727025406449308, -0.004217625303990912, -0.004042656136054986, 0.008435836220648358, -0.008992115900831666, -0.008185087430584301, -0.005928213127794779, 0.008698303080234603, 0.009702199579668327, 0.00388139674106682, -0.0092382053462995, 0.005251230342737523, 0.005168985829010282, 0.004862635378312022, 0.00209569299937926, 0.009189583617480705, -0.006671640328225592, 0.007928692917222698, -0.001333390080833598, -0.010204131297379803, -0.002029614238418084, -0.00840670947404354, -0.01040032163818789, 0.0013203131027842271, 0.009037216225365947, -0.002104647151657197, 0.004159809008238686, -0.006075130886494127, -0.008630781670341677, 0.00941696867804594, -0.006585067232577137, -0.0018669619832460526, -0.006737781251556395, -0.007696724420771525, 0.0028730174480656504, 0.007363870225732053, 0.009101455536656934, -0.010252284811247474, 0.0035026880330031114, -0.001306192395943316, 0.006916703598762347, -0.000977878051846559, 0.007922994661584516, 0.009202211326285186, -0.004216618808556949, -0.000758704825272264, -0.0005980894641334846, -0.006477181979768281, -0.006329380192866248, -0.004934938425299492, -0.001215290696875464, -0.005580993362888433, 0.010498708862933716, 0.0002966628654947027, 0.006032116166233487, -0.0064678600511560635, 0.007038337346630465, 0.005997209679780179, 0.004488504286038318, -0.0001411325522696274, 0.0019704357018911684, 0.0051558030529135525, 0.0031785063973249557, -0.0041620730235447856, -0.010339153255745538, 0.005819090822552852, -0.0071218316224258725, 0.0037928588183782728, -0.004576309333916132, -0.007430945567120996, -0.0049436972180669225, -0.0010430354981677305, -0.0006967486500660549, 0.003483115163404064, -0.003041886395415629, -0.001523052277979038, -0.003561570928248948, 0.006205984245795552, -0.004740593523539652, -0.005796855052860798, 0.009857390118939227, -0.0057207006224409065, -0.008653577177957289, 6.593040964544685e-05, -0.00047614276687758843, 0.001280958964362509, 0.005238867305194842, 0.00022635168737012026, 0.005977638758709549, -0.0022882162190473706, 0.005278142019495114, 0.009308181244005372, 0.0012954340794120395, -0.009299096949763545, 0.004463227188635654, 0.007918243433424843, -0.0031129037501015622], [-0.009627942866759559, -4.5026196692120076e-05, -0.0073996352367394404, -0.009720284620822946, -0.004049571665581535, 0.0013449669590623514, -0.008386890644234486, 0.0014936680716098037, 0.005903935636005353, -0.006331946372250332, 0.006234072888623081, -0.0063244553385165166, -0.010217140171857615, 0.001666498564584999, -0.002245120333524422, 0.009178585337697985, -0.005757285546754502, 0.002049781021836409, -0.00741207673705665, 0.002682626739395214, 0.009197222578494984, -0.0033306744765800663, 0.010168051795560672, -0.00895875321265858, 0.008413569099429075, 5.842502955008836e-05, 0.0033493356679402987, -0.004695653004573692, 0.008814797727049456, 0.0009929665707114784, -0.010229993913109784, -0.006990370917766395, 0.003566772751190677, -0.005193290044099714, -0.0014059502052039625, -0.003139636363023058, -0.008734714091000545, -0.0073053502010303395, -0.009467642092257943, 0.006276001691764638, -0.0010667391786746275, 0.004382371049832979, 0.00402752666944161, 0.010262256666881487, -0.004173082821523593, -0.0017985891044877665, 0.002797984683918952, 0.0093427604979904, 0.002390977175509376, 0.010093294801054737, -0.00648283850509055, 0.00605458312170849, 0.0002675324050051406, -0.0016135219954139086, 0.005739484974213717, 0.009256177909314824, -0.002084180220836493, -0.0028901623522388227, -0.005919223149734941, 0.0009561871566911778, 0.0003905000717557819, -0.001541131959711158, -0.005498208144214317, -0.0017722263986557653, -0.0071624839704446525, -0.007488918870686693, 0.003833606106324529, -0.0025094807230429616, -0.00809584177695482, -0.010026335461420935, 0.005264524744972717, 0.0009434911707259185, -0.0061005300001607645, -0.006434793200763072, 0.001726222701217638, 0.00505693209274576, -0.007717441355708936, 0.003840067261333067, -0.004089683791681909, -0.007872907667984676, -0.0010826488821603381, -0.00020422857180957672, 0.00936119217888258, -0.0060398199683282154, 0.006744313495623897, 0.006103289315901347, 0.0037461371084513088, 0.0072172060197569655, -0.008356228682855219, -0.007643875352362566, 0.005128150522388146, -0.00776396328983667, 0.00020987710048873422, -0.008704652679780057, -0.0003493073061425457, -0.0005560919212236221, 0.005198472055944825, -0.007730102425226482, -0.0001826424842965978, -0.0040175656681675906, -0.0088501522828078, 0.010457226278234208, 0.004691723886604055, 0.0032559856592880958, -0.004042767291279108, -0.0032342721110024605, -0.008711139002121235, 0.010180997679643798, -0.0049269302836511125, -0.007505835928767075, 0.005795496823322003, 0.0029909311161504387, -0.0012735201823777284, -0.005657057561772683, -0.004537084763713616, -0.010337763960064987, 0.0037060071414943456, -0.0059230085826898855, 0.00733410041745533, 0.0023940356959136423, 0.006947366183077941, 0.003718617529673916, -0.009906222446615305, 0.005812872835407762, 0.007120500231076048, 0.0009814819210129853, 0.008922282865730026, 0.006007595156005274, -0.00096543192159412, 0.00930750035478568, -0.009488131311772074, 0.008518232739791702, -0.009008102033496909, 0.0032815407379961645, -0.008389934258788371, -0.0066490079536599325, 0.003350526359196255, -0.009393933952705354, 0.002723172625586362, -0.0060710124380571155, 0.010317080970610489, -0.0020562069132160224, 0.008429374230367211, -0.0008127399636413198], [0.0037577800440648885, 0.005762336508630783, -0.007752422755178507, 0.0010375872256349155, -0.00012832893036068355, -0.00038180244099166255, 0.004408509887239964, -0.010324451771588552, -0.0009769752433374998, -0.0015911849397890745, 0.007649146250690783, 0.006099745330888217, -0.0013038338630101788, 0.002797435541299556, -0.009719675175734391, 0.00028097713447146317, 0.0003292565475482124, 0.0007416624630462095, 0.006930642022975028, 0.0058966698268249134, -0.003573921005717438, 0.007413849537198297, -0.008151670340982305, -0.009081145137345207, -0.0007149576626539545, -0.0024995933204150053, 0.0012007330475008163, 0.004744642270483254, 0.007286426503699713, 0.010298549118004839, -0.00606915328119392, -0.005445609095426422, 0.00269499028229393, -0.0018436995900822498, 0.0059209398285035185, -0.0023052781041099997, 0.009241412584022625, -0.007791967424591154, 0.005139913956943475, -0.007672000543771351, 0.00044268075169622456, -0.004033255401035208, 0.004650051197679394, 0.003363968759367378, -0.00025816224177258306, 0.005032783134390566, 0.009890293547184702, 0.0052627461821769745, 0.010408451355777735, 0.008583252995227624, -0.006650892214319329, 0.0086733603909225, 0.00462711016453178, -0.004499403448656676, 0.0018024436982726837, -0.0028183844467641554, 0.0041917366927931, 0.00028388636484185585, -0.005380372898947579, 0.009949185494490444, 0.00409400981612457, 0.007976675288207663, 0.00691738337499775, 0.0005064361169149483, -0.003445442150550883, -0.005436199321255765, 0.006012607312078751, -0.004149499128812051, 0.008712235683550753, 0.005005046611351513, 0.008067516389958817, -0.004980569387931811, -0.00409374634375945, 0.009552937279201479, 0.003736815582254478, -0.003748921879652624, 0.0034996530914654053, 0.003522637534370685, 0.005831879623816137, 0.00518480423593427, -0.004087627990522671, -0.008714957878502207, 0.00956315682761444, -0.0007373799137067914, -0.009052714296484231, 0.008948164885164405, 0.0019328994515630956, -0.0012517593351128837, -0.003258160691006523, -0.0063782945055077585, -0.004858547421679508, 0.009043175559781829, 0.0016980786865121926, 0.0068487248730632975, 0.0002177401920600196, -0.007043524003691087, -0.002402868890594046, -0.007991648027088988, -0.0037824675273810085, 0.0006064705290994379, -0.007733746864578104, 0.0050591877963675315, 0.004789234356742603, -0.004304902311077587, 0.00229147649039527, -0.00633104919964563, -0.006770802514681195, -0.002756761053670329, -0.006140344469264414, -0.0015829126262713433, 0.010276165600270665, 0.010151665810303126, -0.007803962964099628, -0.005517985305789965, 0.004495000942648349, 0.008344647332458608, -0.0031427244029425478, 0.0099941398542465, 0.0023140430590121055, -0.003753931815902828, -0.005214139600416178, -0.008337600342990496, 0.0017082893670917684, 0.0014509409528824819, -0.0009639668153920485, 0.009502256421346335, 0.004530665265004426, 0.0052746780592761245, -0.00020964596959202923, -0.007622475557222232, 0.0013212221292563473, 0.009656214199192822, -0.00897236671777665, -0.00423123361745419, -0.0012874678304740262, 0.00417375597290293, -0.0007717823753173131, -0.0028429549632545833, -0.01024194565567369, 0.0047325158533126225, 0.00571987074553639, 0.0023763822878193268, -0.006312653148163491, 0.0031019652724187776], [-0.005356391283803257, 0.0054997219427034335, 0.008881358859568271, -0.005353521539506519, -0.00037199796200388594, -0.008093354562582268, -0.004185544219962189, 0.006457226528394495, 0.00961945178007044, -0.006677479368163705, -0.006723229915141825, -0.006568719977600789, -0.002390878101036003, -0.0009438813915723853, 0.0011698445800928838, 0.005270609116648216, -0.001669508057895349, -9.4973202821223e-05, 0.008541694623052092, -0.00054595688502262, -0.00463274759227758, 0.010429877533148023, 0.0013052500736381875, 0.008662778989697553, 0.008266088770552892, 0.005410808988464037, -0.006481563768263724, 0.002205174994139436, -0.0004035976183572797, 0.0034415653149788062, 0.007525831639866833, 0.004987627327571544, 0.00699685480788114, -0.00850465728343911, -0.004516542449963742, -0.0069875366826556255, -0.0048600018228904685, 0.004905757734850819, 0.00013003564823374806, 0.0010027696069654945, 0.005262818760232776, -0.002528252504293534, 0.0033046104847491748, 0.0030219734122935798, 0.009923549539334199, -0.005141637179329127, 3.7200775421472295e-05, 0.0036128358571045887, 0.009085468496178611, -0.0013104535124728368, 0.0014075656426854692, -0.007034204416050667, 0.006100012413435084, -0.008408553872791992, -0.008850798935368817, 0.010511565528230193, -0.002118290310436065, 0.003077071002280382, -0.006044819321014348, 0.004223094253022944, 0.00561531918089635, -0.009924372466094945, 0.007055872924956182, -0.0026620254457480853, 0.0045389645339875126, 0.007818910895472911, -0.009877497357696448, 0.010374143708874925, -0.006380441580649968, 6.370414395289495e-05, -0.005948716085227571, -0.006591960540124148, 0.005764040565312363, 0.0051461893578200356, -0.0076203908118758915, 0.0033015874869813, -0.004925961007400636, -0.007254872315449366, 0.006863656473523449, -0.009044617464051373, -0.008202397793693316, 0.007321127250029781, -0.001902238551273738, 0.006730600639931598, -0.006078416718277569, -0.005095083006704197, -0.0075518878596595, 0.006348130266940736, 0.010268751332220112, -0.004747547636451299, 0.009705981067293151, -0.002820469765919022, -0.004160684907759009, -0.008957276470415372, 0.005265536625272642, 0.0008239191008463885, -0.006351410643167736, 0.005858586677334209, -0.009998656558822096, 0.0019528290607199383, 0.005581320382558013, 0.0026483125101743475, -0.008913865915512739, -0.004158296893826699, 0.00357958403030561, -0.0014061449551275413, 0.0003957252843000059, -0.0039267550283864, -0.008002376078684518, 0.00939770351923578, 0.007698689639595658, -4.434665328194894e-05, -0.008333141135157911, -0.005080315217053129, -0.007789895166501602, 0.005440651962977088, -0.00923728397133762, -6.667005903557501e-05, -0.006200507198775152, 0.006306451306954338, -0.0033581848119598684, -0.007728172070430326, -0.0008302941015687038, 0.0013095118100411528, 0.00506517150541854, -0.002956017374907289, -0.004589572568012965, -0.004523920979330486, 0.009200119534531509, -0.00424191752834176, 0.004339991197783515, -0.001212491592627851, 0.0029462482219149537, 0.00496727367268669, 0.008822630943990557, -5.518932646904522e-05, -0.01022619122785872, -0.006388469649592293, 0.002088213082915621, 0.0017667148692406436, -0.010437575091780758, -0.009216824265391315, 0.0010663042642861961, 0.0023326931598524874], [0.007343245569880613, -0.0006731938652700252, -0.00415110663942905, 0.004188467537095699, 0.0006092489044662884, 0.006944992077321138, -0.009376367052514132, 0.007845636892579892, 0.0033411151191141356, -0.009582880712705471, -0.003985677554595894, 0.0019345677215323372, -0.008092972574449483, -0.008846084833999346, -0.009546475431987556, 0.007797970745175201, -0.002308101933600234, 0.005597459942172201, 0.009168471133854182, -0.004647244311761422, 0.0030782245750233823, 0.0040374458174556455, -0.0016219176939025024, -0.0006676855837742165, 0.0005901474647187599, -0.006901969032724465, 0.009071888676936875, 0.008489711092274801, 0.009273034305040284, 0.009834847072583313, -0.010231968575654588, 0.0013979784076627148, -0.006136405432833944, 0.00876973029375764, 0.01025066188766843, -0.0075245404787686685, 0.006329572897139465, 0.010020682125673124, -0.005173275879317364, 3.707830126357838e-05, -0.0002293321424589669, 0.01021369020294578, 0.005208050865380154, 0.005456609441711584, -0.002576851154867352, -0.0021852993543700202, -0.006953908311700424, -0.008461091137706142, 0.007337698370436009, 0.00613334857936184, 0.005400612035019304, 0.008282343212770275, -6.052663806307125e-05, -0.009221692358156501, -0.010439017133967755, -0.007126027463792971, -0.006694682949636664, 0.009256986879635052, -0.008112826262496676, 0.00815562208250395, 0.007598305199490465, 0.00037373905847988933, 0.0015204417812460706, 0.00282604229913776, 0.008194190641684907, -0.0006296821647213469, -0.0025319366491228508, -0.008278503032648923, 0.005833300040454932, -0.007246697660240485, -0.008274643777996074, 0.0005552863914641279, 0.0032541954985288867, -0.009167548271956956, 0.0024504208769649347, -0.006644930391372048, -0.009979246805024034, 0.0029451164254385444, 0.004298624690103067, 0.00854345864721323, -0.010279667407818245, -0.002548912480811183, -0.004958328712062918, -0.008488498035067637, -0.004516513979746348, 0.0062999306863556395, -0.008604797335968075, -0.006318515688523919, 0.00718678968345557, -0.008193248356954102, -0.009329152314156732, 0.004390948757243593, 0.009792381015841095, -0.0009994471472299744, -0.00027986069301353826, 0.009688448109397747, -0.004691559527911468, -0.0011194030753320042, -0.0017981286551999758, 0.003349338799516694, 0.008562267012461692, 0.008302396346795943, -0.00014622454937644958, -0.009119992831437026, -0.0032369004052534545, 0.0017857419532005525, -0.00012280341544569176, 0.006860949241989109, -0.005061267303823088, -0.001935274182499759, -0.004241464885975319, 0.001693173899139895, 0.006117749329348095, 0.005149899521762622, -0.007034884489757266, -0.0074011482977459735, -0.003643904585694113, 0.003368993387630987, -0.009388172861089722, 0.005679532376922642, -0.004476129847311606, 0.0057144276069881665, 0.0046768399412085975, 0.008442605059545161, 0.0053283115037742485, 0.002345836301160122, -0.002095718738214544, -0.00729502632478667, 0.009297144991655612, -0.007307045245356513, -0.0008475430765837399, 0.000894334892778965, -0.002238882789646121, -0.003784654159658925, 0.00162868595939384, -0.0034862012850709495, 0.007117108560740891, 0.006512685774859142, -0.0010057382836183631, 0.0036693813617986746, 0.004786847098489835, -0.00887498660807201, 0.009970023761703433, -0.0060020518454024325], [0.003366818697764831, -0.0025864213642897375, -0.00852833872538436, 0.008631891651667039, 0.0004081195292644929, -0.0019804094030147377, 0.00836335983167882, 0.004512987936183355, 0.008986374727688456, -0.0002665581243556655, 0.007622702788189234, -0.007121754781782979, 0.0009882114992750528, 0.009881399178194937, 0.000867458945323897, 0.0015391253782036506, -0.008909187444403452, -0.01000189913426734, -0.002781520398409387, 0.007813083340715014, 0.003396444529486095, 0.006975956679789071, -0.0002811330959119524, -0.005222467417121197, -0.00732621779617725, -0.0009890824092010676, 0.00781625452080267, 0.0011481789236354614, -0.0022196359226909403, 0.0039379836861642, 0.0033656927181671082, 0.006375248883306888, -0.008656712753537295, -0.007085483674818342, -0.0060940673536194435, 0.0037639077775914053, 0.004241342481085851, 0.003525516684260332, 0.0007375506992919159, -0.003190299439109991, -0.005419347875478821, 0.008056050549070125, -0.0006199947415555633, 