{"learning_rate": 0.002, "momentum": 0.8, "weight_decay": 0.0001, "layers": ["Dense", "Dense"], "train_errors": [0.878, 0.16900000000000004, 0.14200000000000002, 0.14100000000000001, 0.14, 0.137, 0.14100000000000001, 0.136, 0.132, 0.135, 0.14, 0.137, 0.133, 0.135]}
{"n_input": 784, "n_neurons": 144, "activation": "sigmoid", "trainable": false, "weights": [[0.7577665363153062, 0.15045783469915022, -0.48843464153795696, 2.6589715647240566, 0.2614501205027965, 0.05044325666465152, 0.5357032396581114, -1.2373135591065338, 0.8727303217733924, 0.8139465640114313, 0.8970531710028862, 0.7690287537060415, -1.832714533392854, 1.2626107361262962, -1.0214250076966171, -0.12625040273881838, 1.8086568403159786, -1.022500942159696, -1.3072265611882619, 1.0376698712454036, 1.8414707558186465, 0.433220961180313, -0.1353508870595648, -0.6173220380796384, 0.4964959035501441, 0.2101159311003552, 0.24280362201803016, 0.4764618762904048, 0.09522211217827141, 0.7248663976071288, 0.0704622454605932, 1.2978881867517142, -2.2349141242626085, -0.3104169991549499, 0.3495314271282612, -1.349464274454047, 0.2868348200720696, 0.41601780510224223, 1.0772515513564669, -1.3918299847759816, 0.8818860238555997, 0.2945886961195954, 0.515869847136433, 1.079949384641262, -0.32916083220516185, -0.6877393457120748, 0.5087799409485385, 0.3753616509709069, -0.7055403236858196, -0.40777845385447775, 0.15521820907251116, 1.0209408773028936, 0.9584868022120125, -1.3006617281435187, 0.936870199020009, -0.37495822752877417, 0.13853571658027183, -0.17812967370226696, -0.2110290298454528, -1.1696710198500673, 0.7049483355967406, 0.32431716845985, -0.387999017021091, 1.200674704983984, -0.7060162480487615, 0.7542289132638682, 0.3189351193808366, 1.6449275642725056, -1.023233001182661, -0.7049923180964229, 1.813181905440162, 1.051682943462216, 0.20630563761361054, 0.39918510617513303, 0.9797717835397776, 0.9754810985696437, -0.3099518782595761, -1.531948535975772, 2.283179287875204, -0.1450643638232676, 0.20468919154043475, 1.3851170543962485, 0.7700902047044725, 0.003634759560467618, 0.4253474028849815, 0.5745683972182961, 2.1677350210570996, 0.09894780898947879, -0.16512270195185247, 0.15980882386204132, 0.92864836176799, 0.48304608340390515, 0.8607961392495818, 0.570728038172134, 0.2229875139338903, 1.522287553247119, 0.9326565999260549, -0.24434453187034236, 2.263882604114054, 1.3745381508791075, 1.2111355229715566, -2.106170823654781, 1.1759480647106888, -1.214907344485088, -0.538660156816641, 0.33402217292276665, 1.257601376702677, -0.010968638482933373, -0.9898582911793549, 1.043011309246446, 0.9904216210046214, 0.17747589634120586, 0.28763779299716713, -0.37139643334192873, -1.314178131280703, 0.21171812376576285, -0.32827391689940455, 1.121841261249937, 0.18434734554302198, -0.5207159324663497, 1.305795342334459, 0.11192115791295781, 0.8625699043094344, 0.2476749049293341, 0.8602449166159986, 0.028290195196422827, -1.640922469976222, -0.6254510380187369, 1.3192113792747793, -0.20668934154761784, -0.3248551709867068, 0.01458694544987715, -1.5494285218935135, 1.3673965683335507, -1.1987480344311123, 0.7476473161482922, -0.2200643986480309, 1.2979282989640193, 0.21524886428453135, 0.01636523455238842, -0.3531376352607868, 0.5399803337324168, 1.3034557644025213, -1.9339630463546715], [0.029738275618991034, 0.01990456923596742, 0.04337900733692479, -0.02144356541867056, -0.039738593389115916, 0.028441984263002675, 0.03519589872307757, -0.03725798759883882, -0.02763128322586926, -0.006623434339890173, -0.02530218800568612, -0.027403682604519797, 0.021243713194477525, -0.04169734084585319, -0.02258427655147563, 0.015580720797125257, -0.04076676429611999, -0.030777996342212215, -0.023335407640797053, -0.03845933728603217, 0.00563067928162588, -0.030698144192174457, -0.03841293517988512, -0.020681200056471987, -0.005197166229605766, 0.02812524366607165, 0.014380016781915885, -0.021710031309883516, -0.01495181013902326, 0.03781393659443206, -0.007893124732564507, 0.03796393858522987, 0.035267172818594775, -0.023988763626393763, 0.04041099990811153, -0.028969137810611896, 0.0431847922124251, 0.04117742858338503, 0.0277217297969684, 0.02262509511206351, -0.007046031990109854, 0.021021717714153284, -0.01975356090378344, 0.03064096174273449, -0.02920911190717004, -0.03784480191004447, -0.002605761654005044, 0.03893165377799941, -0.028511780935390585, -0.018782827349525685, -0.0005451501369397747, -0.02222932322889155, -0.009846577915766378, 0.032967644695055746, 0.04016023255964572, -0.010990432698947677, -0.0368207336164889, 1.690466430488942e-05, -0.018297401110266825, 0.040764927733265816, -0.03601326796700642, 0.02479994443061682, 0.03570064710966341, -0.00044136791206733904, -0.03703203582846613, 0.02896927610488919, -0.0037852254572620374, -0.018540504131544632, -0.021874176187556243, -0.01255927130373783, -0.024992154831257943, -0.04022249395031042, -0.003653815168463418, 0.03349073034678312, -0.034713989477751984, 0.0014245613127557536, 0.005340130979043245, 0.03239360799203453, -0.009778146981295494, 0.003933114509832637, -0.042247723287605815, 0.007829203765059245, -0.021672705070314015, -0.04208465731550943, -0.03225458796864573, 0.03257193058755367, 0.039073051125204254, -0.031960581977669524, -0.038705952226594155, 0.032013614527074435, 0.024933817687711003, -0.02085167593267206, 0.041455048650490246, -0.01977717514763843, 0.01934969645388179, 0.008890049507015375, -0.018323240919428437, 0.04236883869248663, -0.013555322415479583, -0.010016627752438122, -0.015748909610229095, 0.03903343329015272, -0.04010305622424627, 0.021854993543237222, 0.005757831143676098, 0.03671815345606558, -0.040730064407019234, -0.02927267878969566, 0.026738282979975884, -0.02054870312989617, 0.003878859610928889, 0.016456341227265643, 0.042875339725427064, -0.0340016775804405, -0.010138292242786359, 0.029937926060529585, -0.043447322563591385, 0.023402911218707464, 0.04022156211765771, 0.02296142135122809, 0.038788535190272755, 0.020014396485327043, 0.0011264828002130144, 0.013524527921702896, 0.01209844749998881, -0.04180063750065984, -0.03398779872143401, -0.02516402680402256, 0.0111824864961382, -0.023104173211005247, -0.03762056052754524, 0.020700961094363226, -0.036065061008087776, 0.006256750375530857, 0.012701127264584078, -0.0369060792580856, -0.03594323925824007, 0.0028498907154338032, -0.013619599471567994, 0.019202773009005848, 0.04168747689296629, -0.03770208827461016, -0.00024759020087535976, -0.025855010767894777], [0.039190221043509686, -0.014486451676457597, 0.015471237805920662, -0.010165049860270822, 0.00893969297097464, -0.02299730846821826, 0.0311635857159471, 0.004590520054468556, -0.04221936570441649, 0.03908890706846505, -0.004302618211339281, -0.009885121884773092, 0.04401348063476004, -0.038648306783791136, -0.013518765635836292, 0.032709608912684436, 0.036092801819744454, -0.03317973902020677, 0.029051367632975392, 0.0159853073258359, 0.022447607120483746, -0.026186319268736616, 0.043702878911477436, 0.02650747634360509, -0.01924981660135481, 0.03781601424258249, -0.016783919052556908, 0.026619926882533358, -0.025163734369634688, -0.03819927373251683, 0.03647808903450038, -0.010493470132102832, 0.02220805366841179, 0.026990950048890485, -0.0068621657029425175, 0.03887080310449218, 0.010281204931986067, -0.008796736046423134, 0.038984166313858884, -0.02075047503608504, -0.02624105689809821, 0.0349232062670232, -0.0005133716675008799, 0.032704360148451364, -0.018423457676394358, 0.010649432507273248, 0.02500887549933651, 0.02704027791468525, -0.028586963248626366, 0.012460332609415196, -0.021060795604303302, -0.020978538727596457, 0.029083778104908326, -0.016847595908078675, 0.008085131353511191, -0.005213342319420909, -0.025427380410082488, -0.03622895267015415, -0.011169744792448299, -0.014478321163046183, 0.036789449979384416, 0.018821681058118073, -0.01498867579685391, -0.019886712601523585, -0.01951693909002114, 0.018517091698050006, 0.032767935705845436, -0.020816749988979245, -0.0039012673317239607, 0.031066006316504746, -0.003005377490139622, 0.03581971774954186, -0.037023989562474845, 0.0208026196449007, -0.002297572697105693, -0.03448270648646076, 0.03614948121392549, -0.03525803102948189, -0.0018909035050023416, -0.02596415547021086, -0.03876397433003721, 0.0286937086614367, 0.027520883126433634, -0.03838613345856857, 0.004430147404643105, 0.041331677928769635, 0.04376698038276001, -0.04280485903174193, -0.025922397530875642, 0.03441189091580143, -0.014860566541186641, 0.00053880396611126, 0.036039442759178725, 0.03987889446415959, 0.027013385289844236, -0.03245978144158718, 0.041893660081776966, -0.01665899645963636, 0.02960617430753637, -0.04386290511779526, 0.009178774247349931, 0.005481803766839452, -0.01861283825558229, 0.018119351815711043, -0.03140521128714656, -0.007645465086055202, 0.008614890358535257, 0.033285399433656736, 0.006563082974725838, 0.018222234931312403, 0.03885451581217976, -0.014015393760032692, 0.030409217283439576, -0.018464343900743665, 0.03076839725537936, -0.007592828927237987, 0.0006065631061331404, 0.04032801843699455, 0.006724025814849862, 0.03455940054488786, -0.002877770106224777, 0.01495820123947286, 0.04421626955833182, -0.017044114305888505, -0.038820096214463154, 0.022150444188472097, 0.029828811665800207, 0.00893535228731949, 0.01867275533256985, -0.015715421174020656, -0.031398123011043236, -0.002727201110080747, -0.03000052929833481, -0.02612199956994866, -0.007579499843515807, 0.043076282543669124, 0.00890188571027861, -0.005960178312569663, -0.0073889013864661054, 0.0017148588819660335, -0.032625682490779594, -0.00334598651837106, -0.025636571597557053, 0.025115449666628393], [-0.009258022496637623, -0.04288311563313556, 0.011285811848762286, 0.025926887459713572, 0.011364360355768537, -0.005658844804702946, -0.041802533195011524, 0.0379725448128523, -0.03131132558760441, 0.03499624884693788, -0.017580361608580442, -0.04076989208496169, -0.01721865560084549, 0.02341981142991764, 0.005704751536045661, -0.020683865027069124, 0.007888654730496283, 0.038747761135069045, 0.011860307841544342, -0.04022425755846481, -0.015255062858713545, -0.040405706107063316, 0.03345382575607265, 0.03557856586178387, -0.01848250858406792, 0.02349587132136642, -0.012134499385493712, -0.006294346081343686, -0.034442387773406455, -0.015244166833136103, 0.016994990682327175, -0.01606547838299129, -0.020026793674994096, -0.013079223695611352, 0.019396353712116683, 0.015959420543809177, -0.036593545313644706, 0.02047622394886756, 0.026148696705540073, -0.014334754867860282, -0.035989509905264956, -0.0167891680917234, -0.009599964382023391, 0.03269990775193934, 0.039232559136357745, 0.007781218923290114, -0.013145289418442006, -0.03499112854021212, 0.009524065621781465, -0.006863625426346426, -0.018240314283572184, 0.04196782960695006, 0.02690924838607008, -0.036795092266127295, 0.0297958967963708, -0.006064823851746889, 0.028089414652013443, -0.039509213496517835, 0.006620400097601069, -0.009247261557872893, 0.017901292540446125, -0.01447380060414672, -0.01715560877944376, -0.027742641966513937, -0.028015078909233014, 0.03263568327604028, -0.034794742316844256, 0.019536986819897923, 0.04099480105071102, 0.015359892175370113, 0.026956114827518737, 0.016689368137486935, -0.032070302090026793, -0.024199686490595496, 0.026067251829710536, -0.023488392774986162, 0.04038502533774, -0.02485110633567747, 0.039436124311259466, 0.017868655642921165, 0.00010267780149970801, 0.006002684731750198, -0.004522524869594893, -0.04343957778232285, 0.025727772095929448, 0.014568674105876788, -0.00035227527622871756, 0.021154441517806807, -0.0029500584827879847, 0.01576524247769909, 0.04067235851737439, 0.012684335418807613, 0.01787833965242133, -0.026446482893688415, -0.016640348680443517, 0.010922879860403056, -0.03546092759373631, -0.006249932077079137, -0.03605710359685611, -0.04363139733594607, -0.03811407686602432, 0.008979277737138818, -0.02103080085561975, 0.039494460611066186, 0.0423271130181703, 0.02835117870726535, -0.026032594615058406, 0.02993254756030603, -0.039494866807099155, 0.021038102576239878, 0.03546407349060999, 0.00750699544256969, -0.037940679649896614, 0.006205004947270025, -5.824917370264551e-05, -0.03276843810908492, -0.015217713983833469, -0.01931984908829858, -0.0031893269326227105, -0.027852164456337137, 0.03808750771633161, 0.029050231972118628, 0.013253623015184712, -0.04251312020542914, 0.02439293915206789, -0.0352383722415974, 0.02346814530575103, 0.04420873284167568, -0.005680708471627962, -0.010942121288738088, 0.0035814455519467374, -0.0036437312257749377, 0.041643788264050345, -0.0048340009691997055, 0.03351261310592837, -0.04104876856931497, 0.01646935961539347, -0.008403776409949711, 0.0003576332245935457, 0.036716714954165, -0.01583144828686692, -0.039682088758193734, 0.004845191089489717, 0.028464775086626277], [0.003538842398653372, 0.0035152377852597613, -0.032184078100980625, 0.02187057710941573, -0.03513950722155717, 0.002727566724138335, -0.014212024119061023, 0.02958650185549359, 0.03767405172761785, 0.024082238360780155, -0.003996730335703734, -0.01635779613365747, 0.035657777907786604, 0.008146699361804817, 0.0434016292745448, 0.020889995588177522, 0.014728054541337934, -0.02578391797733681, 0.02690277298917547, -0.03301693613898419, 0.04309895805235796, -0.039966325767225946, 0.013482146148660723, 0.012703912016777943, -0.037191263255867385, -0.008898120104022642, 0.018774568301867512, 0.004305280208200993, -0.03885141768983009, 0.014824967653202226, -0.024230611620154933, -0.005847864657621117, 0.0150791111639678, -0.04324909730959973, 0.002851675019529577, -0.03830521939485696, -0.015530446636809612, 0.023855615371227663, 0.04026801311695412, -0.038707941693494174, 0.02045466524780332, -0.026094793134830575, -0.01240204813578742, 0.02454344969248504, -0.006853764172349905, 0.0403026396124043, 0.030583581219770044, 0.030239593026290233, 0.03985057005270809, -0.002783063142949904, 0.009265947514555345, 0.04316823093064095, 0.012149834069473021, 0.022361985617759896, 0.013605378851798773, -0.0021882700377567382, 0.0006820699840396505, 0.01957803240923348, 0.015567369482335123, -0.03199389836179689, -0.006225377349704647, -0.03466429875576401, -0.008924710158514626, -0.013147027225476676, 0.01751171998243307, -0.042966082305481816, -0.019924337762891216, 0.030605063162515437, -0.029096748354979503, -0.0221348006764292, 0.01302970304614192, 0.0409076525218653, 0.031108888333899767, -0.005252930182637195, 0.015324767282039993, 0.02195284129618989, -0.03667214914002564, 0.014928323472403953, -0.026475710851629117, -0.013065632547789419, 0.038442078138931635, 0.036182987356768934, -0.041378248929314444, -0.02649914942362436, 0.029701784353129614, -0.042888374970913926, 0.03395140689997787, -0.008735770506076492, -0.011047331782171398, -0.018984961641930673, 0.004459329361852282, -0.016688955255764255, 0.041096057054278115, 0.04358954027430136, 0.009683273611125205, 0.012923942475393198, -0.027590435571571564, 0.03704641887178422, -0.018722056767278387, 0.043747523656461396, 0.005682759496338069, -0.03637761983870853, 0.01186771755298997, -0.007613937282966428, -0.013146789530323678, 0.0037792092469518313, -0.021078323290370803, -0.006814313802606282, 0.020787701536589976, 0.013749721729566435, -0.02373146237090054, -0.03584781575652147, 0.0008751736047259511, 0.02196667995031453, -0.03222949492380519, -0.04199693817847733, -0.0200167013453034, -0.013447045029099209, -0.0338657140097627, -0.032054677453786797, -0.004225803403443712, -0.004285798005007213, -0.03006209373717261, -0.02960899402422169, 0.025862235868495995, 0.012649881142647285, -0.03906659146780108, 0.04295565605188782, -0.011448996979627118, 0.007586531472836766, -0.002972179214003788, -0.040033005248919715, -0.03683766972589674, 0.00267808726902774, -0.003481391476604049, -0.024418244994598454, -0.0181462921617144, 0.037652974440212233, -0.022106466795970114, 0.04316787855354721, 0.04172217786751536, 0.003469156573800158, -0.03169642744515873, -0.0011033339850830461], [-0.022317084037928318, 0.015301347230022532, 0.01784357106329761, 0.027934635903224647, -0.03339422181907508, 0.01727944518781746, 0.03765802889628914, -0.022509862766805677, 0.006007973681293443, 0.005537677624632687, -0.043825551631332546, 0.030104827583068053, 0.033678516195828, 0.02396747356814766, -0.009228441342507818, -0.025426458078627645, -0.04020109945426931, 0.012972888420842151, -0.0249838823671549, -0.02886712375427514, -0.03735664521032208, -0.0007921361350189121, -0.001376323406888867, 0.02272871726763264, 0.013862633460485817, 0.03514114441014638, -0.0008268919287650147, -0.017166333213840847, 0.012147432761505591, -0.03011059658667185, 0.002579380293502828, 0.017946575615481106, -0.017353233716110437, 0.03426759262105664, 0.016094070379954285, 0.011489685535731167, 0.005877905703343047, 0.011167405827774144, -0.009787744717236771, -0.026726702495564327, -0.03884051095965022, -0.014697435908201032, -0.029950595507772036, 0.03832323222794079, -0.019888428102771423, -0.02415321868718816, 0.03792815851736247, 0.001223422033817243, -0.016855429449775423, -0.024618208603889847, -0.015629025919341663, -0.004074626181460591, 0.03543841957137407, -0.0275245862105164, -0.006719495351202618, -0.0433363218596452, 0.015317129511365464, -0.03665351444318135, -0.0006690984359633179, 0.00025497762514689457, 0.013218148695022849, 0.02989595786994639, 0.030072906079600517, -0.027022491596406472, -0.03497292413945258, 0.014376856424343283, -0.01997407447256697, 0.03083584659556774, 0.011775034853693767, -0.0303246379749544, -0.041945733201962244, 0.04297302010508127, 0.006512913143649705, -0.004838188444453522, -0.03043911639541292, -0.03650377947743383, 0.029259255052793996, 0.02168467364485706, -0.030124816274569238, -0.025245359390826748, 0.00015394001371628606, 0.02878219792941494, 0.020595581409401556, 0.02908897577265273, -0.03653447285680564, -0.04285399250480088, 0.042942076663481855, 0.039815339890129864, 0.034464156518341116, 0.035316086908975745, 0.042684132661047286, 0.00567953764470833, -0.0019224720571819046, 0.03231840909091359, -0.022303350372772868, 0.02210282615228138, 0.012804922855668248, 0.02639358867465877, -0.041029092743143404, -0.03836853700299211, -0.0022061427946060757, -0.007275239927904862, -0.03853534134507758, -0.02543415525167588, -0.042479482011474744, 0.020255509402931894, -0.026426507587478637, 0.025573084399856453, -0.015553580706500862, 0.015120374251278447, -0.021511587279656675, -0.015112074690975657, 0.025047581329050266, 0.019011579740778894, -0.018601656744221186, 0.03246200995306625, 0.0008565780144237575, -0.01950390327252765, -0.007532945793604906, 0.02182631422055107, 0.016266678667204305, -0.017790097530121944, 0.03525889276528486, -0.014933607189690503, 0.0030598797037345938, -0.029664001827429294, -0.03304351026947822, 0.042370611063322836, -0.004183806066696451, 0.02220791528543793, 0.028685922932912777, -0.03140841782711327, -0.03988629623579916, -0.01021826446930266, 0.007316454591021967, 0.02844895259157085, 0.041776093457086376, 0.0047635427900492725, -0.012769750601699067, 0.005484658748149047, -0.014629644860347448, 0.016339219567018514, 0.04349224691211596, 0.0192412300742999], [-0.03380086033294039, 0.04254546241674686, -0.002130626997191779, -0.022226327553508028, -0.03514668789206364, -0.024152151092850647, 0.033585539533175904, -0.017243077644151773, -0.013102389653127116, 0.0027389043571170025, 0.011997768476886462, -0.020465074082854896, 0.0075569395674305664, 0.03606883128608599, -0.018728151715977318, -0.015231379870635837, 0.00462161814818547, -0.0331521083996627, -0.041750739072706655, 0.018927453122739402, -0.03953649287340264, 0.03794919405853603, -0.013060530744404941, 0.009797852310999977, 0.0349884686700497, 0.009627884746736242, 0.029366536331684342, 0.044062491225566894, -0.008086556874743354, 0.014223433199239296, 0.04291185582154494, -0.021083359614716104, -0.010525105347825301, 0.025832573242514895, -0.0003860166261250837, -0.04214149482644593, -0.0252006980222553, -0.03313173765063847, -0.006314442372350279, -0.03492636926941619, 0.007067467976513612, 0.03155559839178838, -0.025298422775081597, -0.007910602354626893, -0.02140569753175118, 0.0416246502495806, 0.012955626876042075, 0.03257459250633509, -0.02992466326962712, 0.007587967838253849, 0.04100153584418427, -0.00754306056382247, -0.015855537761476135, -0.011316719629773594, 0.04229821866976217, 0.02177734049735363, 0.013070348947233915, -0.00037317686698765205, -0.021621180707089602, 0.008368149475282517, 0.013836134784858919, 0.00725924589010101, -0.003815063476313276, 0.019682051266305615, -0.043529658289747024, 0.04336912238730701, -0.017887699430184083, 0.0375183198912304, -0.015304286565865369, -0.03091082420534447, 0.0019707492364256147, 0.03452707084375038, 0.0005000345695580102, 0.006326433031381663, 0.014455004581606267, 0.037222893974387286, 0.008794982664935997, -0.017512865969857298, 0.026933131978225316, -0.03411412851257586, 0.0007958265227375921, 0.019880771302580067, 0.026566884736379578, 0.002511583648190866, -0.03847591388627705, -0.016160911789622007, 0.025378265985259787, 0.039718071255857454, 0.01681029512548605, -0.012091524005165503, 0.006164574864825637, -0.017364779160714886, 0.015329386723700052, -0.023634063331139783, 0.021120721937588995, 0.01693306381901849, 0.013834380583685489, 0.0038074754530246376, 0.024651614384480103, -0.0007294874672491337, -0.01303919809201384, -0.012197406429624238, -0.03306780055149484, 0.03944004851000626, -0.02497365749247843, 0.04321883986497071, -0.020342517913571515, 0.03905494747051152, 0.020672318892747704, 0.02810774015045598, 0.011280638995780535, -0.02872870796388617, -0.03833330893355865, 0.01229649152167311, -0.031656308719674876, 0.015334688313350484, 0.001349343469329192, -0.03866446996356171, 0.02972893201459019, 0.036844475053036285, 0.008928504925033663, 0.04219585855642242, -0.020921804618458332, 0.04211466801121083, -0.017651251297790854, -0.03590739359415671, 0.00555100203053299, -0.024409624935339994, 0.027753465989671374, 0.0036133124743670986, 0.03761296861647765, -0.00732381339407439, -0.0015826289562890104, -0.018156584449982027, 0.021063841635691194, 0.027571119220309564, -0.026875462233578055, -0.01991065800640328, 0.04138397703421323, 0.025660813950023894, 0.009657574812498404, 0.016642102221976277, 0.025321801557471123, 0.023734202430958622], [0.027287845653792272, -0.025499374394018063, -0.04373786244964678, -0.024683895810205626, 0.009070397264593997, 0.007390012860311751, 0.01306186035572433, 0.015648171645878547, -0.007124603752056291, 0.041665130212616204, -0.04232577635801269, -0.0020515204864344034, 0.004725003937938313, 0.010989488870888128, 0.009102027181305782, 0.000660703446842839, 0.035543214747397314, 0.0018031666984278845, 0.03069754610878165, 0.011553762976978592, -0.042894222370071546, 0.002537497820624347, 0.022454860905051874, 0.006445493560800671, 0.01399519552589712, 0.021541845686286143, -0.036345003063922604, 0.002210854976416134, 0.025400164936514355, 0.013033989499210464, -0.029981863915109024, -0.031115623676946317, 0.03385769192151454, -0.008132768122402984, -0.03425911626534683, -0.004254753524754838, 0.004783625461945542, -0.035320517358229886, -0.0008434065436030253, -0.03983936196670253, -0.018329022220971092, 0.012588591904363981, 0.006861335356431335, -0.015360689628804172, 0.027385925490433782, 0.03477566612320643, -0.00899528221765602, 0.010352436811408135, -0.004385111359677616, 0.0010870209104277468, 0.010809871747515432, 0.014760007609395559, 0.0002504092269515966, 0.041159753919308324, 0.03468191166793584, -0.025768919433839483, 0.011255225798859929, 0.0342773988837414, 0.016190762346691277, 0.03963503965230818, 0.005293502576827001, 0.032730298182853855, 0.041115455756925295, 0.018674510503069678, 0.024625195350392017, -0.0005628603459191126, 0.002731784355662209, 0.0030974543027258105, -0.02169188853086647, -0.025363405694447026, 0.015319296833519758, -0.006149597654975464, 0.008831260763977071, -0.004083750483898742, 0.021854260997917936, -0.026637843175952008, 0.03624884591884414, 0.03131617431653953, 0.022437974256254333, 0.024629641694307734, 0.03516036602224058, -0.005024168934109965, 0.025228515119235278, -0.021678629858166293, 0.01869376538680839, 0.024167518480732585, -0.011627961421102086, -0.02045645405984824, -0.025327312207070768, -0.010362425066583832, -0.044236936998667764, 0.0007018921769915384, 0.013895320349985824, -0.030044238620641452, 0.02988961032604782, 0.03180051710786926, 0.028872003751400702, -0.01362680587743402, -0.00838506056954929, 0.027665706508341947, 0.03043349574619264, 0.04160135122819299, -0.003860785770845396, -0.002263256102612244, 0.026622442176148547, 0.007992802703991107, 0.0029845719456573694, -0.01668899814519684, -0.017487823788802582, 0.0420453782145456, 0.021925906834844598, -0.019918361162363157, 0.02876756181681901, -0.004798480331896285, 0.003384670464671601, -0.016306102419486483, 0.04402809479974535, 0.013608084600480632, -0.03260861921789879, 0.020968776259453224, -0.044069121392605645, -0.02547415244844312, -0.0011467416276132797, 0.04043601003253981, -0.03430057198615, 0.03427108212447749, -0.03668897834904549, 0.008775966221003037, 0.03794741574378981, -0.04178350842190933, 0.023580166365946377, 0.023783124090130302, -0.012577621077709114, 0.04081895651137453, 0.011504584572752437, -0.03765144067866258, -0.01136879285230533, 0.004705476387834875, 0.0264578742371508, -0.03146431415424922, -0.03041380840614971, -0.014301671380372348, 0.01783071935975067, -0.02248620258731866], [-0.017018817438719035, -0.040207775151859165, 0.014422096192328681, 0.004144927569419691, 0.009558676280139644, -0.0017440518847547377, -0.0076181356159402535, -0.04049556126297541, 0.02878879019579573, -0.007642340742098604, 0.03522859180672596, -0.021580091050948574, -0.018060109141868532, 0.041444208582875355, -0.0042702237760161715, -0.01271530331173296, 0.02469810672783534, -0.03214431160219327, 0.007799714314986136, -0.007008495335903769, -0.015926620778852648, 0.002099007817643614, 0.03912282339100883, -0.007859198095892554, 0.04245244079057945, -0.026437317520631803, -0.04202737723814111, 0.037699044167599165, 0.031050803442028672, 0.040858817777888114, -0.035377470699313525, 0.01992471255767569, -0.010013787881880476, -0.023316319891292514, -0.04252650013114408, -0.020576545247595845, 0.0008927214439964788, 0.003076596727461833, -0.04302818499230609, -0.03715064917812713, -0.03998515008243408, 0.043104485506734166, -0.013123340597549868, 0.0009683072744448473, -0.011768253627462, -0.034631121143266386, -0.02480904385708247, 0.02783170311452436, 0.027336557443605525, 0.0326970787898094, 0.0075162463103997474, -0.022694673497758923, -0.02259109201013137, -0.0011367128632462586, -0.01688506844414593, 0.0363244271873041, -0.027682117454598164, 0.009512948770889117, 0.02924900050022827, -0.042581982373039805, 0.03981355934915505, 0.006565799922746182, 0.037882896731066214, 0.02308414122852521, 0.012459705072246627, 0.034137651711107, -0.014306849721072611, -0.020516445181417053, 0.017690355708141793, -0.03051920866274764, -0.03443860351196509, 0.029399641735932187, 0.000198968823934581, 0.011017340329111095, -0.009685402477552932, -0.036839083469820046, 0.04180183367686737, -0.022233219674221347, 0.0189620336129994, -0.037980073225156376, 0.026116298993370674, -0.030109562443498546, 0.022774683863281613, -0.001059754365311661, -0.01388854085150544, 0.03926080443666841, -0.03493406987569297, -0.017093640113554423, 0.007136673503296974, 0.0032606516257888043, 0.022094990929382864, -0.0048017336464174065, 0.011762990127222471, 0.021835044398220475, 0.006877008645565291, 0.013862137213088816, 0.024103530675267184, -0.0026312602198904356, -0.03202610014182236, -0.0018394394850235183, 0.03489548721976745, 0.005448945091074929, -0.026742990146486723, -0.032503767126825296, 0.003438820217238211, 0.0226429300282748, 0.02689360632693315, 0.04207945643104315, -0.025017171248191986, -0.04234399547064495, 0.018757884077549122, 0.023957753352862175, 0.006232429123722005, -0.004208492836837142, -0.010482623802534657, -0.01695585790869131, 0.017013201272268408, 0.041293507041983125, -0.02030932423069289, 0.016785857154452192, 0.03521841981500662, 0.04169518971907061, -0.026549397003106975, -0.006589564633785476, -0.0028006479386600562, 0.025276315780439245, 0.04418870860947315, -0.027576059214893322, -0.03612777184270232, 0.03866625159862153, 0.036748366487773604, 0.027619533449381003, 0.001099634276996954, -0.018174030914429238, -0.0051822293692801195, 0.038386252815021844, 0.029368291942141113, 0.015530742479162668, 0.03873674703301414, 0.04089906742647328, -0.018393443683707784, -0.031192302204854264, 0.002510562615709812, -0.00807784585911185], [-0.039802511336381616, -0.0014074128672434299, 0.04149863037575317, -0.02597332947123193, 0.014556137189088223, 0.03591941491194824, -0.03717911597266177, 0.03760957640200491, -0.011376317015701706, 0.007615159252285606, -0.00464433650634254, -0.020832141710741815, -0.005202939609845132, 0.044131698132846085, -0.01978563618110749, -0.040700123293151654, -0.01569120121634298, -0.03741795502434609, 0.023531408440646686, 0.020017850663758538, -0.011725137510472378, 0.04006151804738293, 0.02027647080000352, -0.0008939054079548219, -0.01909798135525915, 0.03455668250146569, -0.00048514174800277286, -0.022334381472782085, 0.030705398260915607, -0.01577954147202099, -0.03247335773216, 0.01917093053922982, -0.0010086395011175747, 0.021087273886649674, 0.030648201233737977, -0.04115515727654967, 0.01376190176168378, -0.033372663871113234, -0.010922432134074626, -0.021363651203287686, -0.03389670333715133, 0.04113206289743028, -0.014620153410699863, 0.04212064113717216, 0.007118868921573789, 0.01100133746167889, 0.044030198241616886, -0.023013129413441875, -0.041808607803333495, 0.0356684798326917, -0.017152989182672152, -0.02155643341830478, -0.03264408150817884, 0.04277766198373704, -0.020769287259304853, 0.03365401834231527, 0.03979553774549408, -0.017865103305416172, 0.04145435956633279, -0.003761204938487226, 0.015869505389378927, 0.01763289895329428, 0.038721631137161996, 0.042500638921536375, -0.02131689446150143, -0.020194872102971027, -0.04234406672313668, -0.0026849217359130365, -0.009727967424245906, -0.017214526229667224, -0.026043520519980164, -0.006190045228408343, -0.023917233113688426, 0.04049259957470425, 0.034936929871802094, -0.012530702603536763, -0.041689235877687233, 0.027373185173670933, 0.022272885513753726, -0.0192475145831467, -0.003936427970366801, -0.04239875104149293, 0.04078618887806166, 0.02557357765847509, -0.002337809875824388, 0.04415994433847601, 0.012359015913311072, -0.023218604636631036, -0.03011256135123572, 0.0069188494100703365, 0.0032037883476623407, 0.015183610390524899, 0.03094281029188252, -0.03719537481398143, -0.025985294720703843, 0.018824234927677257, 0.028997429679514884, -0.033381119184725756, -0.014485847919837104, 0.033454987954110546, 0.0311162783051019, 0.01798944087691473, -0.03699633770577828, 0.03294999225252405, 0.011598823620320576, 0.012109843265518934, -0.02955219231248239, 0.04087711240865344, 0.009443969326899705, 0.043477656339520984, 0.03714186572072621, -0.0035774680596424107, 0.008161151061617793, -0.043122883452622475, 0.04266145491542649, -0.014556001402873607, 0.02831760155592212, 0.0079109524493867, 0.008263244008250518, -0.010141482018740091, 0.025998393723291467, -0.022186340300431828, -0.027498058799313267, -0.003456812316355309, -0.0065132562233247955, 0.03751305398610512, 0.0030781920566294208, -0.01041973951577034, -0.02039351651249939, 0.0026039289395552462, -0.03688753901616813, 0.02001526409813999, 0.036918174504530374, 0.015250965315664807, -0.010283839210010628, 0.0172793238202273, 0.009039368108314851, 0.035067423077439985, 0.026859963045542758, 0.028404159785691146, -0.03077556904779699, -0.00016977794159094844, 0.0031859106914904935, -0.034175599384554785], [0.00038234458983246733, 0.01627205676505138, 0.0329650737550333, -0.03409316769365791, 0.003541113308394133, 0.02026566489956428, -0.03499050409260653, 0.009202414898624892, 0.004862665037836478, -0.02621673964295665, -0.0026143973950588455, -0.016605005217443274, -0.032367056955474156, 0.03274386348695775, -0.0037268698460090482, 0.004211508565503812, -0.02462435796621084, -0.031683295358047515, -0.0205879230090447, -0.008596185010358425, 0.01916749101814123, 0.022695228805137493, 0.034177042467283314, -0.022563909682231105, -0.03624284810668547, -0.025697420236269326, 0.002498538446884213, 0.018194302148986402, 0.003163679493996072, -0.00789443288962137, -0.030902075656000786, 0.043020268079696715, -0.02886788433247592, -0.01861123227999962, -0.0010451231490648438, 0.02041820703490411, -0.01336732412273834, -0.03650140743018061, -0.023560832069235742, -0.046909405270564114, -0.02975021490077291, -0.024373247275965033, 0.0024491042362096314, -0.029879296718690784, -0.001114424200355434, -0.0251287248775037, -0.00635882843364321, 0.000818023534185243, 0.03973077118397054, -0.006125747394306147, 0.013535728245067472, 0.03604179225408712, -0.05097405512618752, 0.02671663484286882, 0.018005509959279825, -0.01631543225810993, 0.03498615836735621, -0.013436154345294814, -0.03627064608128099, 0.00287885523710827, -0.011916495757148935, 0.012798328312597492, -0.01674083899136722, 0.02234727294111083, -0.04672469401401376, 0.04123745404870447, -0.003483109511358448, -0.018385719973581797, 0.04246379337958306, 0.03848936742387098, 0.010999360146962412, 0.0034930455935914704, -0.029233663988181398, -0.0012779404624104556, 0.02261599737498797, -0.03886797261396994, -0.03412227932818217, -0.003706966269212561, 0.04590068223308064, 0.0343000534185733, -0.009923855807689716, -0.01625306437590397, 0.013803391448934233, 0.015248854925179873, 0.007831665224992738, -0.0325851682831638, 0.00169006424499712, 0.012285784934089184, -0.0035944387795872764, -0.01688312578485927, 0.00883452625755891, 0.0372522713077438, -0.0003375550943327994, -0.036011320053985864, -0.03908163820657309, -0.0420951689442516, 0.0028378814701779356, 0.02298660383471599, 0.041443449177432964, 0.020985811451316082, 0.03541644980012484, 0.011654309785928376, 0.017525219626667286, 0.009558520976678607, -0.038967186309108136, 0.020342552845040503, 0.01742222582040707, -0.036369426047222354, -0.014748028558885528, 0.002865650242860752, 0.028840568545576296, 0.0387923518301254, 0.041836421268443995, -0.010238615055871453, -0.01844337851977775, -0.013617934044210847, 0.03704566374177906, -0.02464269440270778, 0.01381827641418571, -0.01724048068558237, -0.04009639870283791, 0.023936466535733735, -0.016383372294050673, -0.02330336980005774, -0.017011656857209873, -0.04106577354658103, -0.016419664049140765, 0.03429039820395889, 0.020890787544953084, -0.018807451719080714, 0.02723141593546163, -0.04638522421324941, 0.003163108879475699, -0.00463760601653314, 0.02752969961194429, 0.020284433103758225, 0.021448351417953884, 0.03488353140055925, 0.03640104003957688, 0.023097647491144523, 0.00367800935078001, 0.033491807155550286, -0.03799446862124613, -0.04117171606324096], [0.03182959086051788, -0.004535250659519073, 0.0056195491306961585, 0.010231512292199898, 0.03996256027174902, 0.04513732125264534, -0.0009714889923202958, 0.0017215120049497888, 0.031482347459910145, 0.010877137874908363, 0.016319144843507015, -0.02700792973757021, -0.023513509321011348, -0.013695944187448988, -0.027121378629571716, -0.04588261934086275, -0.0007863023535427321, 0.015367397140867467, -0.0271565570017013, -0.023804791277595026, -0.04410285215124649, -0.019933988538478362, -0.015117291715518556, -0.014994169807065949, 0.00593370443521984, -0.029440438646281812, 0.030284714845376332, 0.02158025154701221, -0.041668913692468876, -0.0032830300222514695, 0.0029326361587622475, -0.034923645137415416, -0.025935203695594024, -0.02071532058057017, -0.033865820086742916, -0.04516914596643813, -0.02474660305184236, -0.0006873492456847152, 0.02416510264358184, -0.05933539709218342, 0.030980579301791347, -0.027937118813617736, -0.005640392220772081, -0.02020591170715546, -0.01612123875963106, 0.006658870798417795, 0.002677014261230385, 0.03898666283986315, 0.036265667615343444, 0.017189777803858466, 0.012637181853991007, -0.026116017164079876, 0.000997715074632793, -0.03360744032420313, -0.012700621956358763, -0.034613901867418605, -0.010549968555585222, 0.014479629515832416, -0.023818163186118808, -0.024640395204365843, -0.03160181896553657, -0.01938673539333135, 0.008796731481615578, 0.01705103219007452, -0.04730678490944792, 0.010163446422729053, -0.02956504321906289, 0.04119891218672118, 0.008321501089473169, -0.040336083353988604, 0.031124080261943573, -0.023119856661777346, 0.039008575646755805, 0.025047270736630194, -0.02460274357269848, -0.0058274698729446905, -0.032871035089952226, -0.030926926253610015, 0.055074398988918194, 0.024346202992730007, -0.03098957408513858, 0.006965218318025346, -0.00553070182371394, -0.010857180114352072, -0.003019786490051018, 0.009498381867865504, 0.0045415647443757525, 0.029169765970947257, 0.01177176992111383, -0.017807390745972134, 0.002298265897241537, -0.028556716939322952, -0.05052465164008455, 0.0018411156717848029, -0.022807301645823903, 0.024624025723740766, 0.00440942201494108, -0.035945894536101926, 0.001705747977770655, -0.022717496885551584, -0.04379109205092341, -0.011338100387007001, -0.009172676429633568, 0.005676434620546108, -0.036115139625954314, -0.007881731139901196, -0.015561027477400586, 0.004661200441167591, -0.031517664485709564, -0.029637426491068968, -0.014811631447608397, 0.03784889623627661, 0.04244731859776832, -0.019973511201551036, -0.00016079973372860174, -0.032047405399171225, -0.04535807471122449, 0.03559380422594788, 0.012574000758703865, -0.06623575263032941, -0.007434864961938713, 0.04419396215292472, -0.02864598717665619, -0.0016412438594910438, -0.03032435547612379, -0.013512110623341062, 0.007417133783825208, 0.02584540703444602, -0.02270808962230749, -0.009216691450765502, -0.014876430043139316, -0.012479306213671873, 0.014228841399731181, -0.029326741550205208, -0.039575573747199146, 0.01992044580177169, -0.06627836040389323, -0.039032229611206525, 0.014139254064319831, 0.03714853228855754, -0.029430236046446713, 0.07158072588018632, 0.05705536379714303, -0.03955828012669845], [0.005523804280480006, 0.04373536166444721, -0.01372364841373761, 0.02925229222450742, 0.029375751927317572, -0.0005703417622658595, 0.042225431413745816, 0.010968661665276866, 0.006607994954812011, -0.04056333633969022, 0.042969160877133115, -0.0385554933290174, -0.013866922086572088, -0.014608168990678972, -0.03230763763678612, 0.010390551662626805, 0.00417407859300334, 0.022905568974059883, 0.030732013255665498, -0.022716073875661907, -0.012159408373830014, 0.025387004285791968, 0.0118304656316027, 0.004522141424035754, 0.04091855718908194, 0.02827719847742808, -0.035283812763605704, -0.03538448424237212, 0.012960944656263436, -0.023175305949637584, -6.741061924535618e-05, -0.004818992362223697, 0.02414421206076311, -0.03668667585394289, -0.03354049273137834, 0.0025581936995561464, -0.020751728532682864, -0.011409126498562362, -0.03796134453041199, 0.023082950964291696, -0.008616073304894658, -0.027318332676271782, -0.012901380783618929, -0.035534308660406605, 0.035531690732536876, 0.030212376306216468, -0.005241319670605202, 0.039626834968416756, 0.03138684912925698, -0.0028531988743693607, 0.026033885572776458, 0.025981273136743623, 0.03920001440810008, 0.03429485896578371, 0.029584859832723305, -0.012450013086883718, 0.031153136508558863, 0.014519263339326878, -0.03754111024921488, -0.0054523457864166375, 0.04142307404132283, -0.0052784359415220155, -0.002235591501691646, -0.011559688044511318, -0.03021612834850929, 0.017107670132119824, 0.038124007845934636, -0.038152058307761, -0.03041628025660857, -0.04181955507226186, 0.019244632014134774, -0.0022198010868829826, 0.025101548716783266, -0.02016501460456148, 0.00951888359960397, -0.04222587233792578, -0.01738686434931157, 0.00215598178552093, -0.033763966354440705, -0.026393281395226245, 0.0056735399380602744, 0.02212412354241023, -0.012050880411640255, 0.019620497312087287, 0.010351633882850727, 0.03458721163555501, 0.012698019485627068, -0.004599895248201247, 0.02668678608528926, 0.02502070759416642, 0.00819641580193248, 0.041734314422231536, -0.04268426789612371, 0.001908092466226939, 0.022772113781832252, -0.019837062133543845, 0.04394661645784748, 0.004459480290731776, -0.013915279010456473, 0.038281930042635554, -0.004645911188533285, -0.006204914962066056, -0.022182334187206474, -0.03072152841992535, 0.03838378396061405, 0.013485698758304713, 0.006153213209425728, -0.031194264154505123, 0.00376457410751007, 0.0333018561816775, -0.011070714860030334, -0.024979143106575792, 0.011781841138459552, -0.021471219779750948, 0.008114759005936598, -0.03013494165125001, 0.005638925586100785, 0.031021315331101505, -0.02032830792853696, -0.019476174059718576, 0.018639504514866144, -0.006022130594848316, -0.03055363514272767, -0.0428210174253035, 0.028793672158041714, -0.03676255814664945, 0.010129152192700788, 0.017002976780643407, -0.0011966771585823132, 0.036375098173988464, 0.03257875412823172, -0.01738909850780079, -0.03571514082600552, -0.001289090970531693, 0.013466884741387896, -0.03293627605732498, -0.0395339026330367, -0.027260424009562138, -0.0225849346629578, 0.012519063221672946, -0.022157192016910954, -0.016503272089424394, 0.007809900738339824, 0.006924830325927671], [0.04333081371090461, 0.034584502630380126, -0.009087690076256394, -0.027418096869637736, 0.001317645948339097, 0.03328970987319805, 0.03223427398044533, -0.004237612679816733, -0.013962211371025796, -0.03437624949253635, -0.03901039474366012, -0.028778102016252284, -0.022567427875580883, 0.04174556769821571, 0.036787368145501285, 0.0026228614076928575, -0.043903219807474705, -0.013291994627291182, 0.011344896907512394, -0.042691831136494864, 0.01123747064680556, -0.03253952669542177, 0.040509939065978696, -0.00669273097205482, 0.025563960193058188, 0.03868029098864716, 0.0032439146373055513, -0.036532742143789085, -0.015836733166066642, -0.02453197888304406, -0.020481254743165596, 0.03487329005687058, -0.0029365491432925828, -0.01005676985979836, 0.037932324153564005, 0.0413763185228515, 0.03737427189218433, -0.008767702678443097, 0.0100847599820184, -0.027550483565749462, 0.010479463582443624, -0.0051437272918009565, -0.0011395205635649226, 0.0019808172425282624, 0.03780897840741808, 0.04017771662509674, 0.03799690952266159, 0.011241287361331488, 0.030630399165539342, -0.04313332085514417, 0.03891734966626268, -0.016664603228914776, 0.018472704857648573, 0.026407800195832113, -0.006792118677369543, -0.011176267403992185, -0.028271311036641697, 0.0400606652915822, 0.015516127245660104, 0.018482260235326255, 0.03812390384312876, 0.012252765810215187, -0.033211223250872605, -0.002877094068957689, 0.03584077121734483, 0.019028188839361165, 0.002714382879676567, -0.028184160245738808, 0.0060070449355013236, 0.00838410554163822, -0.02937385622089661, 0.02337076063890119, 0.003148135462500093, 0.01228231520328903, -0.02331902079090211, 0.010385150535653758, -0.002357207744931985, -0.03319223967035188, -0.012639368773022214, 0.011515786819859286, 0.03839638566164286, -0.03726055131304476, -0.020029470955868163, -0.02597628268039207, -0.0033442880787805437, 0.034121547604399526, 0.024265811566550572, -0.03516935603089452, 0.009689033183764887, -0.03170236296606579, 0.006827795867815397, -0.03367117183318738, -0.0037898807145209635, 0.03586756941445704, -0.01955557824062961, 0.02951036515909934, -0.03824233959917878, 0.010822189195030483, -0.026348569475813006, 0.02137211531212408, -0.026213540753709165, -0.0072944263699931434, -0.0046540391996291106, -0.023667244791434693, 0.027879681106617853, -0.0030899962139732395, 0.010782627516913976, -0.0009871640433465208, 0.03740158269971168, 0.002478258598550027, -0.03590434377591858, 0.026167117652706302, 0.026439543330896223, -0.0021803045839714932, -0.041161624452426354, 0.027060281108211653, 0.036277239325947175, -0.01611491549106745, -0.001827038289883716, -0.02135734799168215, -0.0077710601977057925, 0.020631285911193842, 0.027957953910779265, 0.0012690482336166309, -0.00012207428957804824, 0.00795534952677702, -0.04267725797633816, 0.036747356484656726, 0.030399905987416043, -0.005525174715943461, -0.025862677364203966, -0.04370880823304373, -0.04286945045168223, 0.018971212339524497, 0.009994221334243391, 0.011891743093039385, -0.04386228118148134, -0.033598762050491726, 0.007333538994684387, -0.028180041339185644, -0.03908429047398354, -0.01642253693923862, 0.02502616687678946, 0.01629309311737275], [0.0297495874061658, 0.024746117566511128, -0.034372957665558666, 0.029568752668370932, -0.023174679064975286, -0.03487779061401753, 0.009842370635184288, -0.023051959313030078, -0.028277726949030215, 0.0002839632841666015, -0.006661036889346849, -0.021788935987292805, 0.0060758443293443725, 0.004101872770014654, 0.034068619336738847, 0.021804297405916842, 0.017774502176889168, 0.042768945804295716, -0.030832504209649298, 0.007978009800194669, 0.03182315005984195, 0.042592694353677886, -0.03105471276593207, 0.025819879849730738, -0.023437168345061384, 0.03748899790825827, 0.01253227501058625, 0.037523529597327486, -0.03760982294057107, 0.025404981043148228, 0.030725592439365994, 0.040211849162158794, 0.026042695077317168, 0.01053473885440244, -0.01482691823118741, 0.04299753641197967, 0.04142498008718352, -0.04394047982029184, -0.0008751773629793472, 0.012191444449665773, 0.004641358279252175, 0.023072054147023003, -0.023616578995789825, 0.024244564781576917, 0.0009516679934955396, 0.02793864703175998, -0.0321230634538832, -0.04337463304698214, 0.029010854508472336, -0.026496540132832213, -0.0410937801775202, 0.029493540085077062, -0.03608682957967279, 0.020612554623384308, -0.009334744469224247, -0.01842755015482786, -0.006009174207394681, 0.012204361135179044, -0.02382757226906406, 0.04002645463218008, 0.011814741231326534, -0.017040638679950936, 0.04018858826138273, -0.02551290722063633, -0.029318158630801755, 0.009180075489745178, -0.005154281873141863, -0.01836454897463051, -0.015317911648666704, 0.006701836040749771, -0.03937413860858326, -0.04001392915858173, -0.009351054933615993, -0.003304198945641734, 0.023287314169526854, -0.003664764415144136, 0.008111254311076729, -0.04180516679971865, 0.012822803561325109, -0.017038869357899236, 0.021165982423431463, 0.0040110278046431354, 0.025071881336002275, 0.011790854133255372, -0.02706726005927694, 0.019748796749318488, -0.025218232958820915, -0.010946776654227804, -0.04372490454606984, 0.04140237996732435, 0.00797026387259151, -0.02309714260161875, 0.02889978215724762, 0.014521393696569622, 0.0012865116188500883, -0.024518120495096798, -0.025833799950920947, 0.013021306154313048, 0.006710079587364128, 0.02523184589155452, -0.04338802432561761, 0.03896798372098452, -0.03917840389422181, 0.020826808271694284, 0.003293038790942345, -0.038623887612769435, -0.028806065044755084, 0.007295455714598608, 0.041463006883874, -0.017938015874013155, 0.020934538963156248, 0.003112104816845699, 0.009087806827478706, 0.023045903985303408, 0.0011305310530838866, -0.02514156226919748, -0.01175058800533283, -0.011446242397563013, 0.008936050666151472, 0.012606805235772567, -0.03399216081682673, -0.021740486736221212, 0.021538250884187315, 0.02639399279894697, -0.04144942602496974, 0.03603589744308362, -0.028465967255095016, 0.006692554801224564, -0.04296596951428722, 0.013439829832790899, 0.04416167777407561, -0.03532767729286668, 0.034313995596804404, 0.014159899933819607, 0.008505293192378718, 0.007656764349444346, 0.024276602311617514, -0.007239256415722441, -0.02439875500074665, -0.03552143757857148, 0.04237028951913975, -0.035053792245186524, 0.01181444553538803, -0.03715184996633441], [0.03642198868018266, 0.0339790698729596, 0.03170867362761165, -0.04111441406427806, -0.04103783786370432, 0.03993996299293576, 0.02998569403289581, -0.012475859961838668, 0.018113053271652198, -0.0346801967102514, 0.009693939216911902, -0.04202293338022008, 0.0055203670299975305, -0.015460550181589134, 0.009482266779393815, -0.008692855651522748, 0.04375304805439309, 0.02339205116256386, 0.013280031740881262, -0.020970939312313884, 0.009630620433841594, -0.027231395342986846, -0.03264109075387395, 0.03433382253872621, -0.043746473485251874, -0.01407952027796689, 0.023538931191031523, 0.006373746141948994, 0.020418854419665164, 0.010950493057803087, -0.006621608919353065, 0.040903920751643126, -0.020558375980817407, -0.025242231484461364, -0.03948364693736449, 0.022884630754322073, 0.030844007390834618, -0.03554955615205965, -0.015091044988976886, -0.01264154196833556, 0.015278021435557149, -0.03533198569338693, -0.03673698843900689, -0.020586627382491136, 0.03652484645613237, 0.027732396344710267, 0.04215717627217825, 0.04055595693438689, -0.011778184918897488, -0.03546979713121724, -0.04169785551193152, 0.015967484046840372, -0.0395677671195674, -0.02997617046745665, -0.013778693197965082, 0.04377321920037957, -0.014559231782242693, -0.0270731257597064, 0.037812327849602624, 0.01847433094749321, 0.018150585433641217, 0.009652580261062263, -0.017465802727266375, -0.042269350774425986, -0.023398959934156707, -0.017726871249126638, 0.035190202932161026, 0.006217092511496662, 0.02497916965145324, 0.04282029321879662, 0.04225948073288011, -0.015762647118966775, -0.019489580686944844, 0.04419735732705389, 0.033940812221526354, -0.0313215279728279, 0.013441872710503126, 0.031346537865530474, 0.024275949574724558, 0.027162330128464834, -0.003501205774290455, -0.032365216812781476, 0.022944170468902306, 0.02445723562761516, -0.027288152902924252, -0.006928987709670693, 0.033175315149804555, -0.01257378383050006, -0.036676560082836755, 0.013929250233978807, 0.009487765785507554, -0.018921057034815305, 0.022237650849448624, -0.01811604103275108, -0.014904169452304172, 0.03145725593829783, -0.0003270896957853142, -0.02248821756338943, -0.03169973241655424, 0.00441524015630955, 0.011566195303815436, 0.013478892876212515, -0.03275832500046934, -0.013893078798138083, 0.022159842477028284, 0.03395606092301094, -0.041500290477743486, -0.03549457318607455, -0.029323214420086223, 0.01740493087630236, -0.03648619759714876, 0.02923882640807548, -0.03258913433395008, -0.013810599464060826, 0.040422124750552554, -0.017909287280000373, -0.004773806382753547, -0.021211384081455006, 0.027487123400283885, 0.004812550288434184, -0.004412041062824511, 0.00276933200651409, -0.02620107014283404, -0.04265101858399098, 0.004423134681301431, -0.014637528702403967, -0.03357023405379131, -0.03437891754963031, 0.03258411210048171, -0.029220989117620774, 0.01800036516834596, -0.015126762028577207, -0.018709291894915343, 0.02244097197323038, -0.034992913682555686, 0.001783175368567385, -0.0009628372330411009, 0.026675572018472808, 0.0196194588275721, 0.028264021379721272, -0.023152183142431927, 0.02638225224870637, -0.020621985102393253, -0.023140071107947795], [0.028093110281147506, 0.03131829808010404, -0.02997286138080581, -0.03743964743773176, 0.03983949759817649, 0.014958027453026018, 0.01920277131574326, 0.0001392620081706041, -0.03051127010549945, 0.03495458665077988, -0.01267982101319124, 0.041717094229080744, 0.004687591619856066, -0.031084800498936742, 0.014246841106456708, 0.0013671596944054758, 0.031660184492121754, -0.003957856719612558, 0.0026075253444170277, 0.043464031470118285, 0.013615938994444767, -0.013572535593751855, -0.006345217409707911, -0.03100116542545692, 0.03169441763626539, 0.019159144808677118, -0.0220892971230222, -0.02757382885370935, -0.04265812566838185, -0.0008490556738970058, -0.006575706955103201, -0.02355922143469942, 0.024371900446312534, -0.0077091275001360095, 0.018096337637231393, -0.0008382078512610719, -0.01739724903723709, -0.03671850372236868, -0.038058545425953744, 0.03990045699394483, -0.01790336013152329, 0.013567099408777681, -0.03223788857316915, -0.008394933467196752, 0.022459646868885644, 0.0394835300758341, -0.03592657230349276, 0.01618217663943924, -0.0042335805188443145, 0.02324579760019359, -0.001964488104367543, 0.012741634763680112, 0.007918478890479887, -0.039254564748188475, 0.010856495040649377, -0.03845001057790935, -0.039703252832776224, -0.017582203272796602, 0.015028730669854676, 0.01936383212107762, -0.004235751291670963, 0.04219785493134569, -0.022409347587210207, 0.01782537954412692, -0.0004886608434710246, -0.03439243225721081, 0.02356907454344475, -0.03783629763654593, -0.03071269686273272, 0.02191996449222483, 0.017850795995330123, -0.015050919246396854, -0.04027412961464309, -0.02035641280592534, -0.020194806377570523, 0.01646713084525355, 0.011350759570745514, 0.034412739489834344, 0.0318047348320755, -0.0037311825539299843, 0.0034155718112670336, -0.006024473890138208, -0.03532315802983569, 0.015209371201344414, -0.012359322889128601, -0.006360617483569014, -0.03868182156478229, 0.04145377050185004, 0.037709995136225874, 0.04425671781829714, -0.010391531171289646, 0.008928384240973045, 0.023209497792039496, -0.009404965462943093, 0.028449797080468877, -0.03467788740997858, 0.03717638261759813, 0.027768381173033853, -0.004199214732245265, -0.04243893705617044, 0.03513332531276824, 0.02541644442762244, 0.00533847406425592, -0.010843280408027543, 0.04298288785759685, 0.02446089347821052, 0.024641887942138164, -0.017496445229632496, 0.03614788724529909, 0.008142681127722371, 0.0006921671712498507, 0.025056993272363114, 0.013379482321980322, -0.03806800293265186, 0.024703627469088607, 0.011296655939463818, -0.028620711404600728, -0.021834425086101235, 0.041397843427890005, 0.03982900580407354, -0.006450343870113804, 0.02718806792091526, 0.036489836139530836, 0.0021485762695915133, -0.0334966857882574, 0.007027755908612274, 0.03140389747520459, -0.00981688225206914, 0.003787281430693188, -0.03421920397897296, 0.036422853246980656, 0.0064800342509609525, -0.020417037645940314, 0.007135322573355614, -0.033180905629660126, -0.01877014318891175, -0.03042235524035207, -0.007768883011308281, 0.0247770118746036, 0.032830021337056835, 0.009951963735444918, 0.017694014388912986, 0.032205939642598005, 0.010051379396046459], [-0.03693327077420995, 0.004697777098788487, -0.024311046787462508, -0.004340591266378192, 0.04380182317755034, 0.03999439963111546, -0.02955377100790278, 0.023470866791365355, 0.00028134052219611316, 0.011379672447784072, 0.006320981697675335, -0.03310782920134686, 0.017632196732710322, 0.025858433741143026, 0.03694530432709941, 0.032313973088987244, 0.020848172856047273, 0.0038918787427550737, -0.015198705179588021, -0.039185973015498886, -0.0035620842662511506, 0.008624719639091578, 0.004239857442650465, 0.040516904512205444, -0.041917746878330865, -0.037214382709440705, -0.030123276260079, -0.008225116351226823, 0.028704737563510288, -0.03833319288985072, 0.012729232158888335, 0.015061331069761607, 0.04268818312208875, 0.030832127394980334, 0.030153312360367553, 0.017018018608087406, 0.018591434699412306, 0.014776138754659983, -0.03757160238290706, 0.0429711122999799, 0.042860926257499446, -0.01319145882858534, -0.02308834289061679, 0.015905011956475746, 0.015148265685908878, 0.023468439643178126, 0.0020362405735214555, -0.01429184049456354, 0.037968283916030424, -0.005471325378334134, -0.006601124825124334, 0.023464877265172563, 0.03504830801044212, 0.028889937974026506, -0.04046285982944256, 0.00011097077322831187, 0.011687601947743084, 0.005160459625481073, -0.02583596724222838, -0.014336076028678243, -0.018381114724059854, -0.01221680037777996, -0.027606293772278766, -0.016785522781445905, 0.013333365010794107, 0.023599357699272593, -0.040611237370843406, 0.037460908253296114, 0.009967825946941447, -0.010619396137686199, 0.01912292432714875, -0.009506949009660894, -0.00923755598591532, 0.0039608912510725935, 0.01602942839046941, 0.030475191765507368, 0.043702859922326025, -0.04158572905129085, -0.025803524979655382, 0.035202911184670775, 0.020246664917908934, 0.027731970899197596, 0.0434515164672792, -0.027893653829149444, 0.025637471779715735, -0.010469928842344402, -0.001674303819692681, 0.014732497780652627, 0.017099463716641932, 0.003005651107520379, -0.002004166457426956, -0.005398540507741761, -0.019038657383052264, -0.021640146234322113, 0.02455144949826479, -0.0018786187302796222, 0.008520025097892228, -0.043670927908941816, 0.031156276229576552, -0.002771982809941938, 0.021363265494691353, -0.032308391851254385, -0.033121839737558306, -0.000850397460457486, -0.02593205824307848, -0.02937894448132286, -0.010984660463567462, -0.007740397880646598, 0.01006118530399026, -0.024890058819628257, 0.03263861284567818, -0.04106029969386066, 0.03930500093398031, -0.026005076092508454, 0.02100180531683093, 0.039117592184747876, 0.02212777894975295, -0.035472072637492594, -0.021266194091230862, -0.03991233481569362, 0.0017346726551168714, 0.0303157064271721, 0.03965297263672212, 0.016409705519810754, -0.008381865131360414, 0.030317678955948495, -0.0011612196799093133, 0.02261153560210551, -0.0426046086820971, -0.01434410171045841, -0.0189306139761527, 0.025574766962284206, 0.027855924990006966, -0.012810611666503918, 0.018500594966017053, -0.03647509213303448, 0.0397089205367694, 0.001278983331499758, 0.018231699484030955, -0.029773455916870212, -0.006772252954720161, -0.0007645735671645994, 0.04179972435356061, -0.02789912313231087], [-0.02033658132345444, 0.009950210669037823, -0.03332514358924408, 0.009067686151699925, -0.036556410655992466, 0.020268873189623397, -0.03714144879789928, -0.01114751843333613, -0.04058980923651136, -0.004011666820074401, 0.038872435543272986, -0.02128258962301994, 0.014176819923383864, -0.016878993035279947, 0.005980230355290473, -0.03286283132857893, 0.009225899892253132, 0.010348568216575035, 0.011894151113120621, -0.028055951681584257, 0.024543568255588746, 0.022390934041692238, -0.03330987066330671, -0.0007367473025057276, 0.0335325556914573, 0.010737390322721717, -0.012149906588904887, -0.04163021134927572, -0.0010807138530694428, 0.04238570697916418, 0.01707768861454737, 0.011267557350469196, -0.023911694748234853, -0.0367673110031114, 0.02742596901638054, -0.0368264332884187, -0.02954030409466266, 0.029934183254316134, -0.017818299946762314, 0.04196739015760125, -0.018654586180723923, 0.018158577886041475, -0.007393231623868358, 0.029841969756179452, 0.030557295058616856, 0.035976030534227425, -0.017950022818625337, 0.030251551401511326, 0.029063238463105483, -0.02530205192850951, -0.04009370457016658, -0.002462321390711196, 0.0025535369951824073, -0.005454909669528761, -0.02710100041311075, -0.04005984287014336, 0.012591385740396047, -0.00561794778719613, -0.03820445078733751, 0.015859243434239608, 0.03516841557351316, 0.019467956498441786, -0.023973710926256102, 0.03740210379210701, 0.040578089335847015, -0.0038051948134550464, 0.021811089537670095, 0.025356061528970793, -0.021374953047404263, -0.03207834828898428, -0.031012022090069893, -0.03822216636153712, 0.033320282635599364, -0.0424728386980693, -0.042367810180634825, 0.042156006158169154, 0.03566014499177323, 0.0008015977827588986, 0.006747370102662566, 0.007203692401852434, -0.023708186550096478, -0.0051397396163688795, -0.028864888222015918, -0.01824811834181134, 0.041644129517519016, -0.0240491925269524, 0.028566910426218166, -0.0282393713036884, 0.02574474564399744, 0.031191760779022106, 0.03594833615555, -0.004646415476449197, -0.014382814994055445, -0.0014148692824609503, -0.010299876868143976, -0.004974903210620701, -0.025775787978604164, 0.02957738897105957, -0.03263110077472473, 0.019557085108793126, -0.027775097193409294, 0.016081841353819352, -0.011710158687010518, -0.00043157357501221296, 0.006598905257163554, 0.0351961734447036, -0.018615252951372178, -0.040806690687064336, -0.03556097629413947, -0.018716245036470545, -0.04043873583665495, -0.0418197936732237, 0.034181702881909796, 0.030635383747731126, 0.012911107526152318, 0.01156120723518672, 0.03825381584950489, -0.043660087156833643, -0.013387455310901292, -0.040824690096160764, -0.040718279550735384, 0.022773668459119073, 0.026866643839807546, -0.04290982402058985, -0.020212378562208342, 0.010098966236497767, -0.01751703551751478, -0.025531721840911716, 0.024940241084343343, -0.04072362364746531, -0.035984977554392915, 0.026223256006623296, 0.008900278402162799, 0.0011662961101812262, -0.01688981684139826, 0.016284945917285805, -0.01438965859939294, 0.012338205225373893, 0.008240489804330469, 0.04022596751701792, 0.032038030073503275, -0.027346341070965063, 0.012340710013513593, -0.011363369549709436], [-0.02569848568753223, 0.039359671116863074, -0.025505248366958035, 0.018414117813198624, 0.02162923344284694, 0.014130414792832318, 0.03471991180651339, 0.03699069827452659, 0.019812601644149764, -0.011437865278269078, 0.002582451040806587, -0.020367464592078024, 0.023391779213379694, -0.04379709171561647, 0.04081220123505358, 0.024924540345962806, -0.024122635555259623, 0.03617614277555551, -0.0021113702838129983, 0.034514208094366595, -0.011108875622315835, 0.04187025171747205, 0.039237494578716836, 0.028006559146423315, 0.02274169516247527, 0.038534947768832435, 0.006380004552968259, -0.04192149134351933, -0.03771712291015101, -0.03229632072552835, 0.034643424593987344, 0.0067417025426359765, -0.04403684711612759, 0.005176299781753849, -0.009473448023933425, -0.008630236860581748, 0.0013568158789805068, 0.026031404826857448, 0.03536937978393538, 0.005663165600704557, 0.008212248821371254, 0.01118159991857145, 0.02156487618953332, -0.03344674354501647, -0.005586894313032179, -0.035968310695190076, 0.0030793033711892575, 0.005908531096334716, 0.020696856955585218, -0.014843359605321297, 0.027391965110668118, -0.021609039446758814, 0.032425256313593775, -0.018125349806059093, -0.0022585103679601463, -0.034846288765185765, -0.037306849671412304, -0.0024881731678482936, 0.04260107273947605, -0.021152489515410048, 0.03653774791092531, -0.03748122992114458, -0.04182302669201811, 0.004381124979464698, -0.026982524599748994, -0.028235519797795375, 0.009534391198315117, 0.01791640540205812, -0.0010784097204901146, 0.01642306834551931, 0.0414739003987218, 0.023993030123372495, 0.032075352044981506, -0.006721660750739459, -0.006266894386060604, 0.01501112304776631, 0.028583656097630746, -0.031230628295085435, -0.038031959108427604, 0.019629148578181987, -0.018450919572735414, -0.02232179351183816, 0.04205063349812812, -0.026414107212391756, -0.0007324758435109906, 0.029635627566429963, -0.041482411342342825, -0.021827993438818614, -0.011147265672043938, 0.04187961726578958, -0.02406484989198003, 0.01710114018455295, 0.026893456166388514, 0.03953527177047613, 0.04105770680009091, 0.027847800314296043, 0.04316822116952063, 0.041690585130496824, -0.021002508274795894, -0.006995725964319617, 0.0325785501370643, 0.011332911764252279, -0.04378588504898275, -0.03196932499298659, 0.004797425223189038, 0.018896282408746457, 0.03881296885183733, -0.002493590937038302, 0.011166886547583061, 0.0020322544708748255, -0.0245392368611356, 0.014573255769763982, 0.01679529961268342, -0.03902930659115017, 0.008972839856575883, -0.0013447428778627108, 0.009588561232877737, -0.04223038494952032, 0.0004787423996526825, 0.03978489124491586, 0.006723970073326418, 0.027989790444155633, 0.015143152553818361, -0.0046042012635970075, 0.01942001695164708, 0.03401096939690728, -0.008255322796538418, 0.010378091486492899, 0.02465278839571776, -0.0018456689025269483, -0.016714623220733985, 0.03549396672533061, -0.020181744404905902, 0.0030255291982669583, -0.03365362294351253, -0.03077519998253384, 0.03800238156934059, -0.01643058727930433, 0.029430180447075023, 0.03798892329395725, 0.03471128413928691, -0.03324481571831195, -0.03883680690328466, -0.007295570819722187], [-0.03987027918440979, -0.005258829034449113, -0.004584195320874619, -0.01318867092988426, -0.015365450094020345, -0.0013914804430183055, 0.006504653632192897, -0.0390285990063, 0.029939175254134656, -0.026738796138052027, -0.027852927895587073, -0.006434983499391206, -0.028893827995512687, 0.03711420338021424, -0.0017945859245920017, 9.983773881918392e-05, 0.02858416281339638, 0.010856965342812124, 0.017828375569996523, -0.025952447772887938, 0.03886611741573409, 0.04240765017545276, -0.009713248871419545, -0.026968469421143434, -0.011500716686708478, -0.015994400783635405, 0.021193496979906894, 0.02036878536334388, 0.033367640777750805, -0.028837448725083783, 0.017833289066188265, -0.028158061147904236, 0.02910817594352909, 0.005668804488686403, -0.007660491020834398, 0.011671373646700236, -0.043048555644793124, 0.03615981980330334, 0.04206553491298053, -0.003401740863684605, 0.010703147956286872, 0.0308940892203637, 0.014573839187513399, 0.04423912590663936, -0.0030612688193393605, -0.035671984456366004, 0.008645079701256796, -0.011800908823065637, 0.006265990633954562, -0.03536478885992484, -0.023468156181239954, -0.014737603999760063, 0.04224084455460808, 0.019178670037404987, 0.007880724504270764, -0.04118611204018192, -0.0038188606119249147, 0.03704713977207829, -0.03091449183344832, -0.005926389874972571, 0.044053930596292104, -0.041059028331571906, 0.0085253176897893, 0.03860648973040466, -0.021344405407545647, -0.000485833979670652, -0.014060037518106274, -0.028435975485614523, -0.02645317544068894, -0.02447934214835926, -0.0005942588594018474, 0.0059526891200469, 0.027702727312629113, 0.023790170332669103, 0.000797914339849449, -0.03039658369745569, 0.01734095388732952, 0.0008203199542048291, -0.011691624964638967, 0.03507780848758058, -0.0023012956871096, 0.027022672229959126, 0.043036076493967027, -0.014023687272957058, 0.03793855528435927, -0.015076578009836434, 0.020645999031448026, -0.029397399157625917, -0.027264074120638065, -0.03681389645544972, -0.033359819786621614, 0.005024590854963965, -0.0022222274195006025, -0.038004979114848146, 0.023816928145911576, 0.04184073351408449, 0.022855331988452895, 0.029442582995724758, 0.03092218572823351, 0.040133643594403606, -0.002085944811301909, -0.01442936105493647, -0.040478728176731454, 0.001060980352580885, -0.009263765883106798, -0.014237521455376264, -0.03944249797473013, 0.009655833720872661, 0.02927509391504609, 0.02707463802544685, -0.036338983517969235, 0.014718686120759791, -0.043474323260324625, -0.026004945913771203, -0.030727699595297215, -0.019366692942787655, -0.021773125700171793, -0.023205699357676173, -0.006225012729779927, -0.010704141806476332, -0.030005766728543277, 0.035863220959034194, 0.009507697225282476, -0.031408670856104, -0.03792888224942506, 0.013530707580576853, -0.02034471984744246, -0.023119771449876193, -0.020870711751610975, 0.027440216546439647, 0.03891451662760074, 0.037124561722652986, -0.02466941120498986, 0.0003802168068706348, 0.01930237406474899, -0.02218446887524421, -0.03409702313699953, -0.04101991624564888, -0.03254616780529288, -0.029896427527274696, -0.03285466306132557, 0.007300920717136675, -0.0052063109053559235, -0.01715792672910009], [-0.035615015354900886, -0.012739368948740861, 0.0012364792557671195, 0.00877189076174058, -0.0009084281496228824, -0.02065197090262597, 0.03645468498879809, -0.0441435014151609, -0.0031310350127836777, -0.021162441432305265, 0.04032982683645404, 0.01376812320876335, -0.013422860725151546, -0.02410401018543516, -0.005698195431303295, -0.008556700524440958, -0.010062620439829539, 0.0340689960611708, 0.016871928489105778, -0.029886967472657747, -0.04070907797571271, 0.02467610985486524, 0.00028191665925477274, -0.006131033786305578, -0.03250984194364509, -0.026240755868981724, 0.036408770457570835, 0.03103021216871653, 0.03540192955856182, 0.03695169935748517, -0.01206191449397066, 0.0005334470723492228, 0.019993465310648093, -0.006921008827351206, -0.027249318711633705, 0.007556665970972181, -0.039497390548414585, 0.02541841180425712, -0.029423223829025954, 0.011604914409909023, -0.00646496149729738, 0.015564685368881469, 0.025386023947079703, 0.0266622434870459, 0.042859903851522524, -0.026034046284362417, 0.01529112316505041, -0.008997477302516694, 0.043698178292391386, 0.037250703998712255, -0.04198949651975839, 0.022550455835879276, -0.024541414766166607, -0.017248029758588555, 0.04236323485698823, 0.03230166896082081, -0.000913886786508978, 0.0016281291061327869, 0.033543285545392064, 0.02301801057479912, -0.023331580270037358, 0.031088018171536416, 0.009297452617462312, -0.002434761703819968, -0.002264081963133852, 0.031338594944370204, -0.0318164164680929, -0.03901530294879621, -0.03090816304153761, -0.0028375051219589028, 0.002815045810719143, 0.03729162790314049, -0.009649498750018696, 0.022469303977392815, -0.0007896067110121581, 0.01701207955027405, -0.0011834328152466186, -0.024016661353637416, 0.0011283080316158458, 0.012946977296824124, 0.0021468193174425105, 0.00539105086542404, 0.03526887105386423, -0.030486526779384248, 0.02533703710797818, 0.03401801059254737, 0.0023170188719659674, -0.03973170388776611, 0.03336777887487059, 0.013175323853523858, 0.003941648502631686, 0.006772362233259075, 0.009524762649914364, 0.021786279235963428, -0.035259204964887596, -0.02982157499732449, -0.013166178154184294, 0.028537603147689272, -0.0288701433288451, -0.004751172731026463, -0.03369376716684464, -0.017969206121908256, 0.02537967944851235, -0.02052285119854975, -0.01258744594103222, -0.019406357265078403, 0.002881822341759945, -0.007860927225981711, 0.01434165203034912, 0.006974655400486058, 0.012877539260244892, 0.029329700410438066, 0.0027359738551565645, -0.03719616789094564, -0.0319230345334985, 0.029765175240099525, 0.009207473263363802, -0.03638179283276163, -0.0019542410839564327, -0.02316969658899285, -0.011571703268829015, 0.018559404648062904, -0.0414475320339745, 0.01370985302913935, -0.01644268223017141, 0.010438982587310587, 0.003831441995909983, 0.04212540049898775, -0.029020106547173873, 0.004737339975565463, 0.004067789041425762, 0.028799467899995698, -0.040617639431227516, -0.03605840122143652, 0.008872683533506716, 0.03507111488920121, -0.00844454355370054, -0.03573379983576518, -0.005704198627544918, -0.019621156647685576, 0.005313873256128059, 0.021819181683687048, 0.01658243859182837, 0.008454629260354011], [-0.041808360535494415, 0.025663481172966945, 0.04153954532934751, -0.0273854712089103, -0.020589940712832405, -0.03674879826037953, 0.019694578907227415, -0.01791426120704636, 0.03215548638051527, 0.012111192897600154, 0.029823243628906364, 0.03483073889071957, -0.04072528911646442, 0.02202524577944625, -0.003221445289999918, 0.021227297926398235, -0.03722210629248833, 0.022512344773680124, -0.018016422128167436, -0.004403045618902927, 0.042772849209544904, 0.040985763142595645, -0.0412020979036702, 0.026534991062282638, 0.03631348871501947, 0.03322010288088457, 0.022833352797475684, 0.0410741285924865, 0.028333988889415358, 0.02246093612397909, -0.03181901208585151, 0.038165600448038225, 0.0035920848615068803, -0.0027792439204272807, 0.03748311014375107, -0.01690729979762143, 0.014510272748607672, 0.021651803313307696, 0.04367336118740307, 0.03526153884707211, -0.0005251264257182267, 0.004990514070633349, 0.020410552466972168, 0.02386474534797172, -0.012024694166202094, 0.028276811161433282, -0.028125336559481587, -0.030345013078864263, 0.017863027446397697, -0.013992530539290237, -0.007055253961716406, 0.0033098928280430816, -0.03778496574549196, 0.03172955637656722, -0.015408945427968635, -0.00928911180771138, -0.04413808248641388, 0.03091592629165026, -0.0030325140012454487, 0.018695044433525123, -0.012253908308982885, 0.02992648284233646, -0.03405773546849639, 0.006563023409809627, -0.002836020941429063, 0.030586447406665766, -0.04075051028459318, 0.0030025816115359367, 0.013942975010066111, -0.0239439957124755, 0.03301488257666067, -0.016825934968869825, -0.03346164759821992, -0.019531434052104488, 0.03753838782291465, -0.006065369002968891, 0.012768496057550639, 0.009012277981053161, 0.012980908664940687, 0.021510340926908386, -0.03545847891021201, 0.016440693226818324, 0.0051784730079316825, 0.043833978311507725, 0.026672856483864704, 0.007141896055254078, 0.03184917446490562, -0.03483179173652252, -0.012568535746827161, 0.023691293415240833, -0.04285823411161357, -0.04051521241428429, 0.01783011565772708, 0.03838811151966914, 0.043128922903020804, -0.031501922634299885, -0.009214824653431061, -0.016356314920079888, -0.03297091068428985, -0.01487546534664285, -0.0355685105592601, -0.04162597361855263, -0.008612652621799785, 0.013248533062650763, -0.017638227939333007, 0.04136230690182489, 0.03791896454227295, -0.04038066003513375, -0.031023543300166587, -0.03376961071630181, 0.0037240965281439727, 0.04010451669216103, 0.00466774749722174, -0.018773878021188014, 0.039543203584764805, 0.0354757273887715, 0.033893315044635275, 0.02611896307279307, -0.02176295083592885, -0.026525989031668078, 0.0404852344186002, 0.01985592553098478, -0.0011626198918398003, -0.0172193797446337, -0.03945777854263408, -0.021384371911568376, -0.006432927980043713, 0.036551736168213216, 0.010982096296171662, 0.010327569454087698, -0.024156230050139508, -0.017120069141684492, 0.026468549015970445, -0.04127575013887409, 0.034087979363222484, 0.019574475809664857, 0.03953816057361281, 0.011886438820015475, 0.032948666204664426, -0.009229570899110962, -0.00036057377255444744, -0.024458410335434125, 0.012574115669097245, 0.031275753158892604], [-0.03370371073698165, -0.016421308311404068, -0.03622735156487195, 0.018509339196397055, -0.001098148992298003, -0.014048817369662932, 0.0238678514161532, -0.029180216801408546, -0.0431537371893174, 0.015547344370339541, 0.005578146687135716, -0.005119472458466043, 0.024187951944871538, 0.014879082509890037, -0.03170263653433072, 0.021017523958619833, 0.037926292516255, 0.027763943540502465, -0.018668167051096807, -0.03231268709706694, -0.005449430273519397, -0.031054404496136077, -0.007330344982108266, -0.01791692917008747, -0.0009172067462841121, 0.0018913346575443117, -0.004590861524893413, -0.00011987414007785997, 0.008178455084191499, -0.035298039828344965, -0.03490362285134208, -0.03639845683125451, -0.03360172835011298, 0.028818983384030616, -0.011138897559606046, -0.0014048152580431723, 0.008342988759965895, -0.03359983448756309, 0.018910881097643703, -0.004031035375713514, -0.03134400941292635, 0.002352368810833887, -0.026168178014022877, 0.028945041333999173, -0.025800606690614472, 0.02959117632089179, -0.015573612899707781, -0.04334756054575186, 0.01470952066261021, -0.022601831557867196, -0.018882265164680247, 0.027373327475826173, 0.01344110758273436, -0.037052899746153965, 0.004825847182186981, 0.02210954123660909, -0.04394153089159907, 0.007334871362717448, -0.00518697398319031, -0.037939712843085116, 0.004697719487356067, -0.04251810375537857, -0.027757623345833433, -0.03457161225267004, 0.009713587143319316, -0.0258392269557422, 0.009270983469888886, 0.025940546484720686, 0.013343583253733676, 0.006110232555423983, 0.004405331556037359, -0.027340779992206594, 0.03872989203652316, 0.029007211451694714, 0.03906081823119933, -0.012883970392762708, 0.04318261939795868, 0.021293026999143913, -0.038707205909249004, 0.020363135954286696, 0.01847828990917399, -0.004191657638078133, 0.011393057563077428, -0.0175995555418337, 0.03042913226478087, 0.013571010467023427, -0.04266473475827771, 0.016316220268059404, 0.04178439929807938, 0.023386306570897943, 0.027572655627652518, 0.027950167279048574, 0.026533793398835992, -0.026338718964816578, 0.033146701367715345, -0.03668267214532582, -0.015294163770416433, -0.022146202415236377, 0.01952278578432193, 0.022709946654288746, -0.006218069075801979, 0.00886642809075248, 0.01136031088963925, 0.035606554448247556, -0.04178583294431558, 0.001394313820328502, 0.024158175314628275, 0.0036859694132332084, 0.0034945579512620623, 0.00885114524384154, 0.04086113679536379, 0.043475193773920076, -0.030224862889343534, 0.023383129909163816, 0.0015794069369529098, -0.02529386051029064, 0.034134210481601035, 0.009433203883554545, 0.005276826392212112, -0.03125332205793757, -0.044108010231515, 0.016355963423823602, -0.024195052456567875, -0.0050024577403060145, -0.013510033248476324, 0.014696330386601371, 0.02532550472681675, -0.027258424853603008, -0.008460789477898334, 0.0014009114687902214, -0.02785692681628742, -0.03385865693652421, -0.00844947722927908, 0.04337440810343015, -0.034053559391707636, -0.03960799241883999, 0.024157529054310456, -0.012592536507092932, 0.03816252601148205, 0.012381630164336353, 0.03233040119410893, -0.001756743670760819, -0.028479627170028814, -0.02888457462355073], [-0.017707703588798137, 0.008878419636778056, 0.005125298535040732, 0.03868267258161091, 0.016732856757323337, -0.039212083455623964, -0.03593397643991807, -0.037328136246656554, -0.011122662928982055, -0.004959796195611225, 0.027388928777717005, 0.014057209124871333, 0.008279161217765526, 0.027856219330550994, -0.0015354519919983781, 0.01976524521197247, -0.027586166274567316, 0.03003132943749071, -0.001020642625109182, 0.024241546193676584, -0.03717409149684679, 0.014857463334808864, 0.016216253396204885, 0.02801843703356972, -0.013580151073149775, 0.01125441600643181, -0.0354816287480482, -0.020035574340994906, 0.006877080086042194, 0.005719151014405852, -0.004596720743273074, -0.02367079216109124, -0.02611801854937375, 0.03073251307789965, -0.005248848312235576, -0.012750152065631237, 0.024742952400309146, -0.03850182178284482, 0.03353051100331101, -0.01805311114525336, 0.029849888020752884, -0.04306582135715551, 0.0016754697723312248, -0.004279905459633086, 0.04011422207097539, -0.037804632775463934, -0.03376077054219604, -0.021838623877499425, -0.035995213931861086, -0.008360945656270026, 0.018570435424377474, -0.035411738653380584, 0.015097508658267313, -0.027292598492267294, -0.01367940392456104, -0.03456615329690732, 0.037677921917718196, 0.03307462285634726, 0.03140091493637718, 0.044258189428136946, -0.013722431134767914, -0.027137218213232513, 0.027377369685075384, 0.014397464058916625, -0.01981662824018767, -0.036802840985747376, -0.04245398879566641, -0.018505195768220354, 0.02013658458334815, 0.03571274671877948, 0.031269990436247584, 0.010618203242703631, -0.006634368852954731, -0.03021787722679528, -0.0031132147672179224, -0.0006324711739899107, 0.04026802971409183, -0.011640677132701326, -0.024133079822796874, -0.016791536263665897, 0.003463541642411258, 0.011817599986212722, 0.0020726185864988374, -0.011473861577885278, -0.012788359930030644, -0.03754839643914168, -0.04295737170938722, -0.025507276721236483, 0.021480109835207446, -0.02943208503348644, 0.014771758461099242, -0.027403987373404572, -0.028330190857454945, -0.040775701101538546, 0.04326899637113088, -0.013623350089057632, -0.012288447140956161, 0.03772403136484911, 0.027017897200827364, 0.03215958822610641, -0.03437146209186778, 0.010930706137880216, -0.020544045494025925, 0.04163909316492519, -0.0316328702134156, -0.03824141903038254, 0.04040227057983132, -0.007225943304414593, 0.04396029842159261, -0.02234990892353826, -0.025628516566337974, 0.026869694347241915, -0.02278055415758072, -0.030870496787047785, 0.0029375535066724526, 0.0292044640472559, 0.012898504593301151, -0.019270604875092606, -0.036389947309577286, -0.031161791991960668, -0.04150064720393971, -0.025334951012330017, 0.02779454771954297, 0.02918895715950266, -0.03512473918337347, 0.0019799590193085256, 0.010602115137797312, 0.03690808554735122, 0.006269678800278282, -0.008465032310860762, -0.014032835235957778, -0.003743254863099041, -0.03836416047383649, 0.008436079309338648, -0.04091327906344353, -0.028979282299665152, -0.01956825726230797, 0.0362043292394361, -0.03377467700951463, 0.01035497840185129, -0.00433685304255948, 0.02601822736303443, 0.007537870113158721, 0.04189626969790598], [-0.011182741436582155, 0.04387797561759012, -0.04229237199383454, -0.00023394503836222304, 0.03464436763963056, 0.023772308216578976, 0.024068177034713364, 0.024447207738079936, -0.030853395076935082, 0.018829020103822487, 0.01500570332014476, -0.030088593216159476, 0.039191795132005935, -0.007362544502305312, -0.038266129498930976, -0.02777041700562274, 0.025600729535553562, -0.014467444448916178, -0.02787905923439723, 0.005664232362901644, -0.0247524255753723, -0.04301426593708343, -0.03190688864828759, -0.014816441288079185, -0.019488978191776404, -0.019083428230220377, -0.02791239826948441, -0.016264347236827997, -0.013921191803296323, 0.001477252039006751, -0.0048319982218819465, 0.016441308439732245, -0.006487550414867608, -0.024361639889234114, 0.019469584912087102, 0.006885817598923475, -0.019905702609810717, -0.014407563025331636, -0.012073260567439776, 0.04178373195821823, 0.04192429096130504, 0.029026395623330703, -0.025906203990974274, 0.020791769496902427, -0.013994757795965635, -0.0003781521117298766, -0.013236630687064597, 0.027450467561053588, 0.004727490137465915, -0.024416850550689227, -0.040610323326246665, 0.008272377278219313, -0.03134101545500769, -0.029233775407879112, 0.022811028380948423, 0.03246865325526603, -0.04194447808428086, 0.008064769632641796, 0.022566853877123642, 0.0375913468058331, -0.003921368332166683, 0.0006623228967626729, -0.029724500352255774, -0.01885764360244828, -0.022994534169706142, -0.02110915613452876, 0.038309266788650896, -0.006873291962738565, -0.024273751575678966, 0.013444808000041927, 0.02588438555472272, 0.01127412912940222, -0.0366078654956167, 0.02567570406938618, 0.033513676327486634, -0.031872570047762, 0.012522091731805032, -0.033033399982152524, -0.02466321435437994, -0.012973086438662608, 0.0019123822537599122, 0.029130959805467472, -0.03400289820823173, -0.029374404838894315, -0.005714454769699915, -0.023166392282588055, -0.03604134851926646, -0.024139594925650557, -0.039155654589808304, 0.024082310613296628, -0.029003459305431786, -0.022238724378844478, 0.01366810292039574, 0.0017315573735097634, 0.00457471203424577, 0.0005143759556081606, 0.020430682233334902, -0.001662159320112434, 0.031020577871696087, -0.022746734680524416, 0.0262609346956315, -0.03817189626417697, -0.0037606040407558343, -0.024863484080967137, 0.009980231605278835, -0.004146440268086903, 0.04423519568656884, -0.03187545115372733, -0.008038854068850267, 0.009110155738661552, -0.011674056312364522, -0.0059373774439991055, 0.025753547820175388, 0.005138574236560687, -0.021543711733297673, 0.0021155931221569463, 0.023376293258612534, -0.002577518649153468, -0.0005732559094820788, -0.024595237662037396, -0.041340150497959714, 0.03231426040741617, 0.003167059628306291, 0.017252670158146917, 0.0244997610809942, -0.011724866102389873, -0.03439834205388126, -0.009067314773612592, 0.04023422984420856, 0.0051409188812454225, -0.030418211825977422, 0.023437819489569824, -0.039315474387673015, 0.00741853696697671, -0.041601100749065374, 0.004916631391883974, 0.0401394817877588, -0.0426654426177593, 0.01731001982208649, -0.034039003161543346, 0.03974353158925367, -0.0384431774037528, 0.040628135544358616, 0.01148959602748845], [-0.03826888805876911, 0.036533080877763385, -0.022109024324926077, 0.030848053105710115, 0.038189714840518196, -0.0016077779133663432, -0.008185101534340378, 0.04343538946998607, 0.009510248173797692, -0.01568551560146205, -0.00922968446511332, -0.03308845635282171, -0.009415855145726952, -0.004346006331630098, 0.022745349606102614, -0.03280406151066138, -0.040279295348723945, 0.025765706401080595, 0.012666118689098982, 0.0261318142734326, -0.018064058533589864, -0.018740307650265884, 0.04119351247220727, 0.016836970404647288, 0.029522825540597715, -0.04319670935839848, 0.011961864766319065, -0.011659724899623655, -0.027199912206472384, 0.015149910212645324, -0.023765621956978497, 0.04387808589854622, 0.04302594440206394, 0.040550773791958476, 0.014306722122534815, -0.01240341666409705, -0.022278235631074138, 0.03985536891909634, -0.0034326412065002797, -0.03703497798452936, 0.011280429247902636, -0.02259827956114169, 0.022870101548281205, 0.03770157716447766, -0.043214620524663586, -0.038673765489828336, -0.03323821663869558, -0.007711106288492724, 0.02399545017104963, 0.007881481956464247, -0.011759765275022751, 0.012282614728272512, 0.02680442549958927, 0.025482584244058325, 0.00423721515394298, -0.024409790626010223, 0.00852038573964614, -0.02844184149963336, 0.031257373864226196, 0.0017031739175325132, -0.03314812735939869, 0.02986697557870532, 0.018788616575742878, -0.016284952858131477, -0.02104347179758796, -0.02912859338294993, -0.0250417191751995, -0.03240610278792391, 0.0350816114904432, -0.01424843219305008, 0.005361715145907472, -0.020364520281898092, -0.030885842502444524, 0.00023992901951013813, -0.030772009071610804, 0.03140215610215136, 0.006106483616650259, 0.011252186338708822, -0.023747330425814978, -0.03577708612272992, 0.03766721223483669, -0.009351651563912239, -0.0018611428641744977, -0.004402207361482301, 0.01750847560639545, 0.000655190275770049, 0.021322979193495125, 0.002448011807649426, 0.014045815705276297, 0.026119922080517707, -0.010504338667326658, 0.0236148253545457, 0.04040550466916365, -0.006836940428824587, -0.005399100466530722, -0.042484897154466766, 0.03878886509400434, -0.041577565730594825, 0.03581664822411105, 0.004355472563786463, -0.03030220365061796, -0.008132948915684075, 0.015336336436414655, 0.011243497174521812, 0.030095144092255197, 0.0302024183594895, 0.038848436984159435, -0.011283002432206214, 0.0027150083228697475, 0.019879369878798108, 0.025838965662835348, 0.009809965762738845, 0.006030842066018536, 0.014002588354076771, 0.03850237987438028, -0.01762031818722975, -0.02623029192086814, 0.02500393893751271, -0.005866186434972601, -0.022659324199107468, 0.03726713024470342, -0.015427457152141003, -0.006212976515168821, 0.005212045652286033, 0.022804624882768364, 0.014832465723504764, -0.008611594221094046, -0.019931565363359854, -0.014683125821806248, -0.010276849891022715, 0.002373458223970922, -0.022497650216595635, 0.024177639139062516, -0.03757490742550411, -0.01732061048073463, -0.012351899915065587, -0.008928665285727775, 0.03064372290771025, 0.02365256061797974, -0.029927256762560316, 0.034908472412500106, -0.014584873945999787, 0.00951995328979583, 0.0032039435015208456], [0.017820876039621722, -0.030161932498191147, 0.02467031900432519, 0.033071622501300295, -0.003854253449533148, 0.021203366742841713, -0.03124313933939631, 0.015528155074752534, -0.02715365604266419, 0.01820580080607814, 0.012500772636337414, 0.02447509200302102, -0.0008788894193605727, 0.011835408084164778, 0.0432696856016095, -0.0431426613103695, -0.026661498511655415, 0.012807606169271622, 0.011633042386501114, 0.0054820706793729185, 0.01803147551729063, 0.03558301436024833, 0.035783285811969476, 0.010289606213264435, 0.028672135443768648, 0.04020081231262907, 0.044090736253754564, 0.004168144751145508, 0.018802489711684345, 0.01126212994304692, 0.0068686274910399105, -0.028226050897613295, -0.0405656922953183, -0.015780640108331204, -0.043465361625259415, 0.02932831707843616, 0.03235973183674092, 0.021180203536832243, -0.03716282071652069, 0.04352055960603278, -0.019623442002974945, -0.015088981162987899, -0.0331827960837634, -0.022758302362416136, 0.015402575074955765, 0.0051773352816420004, 0.02942639335647981, 0.017127334199740437, -0.009492064859242743, 0.016196301382378202, 0.007744641118422961, -0.007384951299093593, -0.029198490206849892, -0.014824894847233346, 0.03698507806885825, 0.030526156650243746, -0.008461415809651391, 0.03943317191130543, -0.0014040627288208448, -0.030196495183655157, 0.028156829893227417, 0.034446095690585196, 0.0263738020617826, 0.03560003160475633, -0.02570784282876752, -0.016953447015427923, -0.000949406131999301, -0.014335461535800974, -0.011696340327736266, -0.020403081438282313, 0.03640011699828636, 0.03522427046958079, 0.0018619050064846425, -0.03723922395897907, 0.025193851135106728, 0.04006214868285324, -0.023861587497892134, 0.019879388415945914, -0.00518576167271564, 0.018869409465945737, 0.032195210997163985, 0.037806165774584226, -0.04139152619605838, 0.0026414400250380776, 0.03279579213242409, 0.04117321872112245, 0.03205561907982922, 0.022149378893857766, -0.0024935860768781387, -0.0014138108367393622, -0.014284958119856896, -0.00224548197641336, -0.024656621785700186, -0.012961223643734502, -0.017287249361416592, 0.006400531706091637, -0.03470196832468567, 0.03463078405133241, 0.0028491765602651365, -0.0004102628881042513, -0.015305365859718294, -0.005038049087869449, 0.021255701543014663, -0.028386434580033655, -0.010201687384758608, -0.006596674334261744, -0.00677518574444885, 0.01704095597378567, -0.02640498261419896, 0.01675803907689968, -0.025343411644684403, -0.03566043533714947, -0.026340947499920202, -0.03782351149467047, 0.03381646049668273, 0.02512004746421727, 0.004335427890615688, 0.02316136301722468, -0.012147178996509803, -0.021951790865981178, 0.005708568090793259, -0.028810463198276966, -0.029100778434690455, 0.04344753386782652, -0.03491719289203089, 0.008743026102030682, 0.004784684079562223, 0.0420495865599759, -0.029413235315532037, 0.014355943303204943, 0.040737069536770205, 0.022350601259303007, 0.010885308504923166, 0.012409363956117843, -0.033835826113750696, -0.031040201728985545, -0.03747008891753583, -0.003656632833284939, -0.016527298221188685, 0.020907013489107548, 0.02375463626345519, 0.03375879480806873, 0.03525649562041894, -0.035741193221098276], [-0.022088224688018573, -0.03160182218430403, -0.03624326476898028, -0.015925554597166568, 0.020081991442971094, -0.01622204433979969, -0.02520759609401518, -0.009017747681781476, -0.043747177752943706, -0.003071835837735994, -0.04035158905840281, -0.009895134682257382, 0.0004849080599276651, -0.04149498585023647, 0.0044656474585408725, -0.02782116192557716, 0.014373770584446634, 0.015869209743198127, 0.03922558420892375, -0.01016198120015303, -0.023251151344562272, 0.021003433525794417, 0.016199363499086916, -0.01224224861162563, 0.0318589330330441, -0.0027388089808360475, 0.03781774535965841, -0.010121845704532359, -0.015616628565638072, 0.00727471356345826, -0.04322181133437907, -0.009937324352787769, 0.01578450431089352, -0.01819001970868009, -0.012157970959489695, -0.03670090510667204, -0.027550651137857107, 0.00017890622614385624, -0.0064878001259373996, 0.03467532879774662, -0.023712760722638372, 0.00010335980307331305, 0.0008321284312045913, 0.013105493351799348, 0.014997643760792297, 0.03787689209319462, -4.2673711188314175e-05, 0.01869905194196478, 0.025819837322138453, -0.03647664408844822, -0.010856819697161325, -0.028690780925370665, -0.007226464513481514, -0.0211071275011034, -0.009679287352578198, -0.01292709742502373, 0.0013325610148228941, -0.014089561910693557, -0.039621012355241, -0.022526906548635966, 0.036793060074016684, -0.032463732410937945, 0.03504111841320643, 0.029270362199053476, 0.024201736921234354, 0.010662898606742072, 0.03082965081363587, -0.03539283916203795, -0.02585092006321325, -0.04061845135249602, -0.03722570234672112, 0.02989743486543562, 0.015129148293064994, 0.008557902448236902, 0.00256534723455969, -0.0384441615411199, 0.016033490396623433, 0.01526691191321729, -0.02750306249580455, 0.038019409924437475, 0.03186886449669897, -0.0177932917255425, -0.030625943019648563, 0.027379040382946522, -0.009704569501804304, -0.0013885125907474368, -0.025777066419240904, 0.02653357778121031, 0.014200342481606905, 0.029876904618674933, 0.002623402393146229, -0.025985460583948943, 0.00861838706945297, 0.02181030257968127, -0.033893793074692376, -0.023697400964683046, -0.008188242296661713, -0.03504866841308034, 0.020814047764542, -0.011932095008812487, -0.004043426316358764, 0.02061311744931444, -0.030644007808040344, -0.01493963352017592, -0.0038123555198248784, 0.03118520398246809, 0.021934898958679564, -0.008249668588003965, 0.04055354752725023, 0.009820296210256095, -0.022740809390730567, 0.025734604901908632, 0.03673701249265904, -0.03394686810989731, 0.03529145533870503, -0.0422985490091586, 0.003747159576618436, -0.016923067232661806, -0.03950993202858864, -0.041481516773235534, -0.017045123379323877, 0.018430422791869093, 0.006815057815379447, -0.0002885376386158018, -0.0011554694092157322, 0.018841637412443706, -0.015324258217549543, -0.0037026771616743533, -0.04131970777400223, -0.02833457525469457, -0.02446267898829618, 0.02760811342344704, 0.033270197625705454, 0.033530138128708746, 0.043245711073650064, 0.01402974758082894, -0.024939577041877693, -0.005239644790003951, 0.00426319010664963, -0.01676632301521431, 0.015752196648051466, -0.02885918250750341, -0.00508046327114955, -0.032984738756168426], [-0.017793952574103572, 0.016052080443473418, -0.021770755338223098, -0.02483728182605849, -0.01471622878062245, -0.018931568937845814, 0.031868240085587626, -0.03852941318293024, -0.032159906640347465, -0.015002112090136183, 0.023765197724784692, -0.03665588478437874, 0.010139194494793403, -0.012034139044856002, -0.011290109811222984, 0.03758824821352991, -0.014955281594178828, 0.0009590573772068759, 0.026226683231467283, -0.038252940556869786, -0.04268987301215169, -0.024684392968942596, -0.03673781565607356, 0.018741678584078693, 0.03598419231733367, -0.016297821977580663, -0.013341243916781861, 0.044012808255455615, -0.0075588867535449486, -0.013477728513477165, 0.036042487998852624, -0.01756976701247473, -0.022646158507036808, 0.025971168907259347, -0.03125478524792074, 0.0021299889067744973, -0.0342702012963987, 0.030006328465432587, -0.022461307763343347, 0.0019151396757162305, -0.013403897241118174, 0.006494476997789406, -0.008286830506176271, 0.011444456537760234, 0.0015620021199186911, 0.026553909345030595, -0.01766639383515789, 0.010760551008939113, -0.019631287314398817, 0.025060759937477868, -0.028052180472188663, -0.03271345388468369, 0.01596498455605094, -0.0033700837411875166, -0.02936951667539054, -0.014452087406873813, -0.006697760783084682, -0.034665850668905186, -0.017815467037676915, 0.040414888506935975, -0.02690431523000724, 0.030038138087899846, 0.04183607677261107, -0.023754469362882804, 0.0042429737349319666, -0.0023076602704967587, -0.012937130973229039, -0.02654265805378567, 0.02087133477678561, -0.02439214637259283, -0.003682055108213742, -0.004204025971537377, 0.023382455536729865, 0.00568964068118278, -0.017900359833910178, -0.02272054173116575, -0.01576471299219381, 0.03202849642658693, -0.013986174270912023, -0.0037658321951231713, -0.03310504068757493, -0.02613994585730853, -0.002746913198261075, 0.01353906159169329, 0.013103516818724884, -0.03133833848735948, 0.04182311237462835, 0.04169194017689635, 7.249998731137352e-06, -0.007619094711144537, 0.006110775186879669, -0.011214864635449134, -0.03469885480323903, -0.0016387169873393705, 0.031374219012978266, -0.0284658558338791, 0.027695851661203887, 0.04414043950902672, 0.01886953300611834, 0.01758000218633846, -0.03161358142526206, 0.022177172537498187, -0.02179241840777385, 0.012921721296054421, 0.004209289716151438, -0.023488389313084185, -0.040809237092583765, -0.021311106104459326, -0.03601861825224358, -0.0016473951388931234, -0.00230568758130903, 0.02744353325017124, 0.039612973610048285, -0.005898181502077217, -0.0377716251693313, -0.003552362668922565, -0.03560781004491508, -0.017627538257464263, 0.0390863832497576, -0.034749618274261436, -0.00946766617923616, 0.03069613461106405, 0.009339572104233862, -0.0033659346362827493, -0.04309491915284125, -0.04397022431551154, 0.0021595692692314883, 0.0021693852892595996, 0.029662729553395228, -0.042821884209199836, -0.040446197345490334, 0.002212939726731955, 0.0033508999320826056, 0.010373909091280706, 0.03305077296329757, 0.0336625586089024, 0.01966380387901049, 0.013230456005964135, -0.031080568137113896, 0.015117119721668834, 0.020116683449668393, -0.018532637734209913, 0.018554840725784796, 0.005186492288214452], [0.016066368046338892, -0.03474025581279421, -0.0025905182720992533, 0.03281179431301289, -0.028292915786822727, 0.042178642837918626, 0.00910133129804355, -0.004052698476807607, -0.009688086825732294, -0.03108571942739817, 0.0322438483071075, -0.03200807831836957, 0.01427884441115805, -0.030249479144015944, 0.038626173742629756, -0.041366256167286224, -0.02950495764441044, 0.01618313348416737, -0.01927434815163268, -0.030862862743079433, 0.012867160709936149, -0.027675161969047603, -0.030407480285274055, 0.041857145230650254, -0.03815615268395456, 0.009756344121498617, 0.03082020487159913, 0.038221201014955894, 0.021508431410536745, -0.015251540180574221, 0.008837288533176434, 0.03591349599905316, -0.006098098242114328, -0.015747871820804022, -0.01654230555156303, 0.0280792512156301, -0.003420752640610069, 0.02842567680005928, 0.04089613185824066, 0.015676140922492428, 0.027912967508084804, 0.015962831382673508, 0.03276134235398588, 0.031527026239311175, -0.04106357232748017, -0.004088547569274102, -0.025208581686605978, 0.013661002380705613, -0.001260374751832597, 0.019124077324173785, -0.030417285706160112, 0.015511592963647894, 0.01805903537035111, -0.004663148233153806, 0.04329297227884309, 0.02105939963102792, 0.015215129607053136, -0.002728911741747874, -0.01391895581631907, -0.03864917961498906, -0.03107596640014309, 0.038230085428655865, 0.007562315894460689, -0.0021236417237011107, -0.043185178506791884, -0.024474018630406637, 0.007936715035899584, -0.019054191977135777, 0.022812926055304193, -0.040998091614490646, -0.02925887016798149, -0.014737363839409691, -0.03949883796312795, -0.019985574743643965, -0.01036163146823954, 0.03194647887892027, 0.0013823647854369475, 0.029276802895661064, 0.042647698460141006, -0.04012138099418577, 0.004982274836291746, -0.014468927131787013, -0.013963086640622934, -0.013047452509268953, -0.014896066707480648, -0.03516399787851099, 0.023346770053036415, 0.03888171396085145, 0.005525873225885276, 0.022350618076984897, 0.028666152582171808, 0.006909970604754108, -0.009382662872164056, 0.026865082625299092, 0.019133056943770484, 0.03748696842809645, 0.036450162611017974, -0.04083650476983393, 0.012094140739697631, -0.012686017310437298, -0.038214593494040806, 0.043642297276404285, -0.03394247582280215, -0.003706358908445255, -0.03802960830183714, -0.010016626285573902, 0.001132531441898924, 0.03571174630280677, -0.023976556938255636, -0.026472429615210232, 0.015448922617235983, -0.020117405748623824, -0.02711022612371922, -0.030487998253588305, -0.01973415210732019, -0.02924489441261038, -0.01542211115441266, -0.03376823741540815, 0.016191848014279482, 0.016560391745184543, -0.02965729560533941, 0.015109074392941811, -0.02538621108678746, 0.03406648061078444, 0.025326698204001467, 0.002537152732786095, -0.02811491205518105, 0.01998185823195341, 0.025617930211203704, -0.02067275092661261, 0.0021757990740216815, 0.00715711675684404, -0.000544396580553753, -0.03978382782277398, -0.03925782739561903, 0.00835588922548857, 0.017044226074978363, -0.030171148489405247, 0.012897723793385725, -0.03043815834731844, 0.0048791778042035485, -0.010404416518535766, 0.03275130829377034, -0.014622225515521814], [0.020777252281247476, -0.005623034519663414, -0.016318606434643047, 0.027582034237227344, -0.014416876208998496, -0.017910249096718955, -0.0006702610148668828, -0.015013467236992059, 0.006609669166515125, 0.009248854694537595, -0.02121509025945592, 0.03155285495100049, -0.036387007937318847, -0.007517464718014744, 0.0339472532934784, -0.013192911301155106, -0.005780023275332543, 0.006250424113107323, 0.013261021460264436, -0.009643467263489915, -0.04344899944808941, -0.011372028414886555, 0.013431148046244727, 0.0188552439728942, 0.019903839941674238, -0.014375488833370618, -0.016011666200977957, -0.011177086361848134, 0.03867695911750078, 0.0084037784749289, 0.04081839427694837, -0.008920641950222777, 0.01958637438659831, 0.030527337776593094, 0.012562852555978107, -0.02457899724879448, 0.006701849904857882, 0.02708569337989692, 0.0303536648153874, -0.03734656476970053, 0.022521975927243067, 