{"learning_rate": 0.002, "momentum": 0.8, "weight_decay": 0.0001, "layers": ["Dense", "Dense"], "train_errors": [0.889, 0.138, 0.126, 0.127, 0.12, 0.11599999999999999, 0.11599999999999999, 0.11299999999999999, 0.11499999999999999, 0.11699999999999999, 0.11299999999999999, 0.11699999999999999, 0.11399999999999999, 0.11599999999999999, 0.11299999999999999, 0.11399999999999999, 0.11499999999999999, 0.10999999999999999, 0.11399999999999999, 0.11399999999999999, 0.11499999999999999, 0.11299999999999999, 0.10999999999999999, 0.11499999999999999, 0.11599999999999999, 0.11299999999999999, 0.11499999999999999, 0.11399999999999999]}
{"n_input": 784, "n_neurons": 144, "activation": "sigmoid", "trainable": false, "weights": [[1.0817272831569982, 0.8318388302589615, 0.2513653234640798, 0.21831630474777944, 0.7695311100850875, 0.4062407639940241, -0.31374484804442404, 0.7983249606131562, 2.4654253256644294, 0.17979376144370063, -0.9136377076839695, 1.3605413060664997, -1.7078038565289688, 1.6737173356225372, -0.49338648986953093, -0.4987650936457796, 1.5342913413744212, -0.4413649653199048, 1.382676656561059, 0.637335584536229, -0.19564216560411318, -1.2774772217861554, -0.5644116883934408, 0.7011581160917542, 0.8837154425944178, 0.13492082195128538, 1.6199309126782777, 0.14991230708424605, 0.4891669088113097, 0.22093531585924353, 0.023321231991151253, -1.5028778419303912, -0.6940393207848723, -1.3094372940782983, -1.9687257340944069, -0.2372119766178591, 0.7498998899718254, 0.13021622301987743, 0.07071869960041524, 0.38792574853063, 0.5534781145805797, -0.24400701079244383, 1.8341821067605901, 2.086980670715967, -0.40829129718353224, 0.146835579062615, -0.7225903763458714, -2.447695806204046, -2.6073233999729486, 2.0243168619506204, -0.25746823446225064, 0.2254618146074884, 0.23777169036131426, -0.011355073984709878, 0.5190144050854717, 0.6184872462295713, -0.35056751587259827, 0.557289309242244, 1.4246394606284787, 1.1657710008984965, 0.2159710894531206, 1.6047132927030618, -0.45835883893326584, 0.2956451956030423, -1.8640149133096215, -1.0149205103623054, 0.872853185447212, 0.04260602641872147, 1.28654293140585, 1.3159160718525127, 0.7936840881102661, 1.720269724124225, 1.2861309192958328, -1.4279722505498116, 0.6957334507339058, -0.07398409954788654, 0.8368912663036174, 0.42634263917149856, 1.5451780199077259, 1.3991025137528599, 2.046955275271467, -0.6138456925116632, 0.7829655227759283, 0.23220931149767565, 0.2371646785427591, 1.0678931132778344, -0.3522350355079715, 1.6194955802771804, -2.1466385972622173, -0.9153042948063778, -0.23051256296664266, -0.09679697134101137, -0.13401734059555476, 1.237082300254903, 1.0875658441920715, 0.6270244161997971, -1.5072398384367436, 0.9045340625078764, 0.5093685240513974, 0.5897801516022508, -0.05414702302540194, 1.3347796056533163, 0.10503608517419337, -1.2377371930662853, 0.34400137832319594, 0.5791332468206433, 1.097010809082991, -0.42541098402901134, 0.634191035104851, -0.5820234566430375, 2.598942803836775, 0.03645452730311822, 1.3938844854003873, 2.049505309679071, -0.3546180082751671, -2.8890268825811933, 0.9277454234680752, 0.8990511255968434, -1.8853121292936876, 0.8267330466488995, 0.15519098432459938, -0.2104096128770991, 0.34291064632999485, 2.038813177215569, -0.21697656220375386, 1.4161341844294422, -0.3028365872702919, 1.7341719974853638, 1.562047404408814, 0.2779895500934251, -1.2716498427028646, 0.34400901824867175, 1.6403319170425885, -0.8962909061405692, 0.664839120228236, 0.8677309998579671, 0.8693259930804242, 0.08313012249331313, 1.784287829340537, 1.6664770116968441, -0.2899242589766561, 1.2840579647933923, 0.45323577083931105, 2.096420370518584], [0.2369216736507647, -0.0759122632657974, 0.03326859357217126, 0.015365752796982043, 0.09266474961162818, 0.0370121527766078, -0.05959954340214449, -0.24493302904259168, -0.06348892441303093, -0.03821506073514846, -0.12062882170446738, -0.03476011653513298, -0.06073568508482442, 0.24488734408000118, 0.2067244590548611, -0.10454082400280346, 0.003498130571899704, 0.04518451609964304, 0.1941010685123678, 0.005834497745233259, 0.2689963681084157, 0.1597487085825026, -0.025228368945729752, -0.07193618572924507, -0.08041149998328442, 0.09481386822020435, -0.07416887177187227, -0.14354710720365968, -0.03216939959745456, -0.04937106068417001, 0.04468410683965127, -0.14492161266616158, -0.129020884246042, 0.1245901941992626, 0.1124170989372889, 0.029232139688926833, 0.19788487419929285, 0.06319722632005587, -0.0375823751914338, -0.10072395481441705, 0.18346097041519233, -0.05517367458503591, 0.19610134758587636, -0.16182602314366246, 0.12226076655609956, -0.043494818450880705, 0.22720272278547926, -0.2329122870133948, -0.15510353273274963, -0.03522333510756598, 0.11222866703126409, -0.057478261884053, 0.014007365671593915, -0.16377605032425957, -0.016644612959992804, 0.13048485107596458, -0.04454034755121869, 0.07391406618905808, 0.06696981807742741, 0.059733398250441536, 0.2271016986862326, 0.04717984978809453, -0.15481101814655393, -0.1991841196168364, -0.22476854766622084, 0.10838265778734461, -0.1498921624713711, -0.10276336695315115, 0.18976914378069254, 0.1997714774125335, -0.2416543922311988, -0.040166247102443195, 0.15528576260267551, -0.06445749739348947, -0.05773740218841436, -0.029937373029677417, 0.17224131734049164, 0.035351424438092555, -0.002349052215490254, 0.08320248360298459, 0.10230652803797309, 0.062255369389630485, -0.0016971241670767944, 0.14049244904737407, 0.20344688800129, -0.07944223601455823, -0.08785293339166883, 0.0037342705502019925, -0.026454328231264854, -0.05834226709631692, 0.20390597393620935, -0.11987266273403432, -0.0348144731800187, -0.2104457899934532, 0.12781881729597397, 0.001973434971153285, -0.07478838571343052, 0.2176546461391135, -0.03874609572957453, 0.24715453519128808, -0.02452136190027096, -0.003141142949069021, -0.06940300218568476, 0.027763742648066355, 0.039387077463349476, -0.16242813374788312, 0.06725712192283774, 0.04182413369232748, 0.05840834737497349, -0.031126215086235698, -0.22607480068446204, 0.09479792379587942, -0.013205210678652558, 0.011270612988855011, 0.11214969691197689, -0.14905074482090033, -0.08189911984860418, -0.031169495986348314, -0.08622010835506834, 0.19475391271656395, -0.020959891855168042, 0.342352486004818, 0.02722403557991497, 0.0003746409733335233, 0.006706594700548926, -0.12179464087857969, -0.16397542626679598, 0.17450942820224088, -0.04728760158668252, -0.26605415415367856, -0.2774444805652265, 0.04837892834362381, 0.27263099923423373, 0.045772130507354715, -0.013545194160452466, 0.02551634508629596, -0.06860133446872506, 0.1931579679647311, -0.09006974859409812, 0.09918116478777232, 0.061126215341747614, 0.07872395334185846, 0.12928951351486068, 0.07975685335610583], [-0.05558422016057971, -0.15817668316800196, 0.01778411353927666, 0.11158128520304986, 0.21725509810684757, -0.016228088264112758, 0.09339807376296612, -0.14000776812077567, -0.13947217058186093, 0.056089943229393306, 0.15226041037702293, -0.20035071184347727, -0.24909387705121155, -0.13649115327994726, 0.0114238417018703, -0.07881022491612837, -0.17589129330182685, -0.18076232851337906, 0.12303617592108225, -0.07278503778027458, -0.04223037487782724, -0.07902016193478215, -0.11430065016480555, -0.0033835342532488187, -0.141916636565159, -0.10725341658073512, -0.07421896407214708, -0.0007124009493567551, -0.09949720000623001, -0.05870816899361144, -0.005719373891177946, -0.11464867141103847, -0.3279139296185587, 0.2974605040261629, 0.007879653499138436, 0.18338530109369341, 0.21015102303848968, -0.011111794404564956, 0.053312244051397166, 0.024823434087315202, 0.13728683080192283, 0.10825841694270917, -0.06372157723549067, 0.1399689024464209, 0.012686842185623617, -0.03386461786165074, 0.004672919057148803, -0.07273591508662086, 0.22108340172278343, -0.15647930088083425, -0.1730010525593157, 0.09355236659329831, 0.023389808601198755, -0.2521349479130412, -0.003159535975473649, 0.16652794322627573, -0.03271237194145519, -0.061445760350232366, 0.09676507574121235, -0.0050625413471203215, 0.19373863631692365, 0.04433466865472186, 0.07388820674438475, -0.06516418425590192, -0.08173539988366205, -0.031468122584736885, 0.18774466376687343, 0.08500095533524553, 0.16887303247477148, 0.06855768990467075, 0.11273961860406806, 0.016515143917489407, -0.24115088889308722, 0.0080401304408175, -0.01302292597369767, -0.17581364620275577, 0.12184219189709976, 0.13142441485347656, 0.005460053265327847, 0.04837868583215231, 0.22257642293080956, 0.24473692961931423, -0.07215780269977379, 0.2079007895223789, -0.08852701842457604, 0.0657283170244544, -0.06404137642153672, -0.1871303004883835, -0.19554426240398767, 0.022039931526458195, 0.07127349052729277, -0.028672009350983005, -0.24423328887441528, 0.1187993667668441, 0.09083395008993421, 0.1303276260011217, 0.21427824176213559, -0.10308913715670741, -0.020583005889470964, 0.11890487654939717, -0.12622073040794624, -0.12029347316834892, 0.011513936024523143, -0.1127505282042494, 0.05005296764843755, 0.06381447079433934, -0.02378619951001799, -0.08715841000005671, 0.05756599168752864, 0.003973947881976815, -0.0357041483895999, 0.002115404893511913, 0.10993672696220544, -0.09306505508402894, -0.03543121569115388, 0.1843887064092158, -0.1430752009939141, 0.13707674448667378, 0.07661089844312775, 0.004317189200261432, -0.027617815153836225, 0.14493036108498686, -0.081854060692678, -0.035085265792130574, 0.12867259228797512, -0.0660207235281162, -0.2991807393467046, -0.037799085655978094, 0.12180592044458143, 0.11119807760467638, -0.011492637521068392, 0.0030305607781528393, 0.09295414559058048, -0.07702248895568055, -0.3515590427553186, -0.1915366124414432, 0.037891951798351975, -0.03551752634060805, -0.0543867399893065, 0.083999241205475, 0.1615873136918112, -0.016683551260156197, -0.08519718276180671, 0.1497693390926475], [0.1357814266993482, 0.1433183656274069, 0.04705915950845524, 0.15806396351961857, 0.0257208002667966, 0.21138391838400925, 0.142001781479582, 0.26575846544157267, -0.03206660834655009, -0.08789493449037844, 0.05266586598162639, -0.02472772034663483, 0.14441763309283517, 0.09038554974500104, -0.11523117266961128, 0.11794098106272792, 0.0825652911534098, -0.039135664370631235, -0.10097310982041491, 0.14726688223129253, 0.07320507997113285, 0.1491909709282813, -0.1380389968202447, 0.16895245211579699, 0.039752196578326106, -0.028001860483027673, 0.022014992638309566, 0.02570720344545759, 0.12436272945700823, 0.08983898075113962, 0.062416503921203084, 0.13074763764085343, -0.03620622739484553, -0.12671565699668574, -0.2800474242398562, 0.17915525113222358, 0.07875647869690496, 0.1579701975967208, 0.28556160778384515, 0.09144351433655762, -0.08677309650153675, -0.04654433559259561, 0.28225550369653746, 0.10518769339575743, -0.0024275764916561276, 0.05343064849592708, -0.06199542620844584, 0.20601622621457347, -0.0020783537099908767, 0.08304315869232626, 0.2505012319021848, 0.26484051815598986, 0.12605130506787224, 0.061535307858986935, 0.17223006062250723, -0.29145408617143737, 0.046974995955140465, -0.28559668562266516, 0.07737757308155944, 0.03049540839068653, -0.14484137989576934, -0.028601699165675728, 0.03504694717805415, 0.1025626167901729, -0.01914446909701852, 0.13395845392771347, 0.09530725772973511, 0.004495666758249079, -0.022908485889712164, -0.021008330324420687, 0.08956789533457368, -0.1279182384704411, 0.26821924085065313, -0.06064960186058197, -0.10909478466174254, 0.21356536792159417, 0.13351024531266784, -0.20478642979469644, -0.09917817803001226, 0.09644744405016276, -0.09145602779876606, 0.16146410238673323, 0.013636569527700291, 0.03227215726050091, 0.0808333166463494, 0.11528738199814374, -0.0834468084789466, -0.10487216021332318, -0.19475691937605366, -0.0868040796632665, -0.031042808212810215, -0.1997889032418374, -0.23413787756085377, 0.14438153296525574, 0.013351676506453435, 0.006344911554146644, -0.008093560920231344, -0.07860771223564483, -0.11427049495995019, -0.041242392428023696, 0.08663738970686964, 0.046576769467439355, 0.024107557538175842, -0.17126411037002745, 0.04972374039545644, -0.1550176648227021, -0.1756950971545578, 0.2255894228842921, -0.28051016424599406, 0.03535799485784722, 0.012750755335050771, -0.12368336031658049, -0.09846343972400491, -0.3245526269362402, -0.17255245959924448, 0.140049718692154, 0.03359669534078088, 0.2554533782001796, 0.2970902913863441, -0.07039912680051522, -0.15514944507671247, -0.19768995832434702, 0.044619274017417165, 0.2761561323591518, -0.02943643152687759, 0.21019897321802053, -0.08391183897682099, -0.36418061558688336, 0.0909564399564787, -0.19863040379944003, -0.15288677512678964, -0.1147374624297507, 0.11476982625871848, 0.10294781761127685, -0.1719012463583211, -0.06182483887697353, 0.14810030599726653, -0.14131865932422527, 0.19442841398462313, -0.41192097337945477, -0.11235093349081902, -0.025021662281185974, 0.00024253376760604594, 0.14980522645442446], [0.01611757885707499, 0.001700651677794927, 0.03154929281433812, 0.0716520097517183, 0.05216262355142256, 0.1586733402418425, -0.22306272055615678, 0.041179620376640566, -0.004699863055564158, 0.03684155964781599, 0.010591242265956344, 0.0301825901262183, -0.19927768957568828, 0.1270501434192735, -0.12421306058144946, 0.05816846496461697, 0.16397661054510732, 0.12557017284996527, 0.37112681270923237, -0.1737325101375013, -0.061765123522095663, -0.06261834033622755, -0.13797347872665713, -0.09429616489395456, 0.20182033534826987, 0.0789931016061699, -0.012351203055689217, 0.0006254277758841731, 0.046217191168670076, 0.11097256251311928, -0.08353398357250713, 0.028543716194198248, 0.08541955725565427, -0.03866920422808828, -0.020919247582208127, 0.07946054284140154, 0.08211500686618194, -0.0707372615445016, -0.0340442073386251, -0.009534083924592257, -0.11027822828794362, 0.009788575564299778, -0.1763762325132391, 0.04893695924694816, -0.10618466454950308, 0.12066874842528032, 0.12248739910595818, -0.08872946726034125, -0.05754071411869437, -0.13411905485014974, -0.08532722540670258, 0.06745991457160616, -0.001558864517081744, -0.01602971144809777, 0.06383310205904474, -0.0161454092295254, -0.05911653963720987, -0.19830103396009044, 0.13745070795023356, 0.21342812230788932, 0.0008960326533728585, 0.19750285289101846, 0.09985080891350052, 0.07138716100037759, -0.0064917177638407824, -0.02908394586029313, 0.13367158491831135, 0.05432250361590663, 0.16288663147094778, 0.02864211434741562, 0.007496766849189099, 0.12081067230155648, -0.06899957536891003, -0.20644179229942056, -0.14722415585399637, -0.13841423982082454, -0.10492083343997528, 0.047823015049132604, 0.187495517790208, 0.03156232003071909, -0.0096526010664156, 0.009583253659772443, 0.056346146074366235, 0.08032987890682212, -0.2640979102736405, 0.03694652624198431, -0.15363873286698035, -0.022716067966386106, -0.03550211239115713, -0.40380243540851163, -0.018931638682084397, 0.16294602477303644, 0.04063866603678792, 0.2969320019418, -0.0008196168660043464, -0.05626655458839306, -0.0006076170740884303, 0.12990664773987357, -0.11236967035706025, 0.04344854536154008, -0.18635454780457184, 0.03358455846510443, -0.2153741406229773, 0.1430419158206002, 0.01365525835072784, -0.06886234109190961, -0.0822954084453556, 0.1949852493092845, -0.11909745900912859, -0.014195319512048669, -0.18599155374606824, -0.1950529419433497, -0.08183454969848968, 0.09970772892049624, -0.20867610456572733, 0.060085541614050934, 0.11912749369467371, 0.12288284627731422, -0.04371923287004371, -0.07209778960877078, 0.10007984636367032, 0.039113624899093646, -0.028440311617864374, -0.061381221601933274, 0.01900039538695612, -0.07532259059453254, 0.11811423833980135, -0.16853220119592446, -0.177542431259554, -0.08544508700538246, -0.11133948912631988, -0.1947874867477392, -0.036058083495341516, -0.0789080085315395, -0.04224853096302471, 0.00997327198944908, 0.06013867829643308, -0.024957649330581345, 0.01065880523372455, -0.1371114388647482, -0.09837720764491205, 0.036566123743324935, -0.021966655967413328, 0.1822994716600756], [0.12567965438228282, 0.07333634337723627, -0.08035623367873372, -0.0505161094733483, 0.04471235262000277, 0.1557373155563474, 0.01873225283586315, -0.0575859453570931, 0.11012709441394318, -0.1502798841913838, -0.037937532291244594, -0.0006605069948588803, -0.07705506649687997, -0.035904195729519875, -0.2422118360138558, -0.0141222370317759, 0.1045678927819746, 0.040616132677109874, 0.08389854082128856, 0.06445620936124122, 0.06491048358883145, -0.010793975099634251, 0.08557574216955037, 0.22239129908477526, -0.02995263862605689, 0.025668500878445327, 0.2246481013126753, -0.06997367686736812, -0.04124797455747306, 0.05881304565167345, -0.04670493330462434, -0.09895942990048652, 0.45921044853383836, 0.09180841781444006, -0.08123198484880069, 0.10532831984638893, 0.0020543138132823927, -0.11059995480651022, -0.18425477879302007, 0.2298599238044374, 0.161714454750583, 0.1896593526801629, -0.12449872963299534, 0.13767569389079662, -0.2230024792312256, -0.0037440863444265123, 0.31971733784273837, -0.005580096094117241, -0.0003574512388333536, 0.13799564834753586, 0.01391701713654476, 0.0339864396176591, 0.18431835230670332, 0.10037515411721352, -0.016960961372642597, -0.08064641512389104, -0.039065481475090584, 0.17818240501614369, -0.13311220906413804, -0.06714761879905348, -0.06213256273705712, -0.10859946624656343, -0.21943371163489983, -0.07021606223400545, 0.0728534887868549, 0.020328818184287244, -0.07168784895227437, 0.033522409710861734, -0.04686975720330373, 0.029884159386614928, -0.08519129115702398, 0.1314074767381574, -0.20451383387073124, 0.016523534372906507, -0.13480864453376032, 0.02321079761300619, -0.17370511340274583, -0.07577644923783701, 0.07902148630238297, -0.019632617461472174, 0.13582127417274487, -0.055692801535060586, -0.0395908567741916, 0.011095855369220907, 0.16380281566314034, -0.12998314230908042, 0.05727555199550876, 0.05230012894207307, -0.10535594440574819, -0.18117169523747897, 0.13792636903883995, 0.0393081299530472, 0.13276376374079277, 0.004276626364235764, -0.08013397056386899, -0.21254005286894337, 0.10851539145740412, -0.009360498540360307, 0.0419841818121755, -0.31838849785226897, -0.009725174070792634, 0.014254102795568888, -0.09884411078817944, 0.13775290489614186, -0.08427151721688572, -0.29029144685754216, 0.004696135702077236, 0.06235309246016644, -0.0775724927961383, -0.1736888374028323, 0.19591009447656899, -0.14562130044760901, -0.16544500957783198, -0.03990081678096667, 0.26360867582629266, -0.09507339685753202, 0.023006517505904146, 0.12431136481216924, -0.14512829169905161, -0.14039944197766738, -0.09328187317025495, -0.02908236189050175, 0.12056790932391347, 0.021892681308799334, 0.011303011025146277, 0.1304992571950488, -0.026205567923550638, -0.08642541189343475, -0.04394560228803895, 0.05210684109118919, 0.16104930453483968, -0.1732330985400068, 0.02253247802346486, 0.020985470819097966, -0.0007006856673828678, -0.15025698396147913, 0.10337059293682645, -0.1412594527454377, 0.08589398549830161, -0.008982455066481638, -0.027770029074110827, 0.12243473358985175, -0.07129213987044138, 0.18496247833935764], [0.09788013618787138, -0.03214589881317862, 0.1472041197227302, -0.022694081715662884, -0.01043152881707845, 0.06917263618837372, 0.049046611576627895, 0.02610811187704557, -0.09075157854217737, 0.2680598119731543, 0.11942442335747706, 0.021421977251708836, 0.26136356475850314, -0.16857164763245316, 0.1651933326428191, -0.11247998063290532, 0.017241026848575317, 0.2161339408063683, 0.2643732305699295, 0.14606448794648252, 0.012981536974704016, -0.031956502203689126, 0.14523146016098412, -0.16378243682766153, -0.10242133989553823, -0.023222515729678726, 0.18338969935439625, -0.007533948205933935, 0.27375037250317685, 0.05599517754302764, -0.02618744121348037, -0.014588753808067153, 0.2110831243780858, 0.19883751668458782, 0.05961797539961154, -0.09010565009859961, 0.025509646913005404, -0.2007144813658452, 0.03254734099425923, 0.24654205452841996, -0.1957518204424676, 0.07068228239687598, 0.029404239243118052, 0.18161661518056765, 0.0023135504395047834, 0.06241966152534136, 0.03357605964561671, 0.030756859025799093, -4.3977268392305e-05, 0.0020605351929676463, -0.12633190343900075, 0.15807094322654974, -0.05513707211572096, -0.06898922691179381, 0.007107468012521104, -0.1794693923663245, -0.11533586599474767, 0.267688089644614, -0.015121782433883992, -0.20820560886063486, -0.2291899453229019, 0.10923265334949117, -0.25494971466920674, 0.05864428364677799, 0.0870810369979146, -0.016788520376180515, 0.06056682378809728, 0.12417692309940177, 0.06029715880311314, -0.03724475293838149, 0.19131813454762464, 0.04942245221210723, -0.13843901410315962, 0.0634161149959242, 0.0388326753218133, -0.22473649211652233, -0.08278978568334626, -0.011987396059770365, 0.01047200364984697, 0.28160938724667606, 0.04446316963111069, -0.0664236703718223, 0.17523844345096956, -0.19147408424641504, 0.09428055246055418, 0.14008760530027486, 0.15198645118759407, 0.06820532629572892, -0.08013225148490488, -0.19089776962017174, -0.07820532291973002, -0.08536238507439639, 0.16088879004006734, -0.06972846402786774, 0.22448002532162947, 0.05968206441488494, -0.32796259524923027, 0.08738290484841844, 0.200887793990459, -0.07143117944350881, -0.014631902377636001, 0.03833315452214354, -0.037658014791445746, 0.019731939366545503, -0.1299260280152951, 0.22812647492724186, 0.05695991930220669, 0.03060866914871133, 0.054716772560319704, -0.22763627250527574, 0.09153044755654449, -0.17002882018700263, 0.010697263911883874, 0.19036547187261288, -0.035320215798662374, 0.1234021746223477, 0.028596599047148827, -0.02510088741011676, 0.09730501739342023, -0.036203070769513346, 0.12282439202381572, -0.0027576862296145276, 0.19924228944462213, 0.001657120078146339, 0.14715704258767187, 0.14493488468997462, 0.0844104848661965, -0.14960575617323973, 0.24109208911889307, 0.24341240198491704, -0.07837406517252006, -0.08901738054276769, 0.10271348752389853, 0.33935747939512684, 0.33603185143984626, -0.10565616175087589, -0.19282017747813288, 0.041057458814487816, 0.09296307105306931, -0.13851767871363896, 0.2494275011609086, -0.07577140256236012, -0.17294992288572755, -0.0654410653965545], [-0.11191841941226, -0.21443515868654284, 0.21479489748301445, -0.11380574123204022, -0.2066458134481086, 0.02116171378035079, 0.04268021356060857, 0.011454241521066565, 0.2107919231590152, 0.05029458281536106, -0.07031494262852603, -0.1825575898778133, 0.10864916145996434, 0.16581514074310988, -0.06201945166899155, 0.04462573839409703, 0.2051575639015537, 0.06939444147097085, -0.1527627503900704, 0.1278958233693361, -0.12074105988928352, -0.09901884371050453, 0.10189539067494305, 0.020076161472181688, -0.14785233245595392, -0.02558028708442955, -0.025235004128815568, -0.001244982040818747, 0.02810666939498967, 0.059565764972439685, 0.12256845937307823, -0.1358274996241596, -0.02666100944428725, -0.06212613195590483, 0.06447483896648283, -0.01196313800689923, 0.08325594301972522, 0.1110955638579564, -0.15247811108595113, -0.005627339933200565, -0.12761891879187198, -0.06217891065110088, 0.05545233934837003, -0.14376056826540293, 0.06935834824767215, 0.03859360299071094, 0.028796161944954518, -0.21042940097883517, -0.20293209276903565, -0.039472974768175274, -0.13400592634512973, -0.14347012273345083, -6.282036119064065e-05, -0.050777697829867345, -0.07859669799536824, 0.05545605122377201, 0.09411779831662084, 0.08201061371988023, 0.29937936294727446, -0.11250919434638244, 0.0007358881384808369, 0.12467851658840973, -0.017547393165939375, -0.1661309317935736, -0.08707638864282037, 0.19586278456543665, -0.13926610715071955, 0.14348520225870814, -0.22952630772242627, 0.102236517626906, 0.2481719473654295, 0.07045575764224896, -0.08076111783721791, 0.03274833453186546, 0.05370324972715143, 0.012306347461177154, 0.1394479057158192, -0.22107756583984836, 0.22365142547804537, -0.10342084220078425, -0.14451180409972372, -0.001093818628969737, -0.0682097860561374, 0.18170191477031328, 0.16567573388671397, -0.025920993741717354, -0.2036604079822799, 0.056257917917172925, 0.14156784666841324, -0.01888839698918012, 0.11584329836860469, 0.11246150754729978, 0.1638886676840483, 0.046316533148909135, -0.10282897708995858, -0.07750863381650484, -0.07338502856247497, -0.015904557570641315, 0.08544289627897485, 0.29289909164065947, -0.11229527444809739, 0.2272251290250091, 0.1116069236032428, -0.15322196622818168, -0.23078953552829307, 0.2754596283836278, 0.15935605290329183, -0.0114089078835978, -0.012651679118774361, 0.032430145769170346, -0.23083813093869313, -0.0281688890690331, 0.10513842262629734, 0.19203448042674748, 0.08071151988987829, -0.15984698780865714, -0.05188621229867746, 0.04866685661845999, 0.02260498271722257, 0.24365538600890913, -0.05711811903616281, 0.16120259395970776, -0.18105028426327954, 0.14428056183619697, -0.05101692478231802, 0.16183684650861224, -0.10341038494408865, -0.07678117354486254, 0.16952119947424774, -0.23015609393987876, -0.1000479127781681, 0.0755956588137083, -0.07679934686113384, -0.06156452733740416, 0.0899103055055155, 0.23699050524808196, -0.04198446858814424, 0.10207374096053189, -0.019947855165850997, 0.3507621987844371, -0.1661644990813887, -0.12778525122067427, 0.16709125179843115, 0.19412530256109126], [0.18504148454094196, 0.1678553436758005, 0.01635396364530406, 0.0329145490968345, 0.05044869809753159, 0.03285457660567501, 0.3199555125535385, 0.27175809919463817, -0.10876440126152717, -0.31464467511752975, 0.21075922932952085, -0.15072447074981812, -0.22878518382288715, 0.04307996897399233, 0.0185248741606964, -0.02339134003347163, -0.03340724149801476, 0.017453367517790135, 0.11906498682503111, 0.2129865965571004, -0.07481024652127304, -0.09753996257372677, -0.21031995385734745, -0.02982683210013058, -0.007026999539256023, 0.10346775767006587, 0.2064552119405808, 0.025376886932347596, -0.043642686700056235, -0.21471385195452958, -0.1272237409003887, 0.06178838102557915, -0.043906484496615404, -0.1324665736534882, 0.020698095089093795, -0.06642935021132593, 0.020275691570979804, -0.06921102604299113, -0.12399655247636682, 0.14770054184082737, -0.10635096673174768, 0.053834503038169994, 0.14376285628539395, 0.13765721884472057, -0.10098456737692915, -0.06933853444365065, 0.04192226212472091, -0.04121003401144238, 0.0010053475815883293, -0.13692078594846552, -0.13458084906274295, -0.007878697847540951, -0.08968122845026885, -0.01692764798817125, -0.060804741417940095, -0.20007225844714044, -0.30866386921748484, 0.0800885623580355, 0.13588555289381402, -0.11016999250788682, 0.25504326672447525, 0.14175390392059722, -0.08848042487560571, 0.10420504280688384, 0.11951080506950876, -0.07101081659358223, -0.1963035060214663, -0.17245862920079633, -0.13577353130383438, -0.1810224945481419, 0.4560504471318337, 0.12613603299811765, 0.32233629908969486, 0.044286031915717894, 0.1549233773603135, 0.104372354491308, 0.10661220671525133, -0.0024031080021616746, -0.02852167435300847, 0.03327639154612411, 0.01831364993937993, 0.19817191541441664, 0.21353965660486712, -0.07480113698787086, -0.09909314050894845, -0.03447659220822749, 0.06283081096913491, 0.0010553430047781725, -0.05883354109428942, -0.324250197858757, -0.16383786203026612, 0.21204567691248397, 0.0847809098443627, 0.025387347162317987, -0.11132212079222802, 0.08546119094980713, 0.035081355986365, 0.1194336723472467, -0.09294012572461231, -0.07435307312074046, 0.03904477856080684, -0.2170117340260185, 0.07719687874654507, 0.14619422436752225, 0.06612354618567179, -0.014228029731254633, -0.09259878864753585, -0.0515166337908355, -0.08287253819292006, 0.09219894444149143, 0.0773581616182155, -0.0436911446578057, -0.06322105353989392, -0.03984796975936534, 0.199072399656327, 0.04870089532488139, 0.0981101104539237, 0.043147965758685035, -0.05600348872542013, 0.17116307202269312, -0.04112104107658874, -0.142317896770905, 0.002599808299873982, -0.01640946996934888, 0.020213756449560284, -0.05852875837160701, 0.07210093533895551, -0.15931616531787646, 0.052293719724156563, -0.159305620214246, -0.2542014892111732, -0.022326337661756283, 0.1323918732849469, 0.05807916250874144, -0.043264026431316785, -0.06168558312770315, -0.004000063146732241, 0.01715570799190682, -0.14240007324025072, 0.016965017766479202, -0.052584296292897334, 0.021721993928051176, -0.061097112655375416, -0.06354967112828612], [-0.19273325545850215, -0.03619510462131642, 0.09263740979182923, 0.10130089445077578, -0.18643881929281048, -0.12593050670345599, 0.16080440681088035, -0.21440141882574523, -0.09585637267448584, -0.002798409257728404, -0.2861697330156855, 0.19543637931872493, -0.08273068979712189, -0.0005245652850634653, 0.2878353257776526, 0.008504261684486052, 0.04571242905799202, 0.15321702549169014, 0.000821466068648129, 0.10184998448090331, -0.010781568076098029, -0.0444349407709329, -0.17208441497521226, 0.02700633753509071, -0.21055565433350287, -0.17654885502053794, -0.11654807341282535, 0.04194371146797031, 0.23645338291943677, -0.1850718961134408, -0.045798535617562405, -0.21993940444824125, 0.24074229551339182, -0.05340229346329844, 0.0261279094900076, 0.06050372885597261, 0.21109772946009464, 0.08327700370434322, 0.07514220431886964, -0.15781087923297143, 0.1635727941788492, -0.12329466063394218, 0.09380041830991828, -0.1845023189230918, 0.017567213835062, 0.19411215763938408, 0.04193897513933999, -0.2047038573061697, -0.21901296559909675, -0.045950228506176166, -0.2739687160162805, 0.3427224336120347, 0.05901714286178889, -0.01571581153511981, -0.08232441465381984, -0.10241145286236565, -0.021556239985973735, -0.09437920613384239, -0.11837486698472319, -0.27080464789486786, -0.10075762780985162, -0.20268200191058225, -0.06334866693080363, -0.28314171127929605, 0.035550606069339914, -0.10878170177714214, 0.21713656241311455, -0.084334023748534, -0.11873898982067024, 0.27642882136320535, 0.010231384809068808, -0.003843912790942274, 0.0105340312286096, -0.025184236054502825, -0.08350382718728341, 0.2325748699590416, -0.16239651396990995, -0.019336494332437268, -0.14115728939705846, -0.008582319174581287, -0.030484106303415533, 0.07170512217876683, 0.10213925188140846, -0.10885261344253441, 0.025945549846226983, 0.07769220672026303, -0.005425329873678586, -0.07277432440642721, -0.30387715077977673, 0.04813406242601947, -0.16560722702503222, -0.00857418379514443, 0.06083305611494285, 0.03882038248916434, 0.12750953547934277, 0.10332353874985857, -0.06454375127936507, -0.04247533536192826, 0.0624701803839893, -0.02343589129834451, -0.0603306175580623, 0.04332183348100219, -0.010872605881487465, 0.2759022426540096, -0.0785012926419914, 0.009159241825984972, -0.060219753480684535, 0.17159445884158306, 0.0010111006257705574, 0.05364348258707646, 0.05906461268588206, -0.10139695554130036, 0.007731255072190618, -0.06948873495499752, 0.14866746722872523, 0.12276170785797605, 0.06441963849173954, -0.21144763542080178, 0.3857197408678924, 0.07611152140857548, -0.08332875423949984, -0.11202425887083586, -0.19640448400875174, 0.2754953730055041, 0.08563597698062661, -0.14537657804759246, 0.006642245975650781, -0.09585990799102903, 0.28641975446786766, -0.020211591810476555, 0.041217628641358625, 0.06659062741083961, 0.04399970349740349, -0.016298895956775215, 0.009522263525327654, -0.09629723583065651, 0.005963789597502774, 0.21735349914298177, 0.056331782249679115, -0.06414440127832353, 0.20543891584076843, -0.0015249695530725291, -0.12374031170839808, -0.17026079650613624], [0.034591457749803975, 0.10239495919635613, 0.1929015098750443, -0.0885342113199994, -0.0010356417031557338, 0.0840108267954307, 0.09275941643767867, 0.09702611102261831, 0.01561820691644603, 0.08025974971290024, -0.06919697267516094, 0.18112603038457972, 0.018312513792515483, 0.07616337393755286, 0.009231013450916994, 0.10539706033406793, 0.17426062953760318, 0.14665672189351167, -0.11176808518638612, -0.135995934995504, 0.055903653991674476, -0.2651789225660872, -0.1413492980105346, 0.20065563591650534, -0.08139798766232405, -0.03537308341294503, 0.10031142640577612, 0.07878308658642949, 0.05729895302582598, -0.0728741628924869, -0.045034937532113094, -0.026939061891831186, 0.012150357509505225, 0.10883537851109816, -0.10627621341380633, 0.07349018248391834, 0.12542379061882747, 0.1436184983735018, -0.28995389526055054, 0.0664343609010402, 0.1425606213253253, -0.1119985727654097, 0.11731998178111186, -0.0037635833127191948, -0.003492772112069835, -0.11659553973942677, -0.13303610632544585, 0.049694885885925244, -0.09995423068163194, -0.16706974997378182, 0.24029131767174383, -0.05410940408785329, 0.20858434267574358, -0.1062564416924035, 0.01567277315505257, 0.023242894580278846, -0.0354218887484866, 0.16291356919112737, 0.07164023912890359, 0.03100398109595633, 0.015035747409798818, 0.11688453804028322, 0.24468032169667894, -0.08141376197023831, 0.15685841155233413, 0.11827876450099904, -0.08103866561328696, 0.05178935671069921, -0.15819749992369062, -0.1759701929937958, -0.018946716634044253, 0.10413289856890959, 0.062367174284961954, -0.026363257721916278, 0.09728364661914883, 0.11032712481579951, 0.047072960622464625, 0.1643881668271916, -0.1418369413631519, -0.0033199055638460494, 0.14597189652568032, 0.21166743183095363, 3.2515686759015077e-06, -0.07398206476954175, 0.26514786841429755, 0.10551227748505713, -0.24365170306173817, 0.20375796979084476, 0.11671202575386648, 0.22623902462258352, 0.2441636013252342, 0.11271800150453713, -0.0577114809645547, -0.07774788120108637, 0.053554276590221786, 0.015611741866991753, -0.1838185772043931, 0.11159985255138236, -0.2584160045269571, -0.07659165510027581, 0.007482936336541089, -0.13601236772974412, -0.08026256967270978, 0.07063696695992093, -0.10091037284904705, 0.03157271720851318, 0.07061120940025119, 0.21157555027805786, -0.11363860400170465, -0.07867764850690985, 0.12189293879296094, 0.02541861370224196, 0.1856682752423322, 0.03768465784359353, 0.32219629214125173, -0.07812174045604516, 0.06498421663438662, 0.3221078080633636, -0.17273464411872166, 0.053029767939556015, 0.019960556963987797, 0.19551135786419774, 0.02084048418313958, 0.14766406396730314, -0.1470607563830535, -0.04345960412429355, -0.14901287127562235, 0.07974821732920244, -0.018941398067914367, 0.025335913132811885, -0.07992328117770525, -0.22327377463484274, 0.11533478442506316, -0.043298023159462726, -0.047175737771877044, 0.04455198692408182, 0.11940697238034453, 0.08068643349986637, 0.0005932387622809492, -0.1388798633366558, 0.09498213427212544, -0.03398112590949539, 0.002027972271550149, 0.13927567793671675], [-0.07754309178899423, 0.2453816935859835, 0.01886451978617153, 0.1198367871959701, -0.043271340563605064, 0.003566641414552916, 0.216762239274719, 0.04713913926149708, 0.19538359320091625, -0.01677769950699184, 0.08838219986641609, 0.33335728734374437, -0.03252817789785709, 0.09875124340427247, 0.08590609691546484, -0.01954606956249589, 0.0003950113852580725, -0.2319855665022275, -0.026776470790356336, -0.10575899678719611, -0.062095516798885246, 0.0858306412094995, 0.1592754060861851, 0.20906576095888116, 0.1073488291968695, -0.040780826913609534, -0.1428202400583298, 0.13572195132396178, 0.0016403533399487731, -0.04720650564069478, 0.12937050236925132, -0.114531943823872, 0.16919160183184043, 0.0887137212796667, -0.11494059020038842, -0.08416379444080624, 0.2009922270991991, 0.1029721778500184, -0.15744524508416574, -0.10962284522632337, -0.04443299767466626, -0.06578825402389929, 0.13005655010191694, 0.14618750308947936, 0.2333744733056647, -0.07773883657479726, 0.005534219082942496, 0.01645566886203654, -0.059037492596479765, -0.08617099299769163, -0.015130680566660079, -0.001343719965359219, 0.13136545105029973, -0.029803015021461567, 0.05507717216961101, 0.06436755443298185, -0.1411595215231104, -0.01896137651539263, 0.06187821974850202, -0.024631262594045533, 0.3159008574695191, 0.024548095356350042, -0.22264586313687734, -0.06887778167022177, -0.011824145848994145, 0.0748899058818099, 0.2429134474794424, -0.08578773498096945, 0.14375588178844723, 0.12907383156608834, 0.18566716096353195, 0.11406992027312629, 0.07804611300581112, -0.034421477988911944, -0.013563780138840761, 0.2860500259789101, 0.12231927905102168, 0.09720441639625774, 0.01783899650343703, 0.12056375820868176, 0.1342452681167693, -0.2432719465322418, -0.040208481633944984, 0.06368525395973047, -0.2122205462585983, 0.052232661955954586, 0.253109038443811, 0.10152990375082803, 0.01221323318544467, -0.043792619848654665, -0.004675087148889613, 0.1036336292325722, -0.09931487923700873, -0.15234190310863135, 0.08081479268185791, -0.18818122417019176, -0.006395557261441583, 0.1493777271502897, 0.06571355852731386, -0.13986383755519416, -0.09278639465580453, -0.1766245804584879, 0.1595467258559146, -0.04897840430869796, 0.04900054862387494, 0.005720148833162532, 0.21416587423764327, 0.06541136590310732, 0.02577056030281301, -0.08842876929413176, 0.31542612803704406, -0.015602514067018094, -0.024318287054734093, 0.061006942959677256, 0.057518353580947264, 0.1279007452985423, -0.013229244629477442, 0.0029498958703193475, 0.19651090167239882, -0.018630391398997425, 0.16051041886637954, 0.14163840306560996, -0.016536650959134393, -0.1954785025090153, -0.30941251698395483, 0.0060965164288126015, -0.1491232150755296, -0.010643177437019972, 0.053530315518894665, -0.07052968343850306, 0.04032526327070514, 0.280224761645727, -0.10600871502488605, -0.1420670649750333, 0.010534247771182783, -0.06850760408002823, -0.10679002463669558, -0.12448355628501219, 0.16788508305196104, -0.025590012340899724, -0.05907869068143626, 0.30449242581920133, -0.12451953523801947, 0.0038300893130481196], [-0.03496319892368278, -0.19753510129148436, 0.34209455817759993, 0.042961553370094975, 0.2933620112315399, -0.3269691764363303, 0.020150644058457103, 0.09664856739364514, -0.022086794492209145, -0.15521770201913682, -0.06727916555577894, 0.10065855282825853, 0.13936270919665147, 0.10504116552847825, -0.042327898175584314, 0.25653389177601466, -0.18411793219487682, 0.14623704538279, -0.053958390863947596, -0.20316370613613455, -0.11849477356887245, -0.09682410523175607, 0.07040608234130431, -0.0029463056817002563, 0.19172295940198142, -0.07827813366171998, 0.047036298745345206, 0.05773487550149337, -0.02990171277586749, 0.08175976201740538, 0.18098561202203595, -0.05896420167348269, -0.34840613301854084, -0.13281986518289787, -0.11270743985175205, 0.023993192553970658, -0.005170911267962546, -0.10371672338075548, 0.219284672396528, 0.018969400924190395, 0.2066734434234096, -0.0017900572279939597, -0.03214294142570219, -0.14522798207837995, -0.02217735620141051, -0.16409986659976147, 0.1295395110905942, -0.00013381910012827885, -0.03014492401630224, 0.005848095097809021, 0.07274695235114151, 0.0963346992667832, 0.13896314699120518, -0.18640946774296982, 0.07200367917392379, -0.07257730612660877, 0.05464734898277059, 0.1074490137321069, -0.23258732467670368, -0.10736187597733471, -0.11329834348634397, 0.07518460951221426, 0.12143639072012319, 0.16259875960570735, 0.0517518242680591, -0.00413262665118527, 0.13817168418204806, 0.09214406831467016, 0.10613438522521766, -0.09658762864561125, 0.11884438537686129, -0.05711962887499371, -0.01946409817131124, 0.21474727301797458, 0.1648897707174445, 0.0809346900003798, -0.07096965616305353, -0.1003769771763078, 0.3691041486001291, -0.05773561396603388, -0.025729864430098268, -0.21313789590689464, 0.14906391498880095, -0.03421874606119205, 0.14577387718840557, -0.025466530624702048, -0.1953883488690725, 0.003501617440169144, 0.11231790510824566, -0.017614100440760255, 0.1662711916744703, -0.023300148287334056, -0.06191238155832443, 0.10282634979338172, 0.2407088000243022, 0.14123522596432028, 0.07701615329454954, 0.031189002406309778, -0.0462794656196901, 0.1414978423988692, -0.009733561143295521, -0.01828884247552791, -0.05624517858920349, -0.01235234516625861, 0.0679388827499202, -0.16598955443282495, 0.10082864437330628, -0.21394946920683652, 0.17854969571353965, 0.12049207305817863, 0.1412430092928344, -0.19311184595848618, 0.022824246587804378, 0.09374446050579291, 0.2424856547531655, -0.2174489157347009, 0.08876485353542744, -0.1661513695461298, -0.003510828569691045, -0.12053372114572115, -0.131103652317027, 0.11396366842726043, 0.128423232400984, -0.17234038770871318, -0.10820892427634068, 0.18389593417624633, -0.20008637060017753, 0.18254142192973302, 0.11992264855935328, 0.09265557682006556, -0.1991936666190676, -0.022834601284197554, -0.012949640079993024, 0.10696215487596425, -0.034028683828716495, 0.14377613178547136, 0.09302685016598947, 0.1641451877951243, -0.19424070818998432, 0.0729055116503989, -0.040553166730490926, -0.2863856784476794, 0.18534004896953407, 0.354537003624346], [-0.17757553028648687, 0.1151520686765547, -0.01868426355795578, 0.09743006626536307, 0.12590167755797158, -0.0303524183609888, 0.1689632530676896, 0.09977377751397741, 0.019745232444027927, -0.25808305472844284, 0.13557919160406154, -0.03205280438230388, 0.06026217127821416, 0.20057804000412977, 0.08445446494816627, -0.0494556727831454, 0.057255457114781395, -0.0598491723909286, 0.1307501075788154, -0.029489148552558186, -0.01663526110771998, -0.07761615308707767, -0.015773428166806373, 0.05636471736847689, 0.03144106147147163, -0.0628961257552768, 0.09413523459173145, -0.06940688941695913, 0.11183228181905776, 0.0935865220088015, 0.025114723902408504, -0.1557950787944563, -0.40369265188107456, -0.16353616956086997, -0.2793385252437623, -0.01715703198863939, 0.11706066666666305, 0.12885407531823545, 0.09767226069390472, -0.016323679318913466, 0.07896255195499209, 0.022143250264511933, 0.03437917478037414, 0.15227570810592797, 0.03818784094117783, -0.25209628269204065, 0.175584578280603, -0.26450958575217715, -0.10355620765615965, -0.30448207232080454, 0.08643934689263813, -0.08126649311005806, -0.046066971740384294, -0.06380277158467278, 0.05094922965912642, -0.017350227716938556, -0.3175372908411975, -0.06798338726188814, 0.1503961411742934, 0.07118455204653903, 0.13346334056982598, 0.24085769289395487, -0.18428677723411008, -0.1501067129778707, 0.078176164512432, 0.027345140998955672, 0.20910132826509129, 0.009162071283159686, -0.04290555998191787, 0.06791947994425718, 0.0005883489326170426, -0.169768382733003, -0.033911120420852765, -0.10740834646351236, 0.28193395136080684, 0.02251333129139047, 0.10872055661687495, -0.11217268025875198, -0.0697489238104415, -0.12854124878787965, 0.07828615976190051, -0.027801518241637287, 0.08667623619196901, -0.2018788866734676, -0.1478073854936054, 0.08292034303453845, -0.31592902441759757, 0.12144175674780523, 0.05378476363186856, 0.05957477301602199, 0.34364745215439907, 0.10962495402368787, -0.0453590686589621, 0.3885905228827703, -0.08562583485766964, -0.157414341664699, -0.3880637612851536, 0.07630816193119637, 0.12243509924305247, 0.011737800159437865, -0.2462456511743906, -0.08729493266383581, 0.04405511913613237, -0.1749563027074555, 0.00010358129468547961, 0.13627630660491055, 0.06717432573239031, -0.19419019502683282, -0.0028784372285888247, -0.10027321907259047, 0.02469127370392703, -0.11355705925815208, 0.008284573714073299, 0.12202549802408379, 0.22625081530312577, 0.17006025072735784, 0.1370288086047646, -0.10079908644429088, 0.19928844573847707, 0.1311052906972425, 0.04005738201023165, -0.11908123859632316, 0.11579494372439048, -0.06812607250102448, -0.0517122871908615, 0.04197241162387162, -0.10171292322470978, 0.02191204217800971, -0.13297379862236858, 0.19426985708892316, -0.0002960470325393095, -0.25497711157141395, 0.16958314212917056, -0.09292465701048296, -0.019637209435561277, -0.16544048340672307, -0.04758219135222473, -0.1501094450167604, -0.049147056078227426, -0.012561549474066543, -0.18185460594435277, 0.0014256212342741176, -0.04602600121101592, -0.045092052590158055], [0.0842694791100011, 0.2836263642996781, 0.2740803043072366, 0.21783170861180062, 0.13375601941794643, 0.25038316304244873, 0.04903141968284705, -0.20718066071893815, -0.049503405246335355, 0.0708657455232766, 0.1461546579866638, 0.11572628472870836, -0.12416799612437082, 0.03847907031257238, -0.06041684855628412, 0.154758767920407, 0.14035863768907178, -0.4487956311916701, -0.017313364866602378, -0.051158654827312036, 0.03115857355563027, -0.10067995065935649, 0.005301064879183444, -0.053117495016898844, 0.07124803873990161, -0.18822551820033356, 0.10812933525738347, 0.12728690963845146, -0.15772622849402426, 0.08092829073979387, -0.1116850965590963, -0.12214880891065819, 0.11318865458117117, 0.04739364108556038, -0.1460506583068379, -0.16491810075782123, 0.23281121302199587, -0.166303308688952, -0.13077998102485994, 0.017392157093608338, -0.0634542247323868, 0.217234492373252, 0.12367332845941306, -0.038127171135808366, -0.01616209601785477, 0.005554815592668517, 0.051653708669209736, 0.016857766969207263, -0.2277850983677887, 0.03043676160460958, -0.017475532789398972, 0.0760634742974076, 0.12568718700417517, -0.014244240572008808, -0.05329674723703223, 0.24058636126781754, 0.05680726217686538, -0.0789403277908373, 0.03938847798980892, 0.10233957114150773, 0.19350033819885762, 0.15556401567367512, 0.036161718442015704, -0.1979789402585629, 0.03538930119972569, -0.16809178836691463, 0.14451063392964572, -0.23527563759048487, -0.1804671388045591, 0.19245654559638178, 0.16431144697573433, 0.018935524678982452, -0.03307195974263549, -0.1149057969245529, -0.12597587350308778, -0.2504184465984758, 0.21340646231559815, -0.31173805701808915, -0.030145002727767895, -0.08012792294525035, -0.2505619026797549, -0.025665842159754582, 0.09162125461423906, 0.09369087177585642, -0.06167751982571734, -0.01882389055790984, -0.004559836310433374, -0.05968201485818833, 0.0013669001288257895, -0.12879372311178686, 0.21660563920638798, 0.1777233593814114, -0.04660618237766712, -0.00867179487021133, -0.10540400024430992, -0.043866808083112885, 0.1647877628149219, -0.11558608860359833, 0.03331088545618846, 0.25653532625594627, 0.06775088377581426, 0.18991746640836438, 0.1585679459469373, 0.012330262990845943, 0.039279590546226775, -0.01800501050170468, -0.16992352614553832, 0.13612135738676787, -0.06432612898198364, 0.27227672030448347, -0.15534015185394603, -0.2669531926763216, 0.194449861016, -0.057357190748627974, -0.07355129642251595, 0.04686803974148442, 0.05143915186921252, 0.15180039814355042, -0.015285057051919999, -0.03328444057623556, -0.10375856307612763, 0.0954413633593327, 0.18899348599638802, -0.01519808812981856, 0.11284534361270923, 0.09555285537511068, -0.1410106025153229, 0.17130437478470423, 0.00283170873169923, -0.1571546408001603, 0.2078745272187484, 0.09019822949941912, 0.22175790642369334, -0.036785280584606096, -0.07527945841913825, 0.02110010546334506, -0.09280684273290592, -0.05363467686647385, -0.10810138576552898, -0.1897945109056246, -0.212260178388858, 0.07760577358315744, 0.20641129840040515, 0.10453575502437681], [-0.12171682627201191, 0.12477596382935552, 0.04451149805175398, 0.12858211648531015, -0.0530644829115294, -0.03572733687494078, 0.06570719005069905, 0.0019685030257668226, -0.1053688023583941, -0.08774621333636326, 0.12459310230757092, 0.03785911582492229, -0.1584430545168687, -0.01417846409927363, 0.07705252449723114, -0.06530630657875817, -0.05472571635366205, -0.0028337818584506774, 0.12471613974802213, -0.28330684972915027, -0.05533131002620885, 0.0832937923889962, -0.24703539200517796, 0.11003241340434534, 0.12492513326702531, 0.13285253538327785, 0.07946527481316493, -0.19181859165491907, 0.36194224024978794, 0.06195341834325206, -0.19377906237743378, -0.18049465555605057, 0.04502362137903263, -0.1886794672737397, 0.11750740328008923, -0.13322872712221268, 0.11219197962323958, -0.22922690319806444, 0.3742819795790471, 0.0907641230730023, 0.23449334095294905, -0.17945252279918075, -0.17839512660322523, 0.017838891780383056, 0.1665512775053392, -0.10678853014559077, -0.18044220972014344, -0.05988553524104681, -0.04944006689493444, -0.15382273884199965, -0.08459207039795097, 0.06399139564562469, -0.0861381451664592, 0.021491112202731054, 0.010739794732117227, -0.07169050305529193, 0.12003339423299787, 0.014524836199374856, -0.11006642650492361, -0.08669880717021107, -0.03259045334752572, -0.3284745422324798, 0.1299395229221166, 0.2550526822549898, -0.04076337468261613, -0.19927363052356115, -0.1396648323553638, 0.00855338617137574, 0.18999531960479493, -0.21096031112097718, -0.06482073247281192, -0.09843985457549256, 0.041186745979272, 0.06038580927424266, 0.11720007346040012, -0.038580399377643466, 0.12748707379597024, -0.06463931209845296, 0.11522593201743667, 0.16650485011386545, -0.19203561398214725, -0.144099070812426, 0.08502856607300459, -0.13700155174681564, -0.032797212472891975, -0.20151906729018304, -0.2623150509099568, 0.03794595292462571, -0.06756280431850621, 0.0973110092660198, 0.18739001087688317, 0.09491538400546985, 0.0581994032737536, 0.2301374990762034, -0.07655676033403731, -0.05344752757809928, 0.021752865825332198, -0.28688865910619515, -0.12332560231326874, -0.021445322755243343, -0.12045099274735376, -0.07072313413575265, 0.28604925603130643, -0.12201346231442858, 0.03803714505401084, -0.16933440932849242, 0.0645932237872449, -0.02293524421444001, -0.13472474625222708, 0.10751645386532441, -0.01628471145148976, -0.06339306019073905, -0.037296154655377965, 0.14249994364161683, -0.037644497473229475, -0.15405506069117975, 0.14613141851214032, -0.04924955421210758, 0.2931697663952063, 0.22197259773991765, -0.02907663260128311, -0.1475461409068736, 0.19885160080455144, -0.16970076926722347, -0.043593641392303796, -0.13215963611077278, 0.221070085950669, -0.1630435547539628, 0.2881994257433705, -0.060747472854346105, 0.12279922207282075, -0.13617607716409216, -0.12995448789630945, -0.19539011087516128, -0.12313420980301655, 0.14006855153099115, 0.03281665397801127, -0.2734737239882697, 0.15299345709196333, 0.13300121100440873, 0.13947561983371215, 0.057009229285981455, -0.10568792303311146, -0.043123341492367843], [-0.09779533410006136, -0.019398162814503843, 0.1127928278189184, 0.23036308018675267, 0.026009081364677115, -0.015755763038860792, 0.08381144375263257, -0.18784535710794517, -0.05676640057704005, -0.04150374119895958, -0.056847431041525086, -0.18295560728620106, -0.12395167687841492, 0.12616141387742474, 0.08361725496956314, -0.021519704449869486, -0.031026744462701452, -0.2697476205886651, -0.041329467535719686, 0.34704586430881057, -0.05846515821215918, -0.16729681455211043, -0.09094951933745063, 0.19138616232295788, 0.07084667507019045, 0.30652937082771103, 0.04491312450144117, -0.06488178155560492, -0.19837571705740492, -0.04075119852184176, 0.1749414287530934, -0.011072227695655155, -0.03620707752691984, 0.09572287648303011, -0.06082819150673849, -0.11249420795919818, 0.174801447704161, 0.20742042496734867, 0.04153869238565174, 0.11835117785662307, 0.10532727731156301, 0.11520332913527291, 0.13764530973699693, 0.13467696826368394, -0.10173848318404485, 0.09074081036552924, -0.20931192642051563, -0.08387035471761191, -0.008089655189251267, 0.10360852495208697, 0.14347794488502583, 0.14204624500746502, -0.0845273033567375, -0.22345440609271217, 0.09400979931930958, 0.25153001522755536, 0.16467498961005816, 0.01942717393794157, -0.06080738327166376, 0.062333253719753026, -0.08129652064720111, 0.03842958672131622, -0.07826538129815286, 0.08127751493056767, 0.030050430286978347, -0.1963096492960833, -0.035087500341747686, 0.2398148365070144, 0.14555087432376462, 0.0743593609254611, -0.04456478230882304, -0.028635074754258662, -0.03258873961990205, 0.05533959678854221, -0.005332352274411023, 0.16048002630652905, -0.0046240953197826925, 0.019954708069616613, -0.08297390303916605, -0.22082975773865254, -0.1421166696201643, 0.07366894711223218, 0.042955211706137274, 0.10353242354510098, 0.2256285912468811, -0.018935793914941518, -0.07345202746702041, -0.17960395651245104, -0.11748462583854571, 0.16785218797492293, -0.0800193051863384, 0.17955051184372572, -0.07976125174235607, 0.010961770878892559, -0.08082457567479732, -0.1427975400957934, 0.07551711511500939, -0.19224989053574248, -0.08764914343527948, 0.2515697829492748, -0.05100011245241527, -0.04984059276827812, 0.06089587442550839, -0.12675107338967934, -0.16731947736403607, 0.07572715491449529, -0.18220077501750065, -0.07871875837620704, -0.11322314857105671, -0.03680642529162786, 0.22613398519405503, 0.05878891809509846, 0.16226015518304157, -0.061169229029254646, -0.06268322226431576, 0.18172470353082443, -0.02302874406756556, -0.11891145843855783, -0.028314600770621895, 0.2671143022737167, -0.020851076422938132, -0.08561528400434484, 0.05652474355793412, 0.0075665787417363356, 0.23790874197739106, 0.03438168831623228, -0.09952116594882808, 0.17704767474524868, -0.013298075542969471, 0.16749361345595815, 0.043976561412403505, -0.05788443349382122, -0.007759988225973493, -0.19741068569964176, 0.09607184258881246, 0.09091874493080106, 0.1782061013114818, 0.10042853186184733, 0.05754508408510244, 0.23673860624073376, 0.009524612350189046, 0.031764945178368795, 0.1334909506524826, -0.21510936515232704], [0.22098276947975784, 0.12819707057455107, -0.06110225604333117, 0.07881162826893295, 0.12552269397645568, 0.11894845752336226, -0.05495699459375059, 0.23536174287364642, 0.16042491545184576, -0.10157343082861109, 0.1435049805267189, 0.04017529556141923, 0.20914799009514595, 0.10870966975666231, 0.06138947764060911, 0.1303554576837029, -0.14965336752143, 0.00833946889274367, 0.08606281401516201, -0.13991585269165824, 0.08667160437955251, 0.10099029369324909, -0.1554093571562099, 0.039152771723412555, 0.1255812186598655, -0.07771745436870309, -0.08654244124288203, -0.0716466031259225, -0.02191451809339846, 0.000625689000656305, 0.05597412283560774, -0.039339040682169, -0.04452482988637691, 0.01372343509911742, 0.1133970685105114, 0.14085491925160534, 0.17360578631748663, 0.001938035307469889, -0.050212162929771716, 0.20883081604298487, 0.29606699756541255, 0.0035076936175747198, 0.061936597771572656, 0.13887249918276365, -0.06834269759164062, 0.16276957072497386, 0.07027125379389877, -0.12362030333310021, -0.13637134271463305, 0.0007150311409276452, 0.08948128516501508, -0.005457484149556604, 0.035640681561845244, -0.03747963786776078, 0.07410375369995917, 0.054961237212755476, -0.043672226973735406, 0.12718749178510672, -0.014564052447890816, 0.07668876846256968, -0.06533285092328164, 0.19961645346369705, 0.0243197574130559, 0.12439287971189945, -0.0663979783713467, 0.011875845851684327, 0.010582427809544279, -0.0346847146172559, -0.19033268773020792, -0.02054221905252365, 0.12132536580319454, -0.11730828186533732, 0.09394438608336364, -0.23358269866606318, 0.15429847425736942, 0.024868764131004747, 0.16739589443563563, -0.00859907067663925, -0.18479271212350887, -0.11990833746782956, 0.03503018000337665, -0.2085382630239606, -0.01532253345371349, -0.035219560353698005, 0.2655709454493785, -0.192956133352459, 0.3429042125431016, 0.06845185010060349, 0.29852368640694077, 0.0295387707938613, 0.06527183459194992, 0.09745859692052716, 0.2436060080059842, 0.11668290689437447, 0.09501775648197959, -0.23341501018836927, 0.15971207565609763, -0.17976913498751404, 0.11911867478845792, 0.1529498884580587, -0.1546961063936269, -0.04947385555324156, 0.20160349544115874, 0.07547101370987039, 0.06097349034329977, 0.12391272234469065, -0.20290176944113106, 0.02213432215019655, -0.21299223556426888, -0.07636246571011732, 0.011383279365268393, -0.22579043675693158, 0.19379976668399299, -0.20865816118942943, 0.3351116794971444, -0.06903241616288154, -0.23679154343540162, 0.0034936549664360455, 0.25778856241840176, -0.03388017752130173, 0.052532670663448515, -0.058947274052702815, -0.028675262140638546, 0.09503101211601868, -0.13767380022520267, -0.22670758645297784, -0.039533755856341564, -0.12636998359360652, -0.18296277513896944, 0.028371842217315455, -0.0037719593215108445, -0.3268893740820324, -0.08100069663091451, -0.2335406524360593, -0.0746521865688693, -0.18525188824447825, 0.11455105319509752, 0.2897882076255667, 0.1793604192853117, 0.3407972111646517, -0.09269155171604339, -0.11119062374643232, -0.1487808041587291, 0.09483948532381443], [-0.11446240766878825, -0.14224164151391985, 0.24102714068203626, 0.0837651098030296, 0.02926434330623107, 0.11465914217284458, 0.034449153150027265, 0.09728899007354544, 0.12865377830993477, 0.1130874203225116, 0.1124079124351366, -0.015491174121454643, -0.13576112790956973, 0.1098535949715888, 0.12460759880375934, -0.05252522593770811, -0.2402140527656566, -0.14872054209202046, -0.1240228998761863, 0.1198663202059387, -0.044477334035459754, -0.00873801379818962, -0.03301205593983055, 0.17719673588964852, 0.07830322705358903, -0.02536866895705667, -0.05150603758814026, 0.03706674018742365, -0.1591035083092239, 0.10895039395505628, 0.04027733241639698, 0.14063521229593673, 0.05507866858138176, -0.00764371917251528, -0.004897407017596636, -0.1440718544845787, -0.025491454250404243, 0.004871123466308222, -0.2465421587433445, -0.07753492591455372, 0.021684677623168135, -0.004000371015787906, 0.2503843822669378, -0.08489060214989243, 0.04683723546453927, 0.20484516457723848, -0.06657041986757194, 0.03388911131695794, 0.08315472482770489, -0.03662281455894956, 0.34857375741458874, 0.03960869756392608, -0.05933294617592952, 0.22140369271261015, 0.03201510667265533, 0.31860668803158, -0.041605731859586326, 0.212150841826478, 0.2167194639282459, 0.0013188736085141956, -0.0977925535882445, -0.09575132917902579, -0.13504421200018712, -0.08234754714565161, -0.05130815940750587, -0.11025499460060298, 0.42262819497969556, 0.04190459708436313, 0.08659257196370257, -0.16586796319563654, -0.029747147292465553, 0.10939898044409858, 0.004817332704690715, -0.22456070484000334, 0.08708958396820339, -0.09125053649226106, -0.027465609843789922, -0.24093131502019227, 0.10074153501270863, -0.06007708166049354, 0.14617740186997702, 0.05210427068863174, 0.003670720659464717, -0.06457010529117722, -0.019922477411677617, 0.004233355441566925, 0.017388620766759053, 0.15147877463559944, 0.25112807565089024, 0.22184899879010436, -0.16529586808534516, 0.0062591637456144295, 0.03770968434420386, -0.1145705443324978, 0.16515231103263545, 0.1226906013581604, -0.13653853325888468, -0.16744629083924656, -0.09232201404822829, 0.13295164233429296, -0.24709633245445686, -0.02610574291834212, 0.00013776715834042764, 0.03667449285927436, -0.03830226632041364, -0.07769075206637095, 0.228095189047994, -0.1947781919822232, -0.03292764072221364, 0.029154582590198215, -0.11779029069665267, -0.11107717056601236, 0.18752470948457584, -0.10762412370376633, -0.06302758149609118, 0.12516475854005607, -0.06652064710062576, -0.016058917965185618, -0.12581468572897822, 0.06943113599442562, 0.02652725462593777, -0.12347815595657136, -0.017569075223988255, -0.005316504137987935, 0.18810586660976805, -0.11581394190866988, 0.18367781131016547, 0.2027827967144589, 0.2012932474455469, -0.14108265554916052, 0.11192171382399184, 0.03275354111697282, 0.17207770202357905, -0.16520952246324425, -0.10175359313288561, 0.03699688001156476, 0.0133667201108216, -0.06300174747782186, 0.001766327841144939, 0.007450207047939184, -0.03539593862950121, 0.0253472712231785, -0.12076477566287372, 0.1512640009567585], [-0.2340646032707708, 0.12859068179363262, -0.07258859481555391, -0.23648434313227992, 0.029693587268684814, 0.08095053622331816, -0.09880554526560595, 0.05976255860455174, -0.09117756866059074, -0.0006656318160614135, -0.21998705005445668, -0.05934248384132881, 0.04388613999515573, -0.24906056533754628, 0.11251941866354634, 0.06641900243205212, 0.09822384718040379, -0.3321550364958786, 0.41840706303394865, 0.00990584699236583, 0.12292959064019662, -0.26812699344398594, 0.06220838928112881, 0.0841363417852078, 0.034156813840298, -0.050438160645163724, -0.25366997869596997, 0.11274480182461225, -0.037728189551256695, 0.1804444020524849, -0.1782386371820092, -0.22413724764501405, -0.09566489877568297, 0.16181105604603802, 0.1366987633158086, -0.025167471271401124, -0.017233447660041316, -0.031820644236662206, 0.16507155777589574, 0.029626903777057095, 0.1556561767333638, 0.10996256531068171, -0.07699778993510484, -0.012544388751993329, 0.15480833821933415, 0.039858875089872535, -0.007899299396385881, -0.047856088386367145, -0.01390548811775175, 0.08365104753931278, -0.18636660084787093, 0.18357105734231802, 0.021969700076413405, 0.16252269805426092, -0.14601451788561196, 0.2716898118276757, 0.1758991877779176, 0.21228198556510106, 0.05759009563635929, -0.2814933719196115, -0.05733273352651062, -0.09289221260064903, -0.018954546074338705, -0.052003298372185446, -0.07841612781200225, 0.06766029523861748, -0.011667717936242977, -0.14201191984424458, -0.08197491393406552, -0.013762017934556163, 0.1941914654235148, -0.06469012807174936, -0.007667278578166118, 0.03469810979697656, 0.1627405047096991, 0.01133799697379094, -0.11281206204140201, -0.05279685797135579, 0.007277131654496991, 0.17529321185628172, 0.2186931236940407, -0.05124664347038529, 0.0044238731369161, -0.05091640223095415, 0.15699336848023124, 0.1913577249727338, 0.08718713782608888, -0.08640517773786487, -0.2621118649288731, 0.0037451295216664117, -0.03675715921768264, 0.10923736332899447, 0.04953553494475963, -0.016663901181423517, -0.12733357581586738, 0.33387337994676325, -0.08435140726437687, -0.0025294597385225734, -0.016119949525232373, 0.057041087788743644, 0.23871926415593545, -0.016513855852588053, 0.31340793677680717, 0.13661685168944318, -0.11834986617247595, 0.05449894695987361, -0.08329288985045065, -0.008219224531001755, -0.04449383761583012, -0.16751709259807546, 0.06416164298052175, -0.06424063114206431, -0.02858551772601816, -0.05500175106401668, 0.03966463065561242, -0.07647889338177641, -0.16587347374220307, -0.1188211205285094, 0.016082673551004692, -0.10157676542437163, 0.14625384195357882, 0.05482703208715975, 0.17049486394844668, -0.06462238645562506, 0.17976832055936445, 1.9145845601230165e-05, -0.06350914360486785, 0.16794826290895426, 0.0006350692374117033, -0.023883936788665287, -0.14380528179742239, -0.09848893762187333, 0.07652178885142437, -0.027320827237117602, 0.306088315953961, -0.14979507787311533, -0.08289390306303372, -0.2431491743612237, -0.1507553178416875, 0.062778568134877, -0.1545416727520176, -0.12653273809488744, 0.03592428988917093, 0.021845211015553194], [0.03832770523512869, 0.17733378124557198, -0.26290302648901437, -0.0011739049308188533, 0.02641620474460456, 0.1703926365378147, -0.1992191041846249, 0.09883550158620004, 0.04674821221666269, -0.12543510709243158, -0.04261622055587564, -0.1130183746727668, -0.10276615712371169, -0.21116982087773534, 0.12555312958138276, -0.016171332977502603, 0.03524343982228231, -0.014879329501433768, 0.03245112718915573, 0.08840555129062856, 0.09579826879457794, -0.07037588056270193, -0.2571347551877166, -0.03217049603324034, 0.18288226529201512, 0.1634831933861195, 0.11085773751714152, -0.16409168499562207, 0.16863869861012287, -0.05989341405774068, -0.042514261915697515, -0.3237779150017428, -0.10232973453137664, 0.07147248994904946, -0.11980338695055785, 0.1558990490395205, 0.05423028857293184, 0.045138800535910364, -0.25595955120122044, 0.20103034537652031, -0.06831880598189909, 0.09785482166614447, 0.08555536689608431, 0.2335882208289069, 0.17342798952777114, -0.011691416279429288, 0.041832248191169305, 0.011740051972160086, 0.24970748402972642, -0.01363022343938236, 0.050487631225659926, -0.024066784642991754, -0.08859102939624265, -0.052176657110545054, 0.02654593407158864, 0.0026543852170783093, 0.1306222330012799, -0.22486072881930333, 0.1385152107542908, -0.1266540691357662, 0.16231080040143128, 0.15059994168453153, 0.14443291688846124, -0.019843089833246785, -0.05002382167362668, 0.08487528260885473, -0.14804186918422776, 0.04100678914434613, -0.0026229818393984938, 0.08228578247513665, 0.19272530772920085, 0.125995394002308, 0.25522907125309985, -0.15514991977384257, -0.33268262849211844, -0.08329067154709652, -0.21630227269870944, -0.10372125213996403, -0.06467531674230316, -0.18701795435923965, -0.10993281149553281, 0.006360240203498894, -0.045765004504168705, 0.05197752721532989, -0.2644907987939278, 0.3255577293004901, -0.08995532182120189, -0.08355280020127118, 0.04383326702328579, 0.02330205987464211, 0.05821781393217215, 0.04377803013922158, -0.08296654179660651, 0.27088774501501894, 0.1481922794554951, 0.002488336771435904, 0.1325688273180049, 0.07002829138241602, 0.15958030066138787, -0.012769640435779946, 0.10510421342908413, 0.07310844345850949, 0.1110934198035676, -0.006830479387439193, 0.17615440803779026, -0.15722303697863405, -0.16571361572037405, -0.04495264310815824, -0.18115668931510007, -0.03773456396311245, -0.15306026561978112, 0.0018004624527797636, 0.01976282806124466, -0.1479462193290859, 0.06382083963778425, -0.06040925514585452, -0.09890146710423468, -0.027949369221230095, -0.14036033119033617, 0.015337966739922722, -0.06634606890032363, -0.4311731066415628, 0.06433309863258947, 0.04095086968424053, 0.10752837165174568, 0.15148422825464075, 0.10305484046187215, -0.020730740893622628, -0.024492675024512526, -0.20061774563906012, 0.16243254048514652, 0.04654557674002604, 0.13585767099217058, 0.31809036096475607, -0.057264344103084945, -0.22435143424036313, -0.014479198639997604, -0.12575760147285533, 0.2199811969059616, 0.18301116555631183, 0.04872181645481656, 0.06863201973858978, 0.09437518788175504, -0.1606745466771828], [-0.10175891110773666, 0.06537936149572066, -0.15765508192578215, 0.08774313523695496, 0.0936642834446195, -0.1390021819187866, -0.0231821104980531, -0.03056676103074596, 0.023982420107965377, 0.16011455706473932, -0.27781354853918966, 0.0901693887078883, 0.017474654550955305, 0.17198513576006122, 0.32093227431330773, 0.021311999283109482, -0.10316841967909907, 0.016102427970758604, -0.10167773528110498, 0.12872794009414568, 0.21537148742970427, -0.10553636108812114, -0.1429710230940697, -0.21459010719764893, -0.02203747798979658, -0.1681755191622144, -0.16525165698850147, -0.13653493512231718, -0.06026233794485546, 0.16373533029850088, 0.0666604274345034, -0.13190409660584274, -0.20767874385021676, 0.3742678622659543, 0.03952409377355742, 0.24496045853451517, 0.07187207957929213, 0.04939089086409776, 0.03328259907387014, -0.07588845589622722, 0.181376610297553, -0.13272134353144296, 0.1877965267681551, 0.1758866602997958, 0.03824935235870155, 0.06022499397693361, -0.042299650304690004, 0.2126222348476373, -0.07995166187863467, 0.06920204833360957, 0.11892269629231074, 0.017816523574357524, -0.0045977468021938485, -0.03260852465428279, -0.17502691449749866, -0.290277631942057, -0.015279225068315501, -0.14156374560591306, -0.003195340271516899, -0.10089767152895078, -0.09899156501235212, -0.10260893781749911, 0.11136210528832413, 0.21813307069655424, -0.011406319249971587, 0.23181444320801745, -0.07114947381532448, 0.038293819965365, 0.04304308847323584, 0.11122166308909447, 0.18459377714562192, -0.03676683005034449, 0.0715092581013539, -0.1750427058618337, 0.1943132384735039, -0.061002047649457616, -0.11298658033129666, -0.17605421678689093, 0.015374099731875795, 0.18393597323016075, -0.18099483251119217, 0.12909306644925223, 0.010726343905159702, -0.046974529097170786, -0.22516841128931617, -0.20106006882532648, -0.06504732369079606, -0.08461929200729122, -0.1902063719775124, 0.14711910339916853, 0.08804252086983111, 0.1184811959794455, 0.09905617687507765, -0.2474999293046998, -0.16948392023117925, 0.21196447846329383, -0.09164890759264628, -0.14922444689233047, -0.07216407059551531, -0.11539222826174783, -0.1584297125528439, -0.17805064867328216, -0.08236220185519524, 0.20715135329944226, 0.22011409155233205, -0.04487465738969548, -0.006455396938641292, -0.16492651042308754, 0.0048428175170903524, -0.07149455776289099, 0.13885700702496895, 0.1744841171886574, -0.056009863837338573, 0.017859421748546687, -0.01974588367268419, -0.03189312932462211, 0.05482758987045376, -0.22984869901101906, -0.2017950482667826, 0.09156128460533393, -0.03134559310354355, -0.0728369093451021, 0.11907065393518741, 0.029219372736574215, -0.013749579517371446, -0.11965593453284262, 0.126681964893211, -0.016153573543626183, 0.002586762513502272, 0.2501745669891649, 0.042076785111060895, 0.06026788594461707, -0.02210998869754472, 0.22075397322417734, 0.2802969143552739, 0.005014833447175258, 0.08304095496972251, -0.055148863324824285, -0.10010701993332752, 0.0012083560530862627, -0.06404615748607324, 0.12831851572878716, 0.0747821022010685, -0.18011989220220118], [0.18274590337844368, 0.22568054369084528, -0.23243223835449028, -0.04342370139159486, -0.15173784793654382, 0.4174502930421668, -0.0907017714777021, 0.039846074738827834, -0.007528003141529749, -0.09328493046055655, -0.0077162627954466875, -0.16619940732969474, 0.24233610311144427, 0.009244336247725714, -0.05189558315377874, 0.1185496221560813, 0.06525129876378047, 0.19143649725535153, 0.000598577804153851, -0.08652905801411641, -0.018014495538345415, 0.09435421922297484, -0.10090469336405271, 0.0066550686404567095, 0.03993186720156042, -0.02195512671165007, 0.16971287911807012, -0.21165876193244007, -0.19449686383884168, 0.01043231308404949, 0.003479627789884836, -0.14520086053658396, 0.06458883540302268, -0.17870239999085985, 0.1180848381871693, 0.039470124381008505, 0.05240678235429138, -0.07393056678523363, -0.21817305524646424, -0.07027284259374625, -0.2076110846929878, -0.24176835822073084, -0.03428333924991497, 0.058952647268249864, -0.1609973444761573, -0.06550317385536773, 0.10405127667977639, 0.12949629764632964, -0.08254390160410079, 0.05736615175759697, -0.06308399009842745, 0.03608615341434119, -0.263199338953864, -0.2664454518918493, 0.1683855808726838, 0.13469885805071422, -0.08397216632634918, -0.09815107598946686, 0.2051426910396276, 0.16034949468354462, 0.07969031131020753, 0.19141376341424346, -0.0999771128966351, 0.030997351221286808, 0.13449363511619444, 0.014274731771427856, 0.09441042111577277, -0.12608251595693437, 0.199648189226817, 0.27019651495647046, -0.1532298551441152, -0.10119491185488415, -0.03974226616307766, 0.186577630723192, -0.048867341788617506, 0.021748455589680932, 0.13120174180666558, 0.22342222885364366, 0.005251168703085232, 0.005915862341939848, -0.13449008598013235, 0.2556864880163053, 0.059122821269962544, -0.020934538771162328, 0.09882026939251513, 0.0660437655043539, -0.042077262482557755, 0.0105092512937895, -0.18325560109331607, 0.27761280954426226, -0.26627158277053514, 0.01219304019146228, -0.20330129241908185, -0.06838555029288243, 0.1883855186168194, 0.06061737792103351, 0.018381336161825707, 0.24198477214471725, -0.002229688869926289, 0.24985014307791648, 0.031071028459429047, -0.09055119657953045, 0.028444071039139245, 0.0535166084509657, -0.09618432637430169, -0.19668906484521448, -0.014427449188913226, 0.21925260214121303, -0.32674178685168137, 0.06629325222497286, -0.18834811001428026, 0.01605786461838788, -0.05267095422634798, -0.1491366371983617, -0.05338670952302971, -0.18207640721196913, -0.03507947960854006, 0.039664049800543846, -0.22445613560696534, -0.1428765877845521, 0.023138272647259574, -0.13640357939201098, 0.046070677458904384, 0.16740866841525323, -0.06480611557948092, -0.19960058230439626, -0.31367446410232164, -0.04835872028523692, -0.020495129375614277, -0.04333636044987206, -0.11957889442716517, 0.11798409551309987, -0.07122051705481318, -0.007173201590222679, 0.11332422055595417, 0.06332571130958643, -0.011802745666451328, -0.05432733284169, 0.1349052801752131, 0.036887623184111505, 0.1480679194536869, -0.11394184172412208, 0.13861594055172574, 0.07017976526221656], [0.16703774259985138, 0.018656723581861802, 0.38161183682039385, -0.21982636600765204, 0.13240923010111608, 0.1285861700800726, 0.042113099623056253, 0.05916622573499754, 0.17912234007062, -0.03239321150063472, -0.0033979215863858252, 0.21730576377746683, 0.15210420363355695, -0.2695767843157165, 0.16273520023036595, -0.06657953223235714, -0.16254995575837275, -0.010538589761726731, 0.07867219942999384, 0.0771917673254738, 0.07159602761059465, 0.12566810358496833, -0.04751636270943592, 0.036409737035163224, -0.23595828847822722, -0.12081750012565583, 0.009693596984922401, 0.1810604354982192, 0.031998942603519646, -0.377361608307665, -0.08049958219885481, -0.01169767102845231, -0.023045374311635176, -0.15041129918441137, -0.2314024973163109, -0.17618807114466828, -0.015494408962556813, -0.12987233660233088, 0.08061724538734423, -0.21294986853407952, -0.04703802949251833, 0.24330700086401244, -0.03344410320541156, 0.19563560027479754, -0.26283236538274635, 0.13286988934764932, 0.1360057799078354, -0.03202959577133288, -0.08853687924540458, 0.27220363981054063, -0.17871410366664267, 0.19023150101683062, 0.37293881708825777, 0.057234825331939465, -0.04911055674163145, 0.07722140477798828, 0.0767538575921996, 0.22818574089638297, -0.01685707365609674, 0.218985196525609, 0.014163404530650198, -0.041690869530378365, 0.08377985490061189, -0.11723178155561668, -0.07230204282903262, -0.08858339085185238, -0.16334771080393307, 0.1946016270430966, -0.07425446035201835, 0.06033070141558782, 0.17973965100955608, 0.10664441563475623, 0.02532580431594757, 0.0702838343760997, 0.028511763088523746, 0.0996968264319874, -0.18637640400971578, -0.12317914100400822, 0.4455347802827749, -0.033226220556295274, -0.11492522604771059, 0.05021157152389294, 0.06013500421470004, 0.3033276618334875, 0.04276630198155894, -0.12800154479829293, -0.03773594891646557, 0.07184076593182855, -0.25621459773814187, -0.20315999309542665, 0.2618002821128538, -0.1953303893132766, 0.09299092099280648, -0.041085340053298836, -0.10278782591711705, 0.10628886530821072, 0.02246540279057467, 0.06710087587592735, 0.05760924151872839, -0.18251539585204898, -0.15704772732126612, 0.15340453666943865, -0.029970635619887862, 0.0897335127138964, 0.04785886056251532, 0.2336734560398298, 0.16766780960910158, -0.20073897051976164, -0.23089532754575653, -0.021399353089059405, -0.13668232018996726, 0.05827948376501886, 0.10048106428242262, -0.11823039823875406, -0.23070992351294675, 0.007327863201226784, 0.19514514344739445, 0.10203661856846527, 0.3490352742392079, 0.09017725055033818, 0.13268899160382938, 0.22961334376784776, -0.1856326817541501, -0.03861968221128361, 0.043225492034784874, 0.1902367128256788, 0.0853870044865802, 0.163078084484072, -0.06076242194523474, 0.12814459035803116, -0.11685295660622629, 0.03897611824344189, -0.14694641425206073, 0.013201895185021673, 0.13771100980028356, 0.13010736363154624, -0.1596835931453883, 0.022109964286196628, 0.17350792000242674, 0.16063525192277742, -0.1720209707303543, -0.07001034342545928, 0.026288253302464197, 0.268216198806543], [-0.14875175079359165, 0.09516832130424982, 0.11146027187253318, -0.028120353120056514, 0.019658635763309083, -0.2655465252343739, -0.050253278093054486, 0.03834235502690318, 0.12663488010844198, 0.007285645741804258, -0.21993593482329366, 0.1849645548114206, 0.07267155384228548, 0.16997461859221644, -0.04027415721756384, 0.22798637501527452, -0.2569220235966235, 0.038305745421424904, -0.1156313894127919, -0.07188101009675694, 0.31286542178752447, -0.1931815308137248, 0.13026851124422117, 0.168717084766229, 0.04241583974693223, 0.07114977050701858, 0.06814526663952754, 0.2699072665334968, 0.006255164283378542, 0.009403204643601303, 0.07975191984137686, -0.22800095645668425, 0.15327661004699838, -0.08679241102836403, -0.15551509569237418, 0.22339812989606345, -0.08704715677717859, -0.08646294856808032, -0.18227803849594082, -0.1067473709027543, -0.02581028762707376, 0.18138733684341007, 0.028455111854187285, -0.2311199728006458, -0.02596919540713855, -0.024004036495535442, 0.10683316577349528, 0.03022813738561402, -0.02939535733598309, 0.10964643826333775, 0.33793824002312994, -0.031677605812110696, 0.01338573246529371, -0.03486943100398114, 0.11691706395948331, -0.10518055295787666, 0.07792968157614108, 0.22814382018663087, -0.10329500878241227, -0.1632877589509144, 0.08938309476481986, -0.010551046671981486, -0.0418737714323888, -0.11758585748925651, -0.1687282118589391, 0.009813977870537387, -0.03721493012804108, -0.04456795888481375, -0.13103998797397967, -0.1394556297648863, 0.10884734923013839, -0.0022288761844542174, -0.000474464520251813, -0.03241156092010617, 0.1754720378414577, 0.3322908700437207, -0.07592507548367086, -0.18915832108688604, 0.16656637915506806, 0.013872798563569442, 0.34454982203407747, -0.13760317341582576, 0.052037486871190766, 0.048421034804081574, 0.1013373352634433, -0.07685506847026662, 0.09862858621040244, 0.11773306713420387, -0.1788726525487542, -0.12966356781634006, 0.07737890698128772, -0.2617573139004762, -0.09786813501347855, 0.058653267957249074, -0.04959338211556113, 0.23816088651335743, 0.06373506238540026, -0.18116856852841334, -0.04042171510310957, -0.05775802575288278, 0.052274520137396356, -0.054586564685849055, -0.012369566118384405, 0.1277298421362424, 0.11115022600927009, 0.16225069880189136, -0.03662789759508107, -0.12038169343569681, -0.13347600928200076, 0.007834549483386277, 0.01257507590676227, 0.09239718771431854, 0.06411405397324407, -0.17955480850811342, 0.07100469170680995, -0.12037421920632009, 0.01951084973651447, 0.06449535609681872, 0.17136878962213148, 0.16696716743172318, -0.10122453597632557, 0.0950115257754697, 0.056687982012320774, 0.003441296207546148, 0.19335970288963664, -0.02034019776823831, 0.02319702202157247, -0.0320011092477498, -0.01626089151909465, -0.04763554322359217, -0.04448682981243061, -0.19061420232271292, 0.031207370739287102, 0.020743794938208368, 0.06740018695843517, 0.11587274304993059, 0.09450888842141024, 0.01685072697382268, -0.11814969755485, 0.1727908997491798, 0.010742129359192075, -0.03588103748933585, 0.05606975196965264, 0.2796390634153605], [0.05153035226078882, -0.020446904654900473, 0.07685080758760633, 0.13262745995340283, 0.2546252985635171, 0.06606093347519809, -0.17997257922430168, -0.041913286780484164, -0.07727835358088946, 0.1381573485437449, -0.10849539962502046, -0.15254737406184973, 0.16059468270421517, 0.14332004689802655, 0.2280941231431997, -0.002347765012341708, -0.06140764850604229, -0.011484955350112494, 0.0923354932145004, 0.17487393661051526, 0.08186190725520333, -0.27008683830033287, 0.05440203005809395, 0.20054207599357576, 0.12119264188799149, 0.09751573359993737, -0.005936039436520331, 0.028790526026675912, 0.03026653100652128, 0.07192516172618155, -0.06773183069649498, -0.04285514665101056, 0.057803440219857616, -0.023719833419189026, -0.09375569552972902, -0.07729584844016356, -0.2458413377217545, 0.037192957719045364, -0.028771629958468093, -0.2105740500296413, -0.027255499413266267, -0.12514300004219764, 0.07364874563143928, 0.15617315764122328, -0.2064610648299121, -0.11547404295786227, 0.013382178050029312, -0.0873312815387936, 0.13469899207098343, 0.10042225339646854, -0.14597207731386203, 0.031186910051101715, 0.2241303238920214, 0.13517484507831096, -0.12373220784344667, 0.05529365974033256, 0.003172815587638425, 0.10503188202925441, -0.13279876517113226, -0.24750801643387313, -0.1568267234618834, -0.1262024886865777, 0.11209080864913172, -0.06708094344541468, 0.08843474605392981, 0.04362201845954578, -0.14671469995718966, 0.08194527359802015, 0.08968028616175919, 0.09931374643085024, 0.027063503835829845, 0.047914024066823414, 0.09648494695437754, -0.23341650362355096, 0.08896719826900325, -0.3647737340557299, 0.1465387074479241, 0.21114719489854172, -0.1262807357893738, -0.24978030237313, -0.0920383063978751, -0.3505904803323494, 0.21370512593692018, 0.09281888495538168, 0.08055161831602713, 0.20602712915883284, 0.1214363253268746, 0.062490416970814006, 0.09372422040582475, 0.02641914097112548, -0.03636006559526713, -0.3181701208347458, -0.018396109639023803, 0.12353440986406931, -0.07386814197274427, 0.05516931315743211, -0.199227538256686, -0.05130978897630239, 0.08260002894952936, -0.09761942767300764, -0.1889461050247514, -0.03639799286582545, 0.08311191398718387, -0.014661908573012248, 0.016315669638238654, -0.08605099035013068, -0.013712841755448233, -0.11240280854064565, 0.08109743115556242, 0.05878119448599553, -0.0945245328600095, -0.1320761972054843, 0.009067729159014735, -0.08415112814274815, 0.19175997122132854, 0.10116075422964649, -0.032628861534708245, 0.017521514295232087, 0.1013966206859144, 0.10707190272729973, 0.16017622013844685, -0.0029264791231517853, 0.028035119084928325, 0.032430051055888726, 0.030278023240235968, 0.06701559118676124, 0.0652144196846737, 0.13830796275114646, 0.35151420507373754, -0.12373619998343796, 0.061495253958721914, -0.09940740928827531, 0.12430015201107406, 0.06651397057833253, -0.0474765523013816, 0.12655745533952342, -0.06586380996949874, -0.028698946318694494, -0.0029987074106008877, -0.0909454464784031, -0.01885122156266233, -0.2230884913172564, -0.2301023823102552, -0.1900248730001111], [0.04283983560131275, -0.03968878548222762, -0.07920096876029648, -0.11390137025004268, 0.03715339550683662, -0.12132369809980657, -0.09557785493688921, -0.12443282822095696, -0.0904528314845434, 0.05637565747803665, -0.11445996627591155, -0.07416683231481458, 0.17606794603696696, -0.2598129412119887, -0.13323518484535773, 0.07922495563431806, -0.056682891640935415, -0.08964503483474254, 0.0757348786109128, -0.11106284628263145, 0.28410494287162297, 0.06671703813844083, -0.03709477017288484, 0.026590058700941298, 0.10968941188715609, 0.2799094108446479, -0.011425545807914283, 0.11965080810391726, 0.0755066828569606, -0.009055394406719151, -0.14958634785464547, -0.02448165202446462, -0.202627460861925, 0.11684966161753947, -0.19830127007387152, -0.024346326310356714, -0.07761155903788725, -0.07629634856166857, 0.04966381432847464, 0.049407605836548046, -0.08301921570544395, 0.18774626595168128, -0.17020613522748357, 0.05513899039010106, 0.0598143360952245, -0.020368724771555314, -0.18973190336308038, 0.14793373833764983, 0.09940788647638793, -0.19212082337928443, -0.036533971080436836, -0.11457175279517225, 0.0019349334419011485, 0.019988022877457993, 0.1495542770122002, -0.04062595136013204, 0.004507353103691181, 0.047957133414420865, 0.11358140685122968, -0.17045613961479114, -0.048123316691259514, -0.06801815773715227, -0.03758017669828516, 0.043277229242053336, 0.01815899872868364, 0.05851514451276876, 0.05665720166141509, -0.0387188533666289, 0.12715877583116356, 0.02373792062416338, -0.08043312447055716, -0.03620614265854976, 0.19352965256593546, 0.05123585607737104, 0.10852647086295875, -0.18057058987493926, 0.08059403988201269, 0.03972978366669335, 0.1238606046584463, -0.08304577152285351, 0.04953317959355145, -0.07876273007473299, -0.1452843465544364, -0.20472151918370085, 0.14070623272762162, 0.2345507879015814, -0.18113671138085566, 0.059953971404752414, -0.04306074368961972, -0.02341668442358161, 0.11371912547907445, -0.026867003984153474, 0.0436984435480505, 0.1494933024350036, 0.029348702952523485, -0.031316115451784844, 0.04930303015073344, 0.13070219889574297, -0.025324121340847598, -0.07519766071877804, -0.03302671950516008, -0.09705161549900498, -0.047032994960929685, -0.08705911559085186, 0.14371006314093998, 0.025289881449209992, -0.15593795520812184, 0.1342535635174949, 0.2769126437644804, -0.19477774121198066, 0.09715633909543496, 0.01812002417999173, -0.15212870977696064, 0.19056024513703199, 0.07702436658947244, -0.06948131222058944, -0.07574364146935725, 0.27038359069198803, 0.1723081308068922, -0.004967986456323614, 0.24527017527557962, 0.09550268228455476, 0.09816584580700817, 0.0017900661018133736, -0.10805238538447944, 0.10418041056518723, -0.11688176418318133, -0.0980069571556782, 0.14233860008807445, 0.07883987346486693, -0.025020434820183343, 0.2170627207275062, 0.16652810334471985, 0.03465927420506832, -0.10372034802644388, 0.0805258886174419, 0.02359686858432918, -0.11816755266186772, -0.020407905951607627, 0.014045382561222876, 0.03054026913296445, -0.13298223180914584, -0.13628314380078732, -0.12796044365342574], [-0.10325365862605591, -0.1498735739503192, -0.12625928746233675, 0.2362759024532822, 0.03277540193048285, 0.00404596226802289, -0.11073121442494727, 0.21653358404246972, -0.0855376462484246, -0.22383027113725665, -0.16152046362752218, 0.11962479126257987, -0.10527659633069064, 0.20477172120245293, -0.04209364383939067, 0.060644747091093965, 0.14237384717150486, 0.014248213634338371, -0.03793028346608207, 0.03874607559838609, 0.09886460095300052, 0.24007852532458035, -0.23150521934610716, 0.14709266851771913, -0.07664344945926069, -0.04194786261226007, -0.05436296849579383, 0.039825357188870064, 0.19253907962460284, -0.08505438535575677, -0.16626915543580895, 0.09386946759839963, -0.1891451570843539, 0.0967185424464077, -0.14284050729236025, 0.08355741730062202, -0.02077870815923697, 0.02126226466845259, -0.0020544839845726376, -0.24961672261889367, -0.058767397504112674, 0.0011406625656241055, -0.008342055871138548, 0.07342094685243145, -0.13127360099299107, -0.21889383769387422, 0.05236287129172207, -0.05292533444332233, 0.12669081502558124, -0.16239160163150448, -0.028830977888539534, 0.050636936388976046, -0.04005281667990332, 0.09707793192096546, -0.16571682603719248, 0.2648186605991533, 0.03815877158270942, -0.03643407981506463, -0.023959479638860748, 0.07971772060503839, 0.34734782691045885, 0.03733293195377639, -0.054126157268282515, -0.014154732669398973, -0.22649304592290917, -0.22883117167258243, 0.30057954765008194, 0.21613422897607515, -0.06085824947832588, -0.1592419384768701, 0.16720945358812342, -0.029970487610261477, -0.09550529438613524, 0.23952715589462842, 0.16569676518112086, -0.1834347233656246, 0.10879519067669347, -0.27507436703056753, 0.15163987330895184, 0.1774855517911687, -0.0007764793557736589, 0.0986352125529802, -0.1404604158374578, -0.02041710439066636, 0.11414286545566235, -0.14735961013170812, -0.20879778278753347, 0.018294713414426456, -0.010963707674027464, -0.20431123933005485, 0.10736857996633638, 0.06230085739347694, -0.11897828027715059, 0.09691072246007976, -0.03452971398502809, 0.06807945458976286, -0.035309926811695494, 0.006007924526389179, -0.17678519260167078, 0.06383845566795625, 0.06826099688882961, -0.16071163010978914, -0.11335330269963921, -0.05252366070827518, 0.19530993650681922, -0.02675215926361902, -0.012939898937953692, -0.05417408075868917, -0.2795600777349804, -0.03528230684377218, -0.06971399339988227, -0.08544772788459883, -0.04219482333146235, -0.12130510467811577, -0.13208148018506077, 0.12694112714896896, 0.09981068770890701, -0.06700219207550455, -0.02564040648807759, -0.017177419662245664, 0.047649648013146556, -0.11204851894011987, -0.06890823536412466, 0.042272232748310504, 0.004023751002846078, -0.009822935316884409, -0.18703488487785463, 0.23661970757621212, 0.026910840040771596, 0.15665069226710984, -0.029704553878478476, -0.2137601635896746, -0.20097756830151808, -0.278989588714503, -0.04831238594586678, -0.1077284805562772, 0.14179031392281097, -0.009237821777191044, -0.009915900721485254, 0.20862147657882854, 0.18785709064431486, 0.013433825112594774, -0.03189650429077408, 0.3934486015642079], [0.06635980979144807, 0.13379263945706718, -0.018057852600212546, -0.023553478636215066, 0.26872910275259737, 0.19589382792349025, -0.13472596082908414, -0.10859418493093623, -0.12235331500245353, 0.049795112316541955, 0.1500620078928077, -0.0973236021390971, 0.0767610457005811, -0.12629651634473138, 0.0891116308915137, 0.025236214685736714, -0.012667002688436317, -0.07613982955857779, 0.004115768053129803, 0.09933809495250809, -0.08493094629443922, -0.2105841992499322, -0.21303361812440594, -0.021642241037377313, -0.052832955372607834, 0.13052900583490515, 0.3465233348253045, 0.13873983003082974, -0.02046590617077487, -0.03598125992258662, -0.03217670371572978, 0.014526142101307893, -0.17050500135951813, -0.2153224372223473, 0.055241778616706046, -0.09794925910729656, 0.11659951763916106, -0.1667295590466115, 0.1414774129667725, -0.3241578723365598, 0.0525551830193139, 0.0855378584272234, 0.03574264245850223, -0.026364598293161685, -0.12262135031622984, 0.140934640591297, 0.055626466664544544, -0.19378621466883764, -0.049805498770287185, 0.09290102759313477, -0.0020267883575603722, -0.03535911601962092, 0.09870258441792563, 0.18009922839144923, -0.06839957985844436, -0.19181388865932797, -0.043624864753906166, 0.10678364530553941, 0.21031260566850155, -0.07576461075856188, -0.03234407025143682, -0.157950098564507, -0.1850797103096119, -0.08612346901770214, -0.19976290200269434, 0.07807593635466974, 0.03141522339389837, -0.11899193731930245, 0.09096246087103665, 0.10226719887980179, -0.18071129148245751, -0.12517161960465695, -0.03545391225357199, -0.0808598020377315, 0.18164623599840315, -0.11452898676276278, -0.11641245593780672, 0.2763336255773118, 0.04866337268626754, -0.07476424862133786, -0.0615289108788687, 0.05777391247970586, -0.10312830707106646, 0.1984857888344432, -0.17344694534604402, 0.07301541133088171, -0.21779198795000718, -0.04210358629596523, 0.06242043470409253, -0.22398243716415034, 0.05423027168144232, 0.05932674941227919, 0.24384872700251803, -0.0949559357167341, -0.02011210726169882, 0.13044944484702048, 0.026200335565843082, -0.13425740593742166, 0.34606558328224724, 0.2353482439846873, 0.20570712772670738, 0.024612803454803406, -0.09611462812011365, 0.01671964000429604, -0.10439252606581528, -0.1060974946413509, -0.15416392928549547, -0.03702604817112516, -0.020697803390447387, -0.1625710557742845, -0.2024596586165241, -0.021230548864901888, 0.05026361735066469, 0.10183691850888894, 0.08034277733084806, -0.08453359131467036, 0.05131908004824724, -0.07792619532739804, -0.13119388819498662, 0.041516157424588675, 0.259235954046173, 0.1638579377323731, -0.039215833579370925, 0.23323100326109647, -0.18788555838169288, -0.027706094197638153, -0.10520682305505899, -0.08979262900058427, -0.01587132180095545, -0.08136477586619402, 0.20585653065546786, 0.07963365225217507, -0.08234758133101008, 0.1872567349510104, -0.1336175836768956, -0.040963514869386396, -0.12017834197059239, 0.1713574356098479, 0.0054073125514274714, 0.28208872212886227, 0.07954452369390942, 0.169953640956757, 0.1396846696807191, 0.12457906907281006], [-0.34965187138255366, 0.13699841091580506, -0.16112965317626485, 0.016760312389322164, 0.4097050895495313, 0.0978606584009938, 0.35371517750278786, -0.0014882895846877319, 0.04506903389198677, 0.026879492880580797, 0.06036806248291052, 0.06357232756663847, -0.22549585785005077, 0.2812935787301265, 0.013904076626276993, -0.1492817002780027, -0.0774133165130326, -0.19368238157860887, 0.03304297043695323, -0.23777044134643752, 0.07627744655282628, -0.03295256380633461, 0.13993935136292338, -0.19727481728194057, -0.046807159805584475, -0.03317221434827894, 0.07844382286408523, 0.05035383764348324, -0.1564443014375695, -0.047226453490039365, -0.22155823407811548, 0.029135675313051296, 0.030966424097011204, -0.06334994568708578, 0.0829684772880801, 0.08994572070775927, 0.36524273970319804, -0.1326158922809263, -0.29007608377078764, -0.006923454897296, -0.19997254867076836, 0.13265382150187735, 0.05943580246373066, 0.0810621522417575, -0.045802549163627464, 0.051245317910070115, -0.13675003714695774, 0.03880539643950406, 0.1462928411619185, 0.20505361044896572, -0.13975198295419536, 0.001122216149585461, 0.060800149049914265, -0.07252029533784535, -0.17460379536366158, 0.063216181529242, 0.2719187090367421, -0.13203844449371965, 0.22973447573960934, -0.0393464839973975, -0.02662185229523437, 0.03524852375023961, -0.1123370619480835, 0.034757538783544525, 0.06493403971233917, 0.009782406004038147, -0.2597554091547839, -0.028855781145979923, -0.006307101190484781, -0.07042567640254607, -0.1953600980471018, 0.201231314693283, -0.15465690348936922, -0.12664245469698637, 0.18777275632393506, -0.01803062351237658, -0.10323292578112754, 0.06560655015239199, -0.15757929359587944, -0.0781247698050619, 0.050813633705556305, 0.053998988959095, -0.051181524878245045, -0.08145029190279024, 0.15328165374209615, -0.04241282619310417, -0.22810597782125552, 0.16170960425617606, -0.23422302043193508, 0.050424229031022526, -0.07257064323560275, -0.2041217663780809, -0.13120404876737668, -0.04407826305924807, -0.07472455394827546, -0.03326649556916963, 0.09366922711137343, -0.036306996803547195, 0.00726123933242156, 0.10582822359071206, 0.0032788972908952686, 0.0915228840844771, -0.07936321912305691, -0.16317478544447353, 0.09344796711735254, 0.24251146940775012, 0.11322516594016359, -0.12155248151597874, -0.2022413758996967, 0.21513717373898614, -0.14318255770743615, 0.12461206729151339, 0.05195006908189435, -0.07981468089421169, -0.20463853567452797, -0.05710455450544316, 0.22783913179737622, 0.0865534364445178, 0.017792636498515643, -0.08980682463274788, 0.12501425190948184, -0.050059679973433004, -0.054591851001136366, 0.08291820096968697, 0.039316917988328474, -0.05649462184573038, 0.12138504200026398, -0.016869651606583234, -0.1179494594567184, 0.21046592933347766, 0.14769937997154328, -0.09101936766568237, -0.022572783566793576, 0.1045823353614439, 0.003993417841995268, 0.09362923330754341, -0.10914394103843496, 0.001154410312809008, 0.009045167145530487, -0.11089889597126076, 0.21375213614702396, -0.10199441886399058, -0.05351817118923201, 0.042091370149601126], [0.0693123167149543, 0.033081162987787106, -0.07311609330925628, -0.0029768178718777927, 0.07595611771592477, 0.2090205593420168, -0.031729299920163, 0.08395654466403271, -0.06594278301036949, -0.2939666559700225, 0.2610019267311323, 0.03238273420043717, 0.005754214531531957, -0.0659434073527589, -0.1189540872886987, -0.007715779338876193, -0.10937946251800891, 0.011954586544753332, -0.01987946059695704, 0.07009289143494087, 0.01692456409090174, 0.15884734399833797, -0.056399340320171965, 0.0699867965618795, 0.1742317030282268, -0.09047018844726015, 0.20099467811827923, 0.09834498113927723, -0.018746646327099825, 0.0555330271943403, 0.14995526618598978, 0.040932789801806486, 0.17605503184870377, 0.13185134564512088, -0.2938417422105201, 0.04216189030244503, -0.06717211775256854, 0.2782301029995018, 0.023338365653118077, -0.0008168347964045456, 0.2785801547609082, 0.0016058686355178073, 0.18966657321640726, 0.20348148265769886, 0.05621935471835019, -0.060319894415116294, 0.048481039882481786, 0.10489097942307549, -0.004277080832961298, 0.21343213938544467, 0.05941932232713833, -0.24073432745890203, 0.03763169637552966, 0.06039434063716459, 0.2376774084397178, -0.15724459916555686, 0.15124969079147477, -0.2645612104055446, 0.023951382201916727, -0.043856713524906395, -0.17239930667995176, -0.06141042791485214, -0.16776909077640484, 0.18337778774959956, -0.1275001480399318, -0.0868608734344171, 0.1565547898377192, 0.14427606294595405, 0.06692020675680083, 0.14176486842413188, -0.1034380203958232, 0.0876791180739704, 0.04053810629788657, 0.002043642630014987, 0.010877484373896228, 0.07727706129259751, 0.2853310132039567, 0.1808143056913314, 0.1839431731032364, -0.19875262617872047, 0.1450078403173494, -0.020665092517603123, -0.12284811065964366, 0.19914419047370532, -0.06333098338041472, -0.059061763511016815, 0.014165596024811298, 0.007907795829216612, -0.08027297345403893, 0.18981154640870238, 0.18747711085747706, -0.07626332630241633, -0.4314464310142007, 0.24230821167489097, 0.105214755591274, 0.04805856654733928, -0.19608848155596356, 0.09623169402633854, 0.20403993912824256, 0.05281451557697599, -0.22221430598117123, 0.0985316972804308, 0.08280349669468183, -0.1178752305225937, -0.218821422924542, 0.06629060847032062, 0.144778138178563, -0.0615118202990418, -0.15543341379683473, 0.12091581648145021, 0.1467228423703499, -0.038740692936606834, 0.11279809237637181, 0.05331764365486517, 0.17974358235121415, 0.06889066487015022, -0.004286309905381831, 0.02943325529893709, -0.2230565190190756, 0.026031241290422412, -0.20998607333792632, 0.1008009270483681, 0.06600079900602206, 0.08471734847966693, -0.11468666540180376, -0.0443417637762957, -0.14097303578971793, -0.008491096140777006, 0.0880089079279626, 0.05132391550598463, 0.025730357886313, 0.055838336979862194, -0.21370154851197373, -0.09566550074945512, 0.1535569068882459, -0.13623986209016872, 0.09179913562627436, 0.08898175859359779, -0.2061770663792715, -0.26112097623913133, -0.13538330900620466, 0.17713947429424223, -0.046250022179660316, 0.1016411698660309], [0.12661149571112273, -0.044908153450748764, 0.10000304976405613, 0.06287754537064431, -0.07483883673748398, -0.10310888087212047, -0.0034060192982052796, -0.10807025324934143, -0.13129544074581248, -0.07892743841489404, -0.04661748863626969, -0.1319324817779258, 0.10103124905252835, 0.04456358995651926, 0.04179263964536906, -0.08000141803025114, 0.09956881826392767, -0.11169267533187895, 0.13542706648866223, 0.14830764002392838, 0.2745510351279445, 0.28534166862256005, 0.08263995715693273, 0.10457166335392065, -0.1565231261028246, -0.15397015142458675, -0.06326044237430564, 0.0040681306064558305, 0.003525693398116962, -0.039194455100444794, 0.07104768622648117, -0.008195836413114136, 0.25265350596485114, 0.012517152605116245, -7.259921883023545e-05, 0.0723743384500865, 0.18413743837901542, -0.1192664169734614, -0.04656437162826865, 0.1666140246875891, 0.1673533414320689, 0.005261802062530164, -0.19965455203193982, -0.054060915351871956, -0.010804582992640765, -0.03343314578306235, 0.09130938480467439, 0.023567315036876337, 0.007198861486725413, 0.1726148549906254, 0.1216305430181017, -0.04336995535401414, -0.15182571648180807, -0.0477095622260705, -0.1951447496211233, 0.3852167646679286, -0.039135020418498125, -0.11299330845164576, 0.059545290454905524, -0.01156532708758299, -0.273651481719086, -0.15756918378580867, -0.06681382318782754, -0.0020108123069062385, -0.1651735234671564, -0.16920624352163285, 0.11039701406785019, -0.053226167469706834, 0.006410374044952475, 0.05940683666384878, 0.07671133454530037, -0.1849621448780301, 0.04552342503924835, -0.1119160383548354, -0.12031947039786081, -0.3896388457163168, 0.07481841002273566, -0.07119758989377492, -0.04422765977660533, -0.016657250206057704, -0.11947293829182867, 0.08200940416738815, -0.01017380992626249, -0.036237638006524284, 0.12354157253391297, 0.041488864508641095, -0.011581506652269829, -0.03598716570120348, -0.2523748503168374, -0.05661450892098568, 0.13175353073310048, -0.11500441714335724, -0.0597517284373656, -0.009549560011947657, 0.24316171378133913, -0.23926817246607923, -0.01944186976199491, 0.03561202791009481, 0.13123022764977788, 0.21407715116926437, -0.05289080818865518, 0.2048329427866949, -0.144917942365312, -0.24259561771099136, -0.1048147878243884, -0.11724179109458557, -0.01633243007222306, -0.03491622078741296, 0.06303558536593322, 0.16351783466164566, 0.06668704313686327, -0.21009395981796528, 0.007376373141223734, 0.2084433152491171, 0.15128330202208085, -0.06629516929190102, 0.00791036794484205, -0.03634016151779071, -0.12955948619735871, 0.14778674890949378, 0.06196823389952504, -0.13720626685222176, -0.0015588259451267449, 0.3622972222279029, 0.10479947197224963, 0.02945239533326641, -0.03375060462675144, 0.15237658175492896, -0.1683824030783636, -0.0754386351465859, -0.031814769750404474, -0.13038069509384279, 0.31211871015974074, -0.08508382176106032, -0.03910454656328483, 0.10579065336330555, 0.09944677326009625, -0.26938334362304267, 0.10264736385950492, -0.10356235994239528, -0.12816589648262297, -0.04084207867682858, -0.05690050433481694, 0.0255940878957796], [0.10727659730861085, -0.03720300806381655, 0.18841113992691935, 0.02395523974959878, 0.047221833549632504, 0.007753753081229619, -0.21555015963184485, -0.04282770328541927, 0.09160068481455773, -0.21577817761194867, -0.005669502625044383, -0.20265160621819073, -0.00918888119370326, 